<?xml version="1.0"?>
<opencv_storage>
<SignDetect type_id="opencv-ml-ann-mlp">
  <layer_sizes type_id="opencv-matrix">
    <rows>1</rows>
    <cols>3</cols>
    <dt>i</dt>
    <data>
      400 20 22</data></layer_sizes>
  <activation_function>SIGMOID_SYM</activation_function>
  <f_param1>5.9999999999999998e-01</f_param1>
  <f_param2>1.</f_param2>
  <min_val>-9.4999999999999996e-01</min_val>
  <max_val>9.4999999999999996e-01</max_val>
  <min_val1>-9.7999999999999998e-01</min_val1>
  <max_val1>9.7999999999999998e-01</max_val1>
  <training_params>
    <train_method>BACKPROP</train_method>
    <dw_scale>1.0000000000000001e-01</dw_scale>
    <moment_scale>1.0000000000000001e-01</moment_scale>
    <term_criteria><epsilon>9.9999999747524271e-07</epsilon>
      <iterations>3850</iterations></term_criteria></training_params>
  <input_scale>
    8.0345718674332112e+00 -1.2385838108104614e+00
    7.9308503364220808e+00 -1.3792672366364434e+00
    8.2082846519204562e+00 -1.1396899254137984e+00
    8.1789427372618704e+00 -9.3315082747476630e-01
    6.7749367417410840e+00 -1.4539996371625230e+00
    6.1799777411955015e+00 -1.4015777634471203e+00
    6.6261022375398131e+00 -1.3401231552791326e+00
    6.5669429018833840e+00 -1.2037752514594180e+00
    7.5417032076082169e+00 -1.1060394589487750e+00
    6.7004852109286368e+00 -1.4517936306264838e+00
    7.3363277220770104e+00 -1.7816081066316405e+00
    6.2404546624046766e+00 -1.1188284879681729e+00
    5.9582429226349367e+00 -1.2940473719900920e+00
    5.7595446399526100e+00 -1.3951382834040418e+00
    7.4696074826316856e+00 -2.1333216983325562e+00
    6.3765610227470200e+00 -1.4384494710561673e+00
    7.5700930486768039e+00 -1.2960597822062101e+00
    7.5248714115342281e+00 -1.0965604979628638e+00
    7.1659789010788177e+00 -1.0951131041483426e+00
    7.4362876090739656e+00 -1.2562967788622845e+00
    6.9598404909085341e+00 -1.4842179506347581e+00
    6.9412893193355814e+00 -1.1150049126234356e+00
    7.2979983156984574e+00 -1.2829966086151239e+00
    7.9816123864212543e+00 -1.8095120442585870e+00
    6.6186753075125031e+00 -1.2999952371249637e+00
    6.7919860981265616e+00 -1.2771388277494524e+00
    7.1098046232615726e+00 -1.6245686314817580e+00
    7.1211917145448966e+00 -1.6857628950018131e+00
    6.4333645559781214e+00 -1.4395891688956277e+00
    6.7077607100050294e+00 -1.3796210517386434e+00
    7.7781651104919476e+00 -2.0310189562694125e+00
    9.7483856990208011e+00 -2.9517791733950078e+00
    8.3521557812564868e+00 -1.3928229465801809e+00
    8.5869363217450552e+00 -1.1051275099935856e+00
    7.8134551022817416e+00 -1.1381475813580082e+00
    8.9072340329807247e+00 -1.6567315594339662e+00
    7.5602559760623071e+00 -1.5233868930705099e+00
    7.6449247410130505e+00 -1.2801938199218188e+00
    7.5988634628863005e+00 -1.3420789308497825e+00
    8.0379623501921103e+00 -1.6311015422737694e+00
    6.8894023851276458e+00 -1.3824817348094223e+00
    7.3954402854685553e+00 -1.3322521153354900e+00
    6.6349757597948722e+00 -1.6602282126976444e+00
    7.9763497439856232e+00 -2.2898216197115349e+00
    7.0383989369128912e+00 -1.6499375645219569e+00
    7.2999284673120224e+00 -1.6932771035312160e+00
    7.0422229591988001e+00 -1.8786106299477845e+00
    7.9850011982913562e+00 -2.2669381867207941e+00
    8.7699915008207565e+00 -1.2972119148359538e+00
    9.0998652982760895e+00 -1.1430922249342308e+00
    7.8976120458503738e+00 -1.2372055079585533e+00
    8.4962117926070206e+00 -1.5086344912526397e+00
    7.2474880909102817e+00 -1.4106938069808184e+00
    7.4919021675112232e+00 -1.2896036005619773e+00
    7.0088366613748727e+00 -1.6619602144869481e+00
    7.5637116888383789e+00 -1.9575074913158585e+00
    7.4248242578130670e+00 -1.6004344174349967e+00
    7.4953328402904882e+00 -1.5822443875248096e+00
    7.1351142492866213e+00 -1.5356094084031127e+00
    7.5163874000161748e+00 -1.6162427087068902e+00
    7.3274123825692632e+00 -1.8289791693936506e+00
    7.5404263725208516e+00 -1.8931269097816310e+00
    7.1257736902191944e+00 -1.7291516131056768e+00
    7.2476709157006356e+00 -1.8654908199916331e+00
    9.0414273261300053e+00 -8.5564649289438532e-01
    7.6215011641804358e+00 -9.6766730326837269e-01
    7.9420472251522947e+00 -1.7044824103851590e+00
    7.8345340821426976e+00 -1.6102429879736182e+00
    7.8183744960835728e+00 -7.3083031115294639e-01
    7.0444550439361464e+00 -1.0420311226637664e+00
    7.3762575839291564e+00 -2.2865905591491789e+00
    6.5108058320106759e+00 -1.7622238980463221e+00
    6.8614240356625640e+00 -1.0562862159209494e+00
    6.7975101876593724e+00 -1.3836386330075270e+00
    7.0417772436373038e+00 -1.5196922044907955e+00
    7.5338127653557283e+00 -1.2716943435925583e+00
    6.6576215350406640e+00 -9.2118628083419452e-01
    7.4186708883321009e+00 -1.7987042353078104e+00
    7.4482600427542680e+00 -2.3577301411951965e+00
    6.5784681849573872e+00 -1.6371286414285007e+00
    9.4593068413829862e+00 -7.0481326368217745e-01
    7.9088764412866741e+00 -1.2477726398613769e+00
    8.2287004595645445e+00 -1.8336907273398459e+00
    6.8874857373545550e+00 -1.0816834474907515e+00
    7.3070535947324373e+00 -1.0004680509214399e+00
    6.1242702112782261e+00 -1.2582327910985565e+00
    7.8488994708394255e+00 -2.2671304272450867e+00
    6.4616275300964929e+00 -1.4713392141381745e+00
    8.2474707351308840e+00 -7.3839799885378743e-01
    6.8962791204940377e+00 -1.3238454621960762e+00
    8.8941999309526807e+00 -2.3593067899519391e+00
    7.1202586420366050e+00 -1.2536048683531371e+00
    6.6434699171403162e+00 -1.0637646981663305e+00
    5.9920683201346971e+00 -1.2976980340618340e+00
    9.0675480430830486e+00 -2.9168451646907054e+00
    7.5495735261235897e+00 -2.0832550649860995e+00
    8.5022155725985282e+00 -1.0358069337540186e+00
    7.6096873563503289e+00 -1.0866728826659406e+00
    8.3366379939766997e+00 -1.6159348078556801e+00
    8.3931611358964044e+00 -1.7047248403985864e+00
    7.1232720091454924e+00 -1.2268879047215719e+00
    7.5470273213066932e+00 -1.1791368323474407e+00
    7.6534324600609729e+00 -1.8634918413231416e+00
    9.4664588274346446e+00 -2.7032100497344174e+00
    7.3245905729565539e+00 -1.1502422952824982e+00
    7.3190404506271056e+00 -1.1287800626529159e+00
    8.1107062114908235e+00 -1.9735917484183487e+00
    8.6789759087887024e+00 -2.3731832085287299e+00
    6.8602709480551143e+00 -1.4011574871859409e+00
    7.0745725516697187e+00 -1.3330989443824608e+00
    8.2601925070549544e+00 -2.2749444302984521e+00
    1.0735002108507826e+01 -3.3351265248988202e+00
    7.9298317680031429e+00 -1.0020578243507665e+00
    9.7144252940850446e+00 -1.0135134466305202e+00
    7.6529820391777621e+00 -1.5604751497820497e+00
    8.8887578263924816e+00 -2.0168275318617539e+00
    7.0426246395936518e+00 -1.2751807325967361e+00
    7.4699432142194437e+00 -1.2401376632107077e+00
    7.8131698957964177e+00 -1.7427272798218905e+00
    8.8579660175698347e+00 -2.1309762109933259e+00
    6.9842973837756510e+00 -1.1446880152794072e+00
    7.1659306512575842e+00 -1.0581269370086066e+00
    7.4061883815927381e+00 -1.8865189629385575e+00
    8.9880079668405379e+00 -2.5882258077473610e+00
    6.7965090233123453e+00 -1.4224156971311548e+00
    6.8008342997126956e+00 -1.2661964701692030e+00
    8.0762347789052988e+00 -2.2646904016842733e+00
    9.4381451029024852e+00 -2.8499714367141329e+00
    8.1137117584920926e+00 -1.3359687083029472e+00
    8.2730665338464533e+00 -1.2276952343957550e+00
    8.4276064516844436e+00 -1.2612329325517886e+00
    8.8860473433544094e+00 -1.4008382893532996e+00
    7.3824882684326099e+00 -1.6288533215203800e+00
    7.0461730821782114e+00 -1.4963351686871107e+00
    7.7833592890913126e+00 -1.2472169163160960e+00
    7.9530276066794432e+00 -1.2496971788273818e+00
    7.1055749767771621e+00 -1.5811652475411297e+00
    6.8269524260559367e+00 -1.2776466695672497e+00
    6.5142720256808575e+00 -1.5873578092167193e+00
    6.6384341002169354e+00 -1.7494821219322036e+00
    7.5194001775279071e+00 -1.9555863296338614e+00
    6.9625813155909109e+00 -1.6144683300654219e+00
    6.3655086458787613e+00 -1.5063879893925547e+00
    6.3868348209090788e+00 -1.5980359075391115e+00
    7.9654541654557631e+00 -1.3358611961513347e+00
    7.3043234744541117e+00 -1.5188028168888774e+00
    7.7543489844600346e+00 -1.2808991500980691e+00
    9.3727283655225886e+00 -1.0599329141646983e+00
    7.3231959300515452e+00 -1.1047704573425661e+00
    8.2425133977615861e+00 -2.2491472170127156e+00
    6.9810888461617102e+00 -1.8920026780655237e+00
    7.4445883251230898e+00 -1.1576526907839417e+00
    7.5380752033010765e+00 -1.7813770348297657e+00
    7.3334161004418519e+00 -1.7291296082053278e+00
    6.9054606193180605e+00 -1.3098936770527401e+00
    6.9700738279904311e+00 -1.2056807653202521e+00
    7.0627227559526000e+00 -1.4809671421563115e+00
    8.5341481791782137e+00 -2.4955517111076491e+00
    6.7005078768958288e+00 -1.7175404084409327e+00
    6.8996889570426285e+00 -1.1603535864447456e+00
    1.0650419961078683e+01 -7.7635902150958214e-01
    8.9756241643825128e+00 -1.2481746845011727e+00
    9.0228127639837510e+00 -1.6707163506919525e+00
    8.2305286657818133e+00 -1.0083027661505495e+00
    6.7646880312793822e+00 -1.1329730824116360e+00
    6.6973629433462616e+00 -1.3726718772384501e+00
    7.0071267020722550e+00 -1.9969338203769544e+00
    6.6064265211180988e+00 -1.6904758020989978e+00
    7.4029665785167884e+00 -1.0082096763242261e+00
    7.8581337729421596e+00 -1.8990412539453201e+00
    7.4881893143934750e+00 -1.6075830194520211e+00
    8.7388326924991748e+00 -9.5595211690740378e-01
    6.4387708069284786e+00 -1.4837562050098476e+00
    7.3923819583356174e+00 -2.1695538666064085e+00
    6.8903035794769432e+00 -1.9773293124333491e+00
    6.8775028471812583e+00 -1.7286553498925170e+00
    8.4128477274721014e+00 -1.1134278669861430e+00
    8.6871130641286793e+00 -9.9629002842364456e-01
    7.5676420934535651e+00 -1.2958513538518046e+00
    8.5322789433339921e+00 -1.6784490830427807e+00
    6.7683709171306283e+00 -1.3539697090548410e+00
    6.7292920843984492e+00 -1.1993252844144919e+00
    7.0851527885222589e+00 -1.6450889810750231e+00
    8.2270580033640730e+00 -2.2392511075107411e+00
    6.5480949099870944e+00 -1.3679333958373299e+00
    7.1218818994635171e+00 -1.4202716135310705e+00
    7.1967827366589825e+00 -1.3520241547001628e+00
    7.8952387705454425e+00 -1.5755695703905597e+00
    6.4787942406611601e+00 -1.5387847025710970e+00
    6.4517290818522310e+00 -1.4329190353799490e+00
    6.8418838604159724e+00 -1.6502706858314833e+00
    8.0088028354571552e+00 -2.1948651353486062e+00
    8.2828204060141548e+00 -1.0338122086404720e+00
    8.3349355698146823e+00 -9.7437088025880292e-01
    7.9128658325640808e+00 -1.4390940474236613e+00
    8.8070310442707260e+00 -1.8843017811906670e+00
    6.8937775542790298e+00 -1.1379550638736062e+00
    7.3133079214425205e+00 -1.0063099013773427e+00
    7.5634474003612064e+00 -1.8923788732772937e+00
    8.4291351081976416e+00 -2.3406941314048439e+00
    6.7223505944475948e+00 -1.3141276344615020e+00
    6.6698995760326030e+00 -1.0890648902765667e+00
    6.9601422093118117e+00 -1.5029309918359568e+00
    7.8675776431824724e+00 -2.0327065910072379e+00
    6.4131613420840363e+00 -1.3740999866793033e+00
    6.4338562131733221e+00 -1.1082813359319115e+00
    7.7812705043142039e+00 -2.0986981192118335e+00
    9.0844905575999384e+00 -2.6991020101789100e+00
    8.5650647315257107e+00 -1.0490082492691537e+00
    7.8668416258121479e+00 -9.2954800505856539e-01
    7.4773433079195950e+00 -1.6594007656275096e+00
    7.6165013460818800e+00 -1.6423579387607457e+00
    7.0646500704197983e+00 -1.2483336927145585e+00
    6.7321461095683652e+00 -1.0846787279751093e+00
    7.7115066980816573e+00 -1.6842088399895154e+00
    7.4854041340073527e+00 -1.6612506776571829e+00
    7.1300136251952262e+00 -1.0922173746216008e+00
    6.8949056312945318e+00 -9.8963510885992378e-01
    7.3851652788034459e+00 -2.0468303012610227e+00
    7.8714878941647326e+00 -2.1955988550994006e+00
    6.8348729667690282e+00 -1.0544354052443348e+00
    6.6636952679340435e+00 -1.0334330586847515e+00
    8.3856043728540328e+00 -2.5648359773262959e+00
    8.3858481582426165e+00 -2.4909028355323337e+00
    7.3504344628590239e+00 -1.2280723027637197e+00
    7.1358267237076678e+00 -1.1723601386847122e+00
    8.1247561500211170e+00 -1.3646750554305955e+00
    7.8518825475445952e+00 -1.3797957484773860e+00
    7.3608374325584558e+00 -1.1546999829594256e+00
    7.4244428983008879e+00 -1.4710657280870443e+00
    7.4206211698268394e+00 -1.3244908169627663e+00
    8.0892336543924248e+00 -1.1334690969094945e+00
    7.0059106830888958e+00 -1.0716429596106181e+00
    6.7748500578412019e+00 -1.1054734005348081e+00
    7.2253601955519366e+00 -2.1753319211926527e+00
    6.7555798514668277e+00 -1.9456268006822119e+00
    6.7956263238580661e+00 -1.1530766999605400e+00
    6.9403355817236037e+00 -1.5435278263816201e+00
    7.4041132621318333e+00 -2.2097291522786282e+00
    6.4758973707516052e+00 -1.6966083184193410e+00
    9.1403729850714175e+00 -9.3895261303257149e-01
    9.7361780672299272e+00 -1.9086645356043261e+00
    8.1435662934955477e+00 -1.4501612671606059e+00
    1.0081296674774769e+01 -7.7592551285015798e-01
    7.0136251415393494e+00 -1.3736423501105655e+00
    7.7658383842882177e+00 -2.1573547729640161e+00
    6.5776443975315964e+00 -1.5333481929842816e+00
    7.2880286429594170e+00 -1.1785827171102434e+00
    7.4654326188065854e+00 -1.0020396074083522e+00
    7.8024773384320127e+00 -1.8793675658402340e+00
    7.8649844920477552e+00 -2.1373243761641620e+00
    6.9248253472776700e+00 -1.0417044401545039e+00
    6.7670913522289711e+00 -1.4224825758159292e+00
    8.2227784607379988e+00 -2.3803423368795467e+00
    7.4647269570553112e+00 -2.1770015862828034e+00
    6.5522038679035441e+00 -1.5018648081381893e+00
    7.3593677159993049e+00 -1.2242727559073290e+00
    8.4016131178401050e+00 -1.3888842961168688e+00
    7.9576854533867598e+00 -1.2501962830056734e+00
    8.2249679541176519e+00 -1.1422691062982229e+00
    6.8249921077358433e+00 -1.4854665192737033e+00
    7.2670447170270425e+00 -1.4283398889672454e+00
    6.0680237311797365e+00 -1.3277090489809105e+00
    6.7942542159668227e+00 -1.6535110574627654e+00
    7.1344132324127818e+00 -1.2695959179755647e+00
    7.4287400192706317e+00 -1.4814850018538737e+00
    7.7433652156471728e+00 -1.5667255401939575e+00
    7.7510097434783978e+00 -1.3939253268721794e+00
    7.3909768736299641e+00 -1.7866583096663278e+00
    7.3235406222154316e+00 -1.6527908624718923e+00
    6.6963020664843294e+00 -1.7267304478788694e+00
    7.9144807736884486e+00 -2.3071087952653544e+00
    7.2161256093210771e+00 -1.2898485297486209e+00
    8.2538150919312816e+00 -9.8523063128633326e-01
    7.3370600631495400e+00 -1.1777764986650130e+00
    8.0887394762643634e+00 -1.7695586847026770e+00
    6.7407455091469988e+00 -1.3616630626250590e+00
    7.0515041844098700e+00 -9.4032725411636731e-01
    7.0707227215976767e+00 -1.6067815413652182e+00
    8.6611069995829819e+00 -2.4993374356679148e+00
    6.8347936570831438e+00 -1.4993935867755190e+00
    7.4685837782640965e+00 -1.0763036927894951e+00
    7.5223624169673551e+00 -1.3407108864660475e+00
    8.6054461229082158e+00 -2.2494657777350575e+00
    6.7200844161788105e+00 -1.5369407604222605e+00
    7.1984952337104637e+00 -1.0733967478293318e+00
    7.0648040203398335e+00 -1.6969518732823430e+00
    9.6283945198733214e+00 -2.9825801146241067e+00
    8.1926271188021378e+00 -9.5011599197703600e-01
    8.7815112921428824e+00 -7.9922020847339437e-01
    7.8036404611969337e+00 -1.7294242007784142e+00
    8.7576612050907379e+00 -2.1106052652883562e+00
    7.7735668532594451e+00 -7.8390363619940195e-01
    7.5972927239053005e+00 -8.3444086521658256e-01
    8.2098499331726718e+00 -2.3585320947749433e+00
    8.3759016506613584e+00 -2.4080840079562362e+00
    6.8176494674094217e+00 -1.1121735237301125e+00
    7.4945728963574716e+00 -8.8861711281764011e-01
    7.2756459843726171e+00 -1.8266184907352123e+00
    8.8200198322458352e+00 -2.5694153833040105e+00
    6.6860561076161593e+00 -9.5559656294426643e-01
    6.4643723321470450e+00 -1.0380557352806679e+00
    8.6543154559535829e+00 -2.6202811993012451e+00
    8.7769653804214478e+00 -2.6279413488674224e+00
    9.2985532840045710e+00 -6.5773743831762543e-01
    7.4365982294474282e+00 -8.2795114011147786e-01
    7.9910463012544177e+00 -2.1449328726683135e+00
    7.6375826912446225e+00 -1.8080570158768203e+00
    8.2779667982502119e+00 -7.9533443207562604e-01
    7.1872266734964274e+00 -1.1489752271314324e+00
    8.8561922897638627e+00 -2.2494594876338021e+00
    7.1221513606460505e+00 -1.3907511303014704e+00
    7.7990384535973201e+00 -7.8622427690907581e-01
    6.1333609537545168e+00 -1.0709111465588093e+00
    8.4823577161321246e+00 -2.5992689330493288e+00
    7.3182669940497274e+00 -1.9017343841368455e+00
    7.2666167755958115e+00 -1.1694543761219331e+00
    6.5780809303890706e+00 -1.4963362096361510e+00
    9.0449354357097409e+00 -2.8178403433330463e+00
    6.7295183821575311e+00 -1.5904705664540202e+00
    9.9063572153048423e+00 -7.0884600262281372e-01
    8.5576658105580297e+00 -1.0738388793666700e+00
    8.8488821866968514e+00 -2.0345182978473404e+00
    8.5327432104227245e+00 -1.2997253645438887e+00
    7.5594318797568434e+00 -9.6846786405220520e-01
    6.8321206812153106e+00 -1.3228937251678607e+00
    7.0788946793149954e+00 -1.8099068911596565e+00
    7.3935996372084878e+00 -1.5394503999715901e+00
    8.3823704405969757e+00 -7.0728096315395894e-01
    7.6987329335502128e+00 -8.8921821549546642e-01
    7.5862551012286064e+00 -2.3356378462973519e+00
    6.9417338294468678e+00 -2.0112830830957065e+00
    7.2610138445865369e+00 -1.0844673298248304e+00
    6.3474489768598215e+00 -1.1538664525478903e+00
    8.2513626911789490e+00 -2.6812893479675628e+00
    7.8620467795107523e+00 -2.5478939344239238e+00
    8.5132001693126647e+00 -1.0296743434836710e+00
    8.4301938137618375e+00 -1.1238619197006463e+00
    7.9718154959034333e+00 -1.4743567394393990e+00
    8.2649776931911436e+00 -1.4395384793334736e+00
    7.8039656220662623e+00 -1.6328336069063680e+00
    7.3783753612412113e+00 -1.2361977793808223e+00
    7.2441400484968472e+00 -1.5603796184481060e+00
    7.4704756159130854e+00 -1.8837897587551662e+00
    6.9530956014305216e+00 -1.2018402954640279e+00
    7.7196311775065700e+00 -1.0475653703661645e+00
    7.3351985229381818e+00 -1.7678309213295342e+00
    7.6817700366903914e+00 -2.2433644534160484e+00
    7.4915370346784425e+00 -2.0472703235471910e+00
    6.9904356486516628e+00 -1.1159694289944635e+00
    7.0965258858212970e+00 -1.6113405593852845e+00
    7.7992154754536784e+00 -2.4235562315652182e+00
    7.8425267558558511e+00 -1.4456612165378049e+00
    7.9907026542560162e+00 -9.1333729444013900e-01
    8.3257594609379080e+00 -1.1779742583204200e+00
    8.5892917796650323e+00 -1.7718407705566375e+00
    6.9339304086737554e+00 -1.5531418756544870e+00
    7.1641692020229444e+00 -1.0562387022968855e+00
    6.1991965675701817e+00 -1.3062703735830232e+00
    7.6958719925152153e+00 -2.2126502397646273e+00
    8.0013161955812944e+00 -2.0186246441585749e+00
    7.4148079051621307e+00 -9.2055002880823822e-01
    7.9686710279298909e+00 -1.1161216839124539e+00
    7.6579205021981362e+00 -1.9306006769688147e+00
    7.9851771768043802e+00 -2.2685151148148868e+00
    6.7157177863744026e+00 -1.1690261424471982e+00
    6.3744119492333216e+00 -1.2227777424735278e+00
    7.7563731058808809e+00 -2.3126220033067613e+00
    7.3538501238796465e+00 -1.0989245043685749e+00
    8.0229544660547649e+00 -9.0615481465981562e-01
    7.3856480210636137e+00 -1.3326006086752717e+00
    7.8866166538240030e+00 -1.6922387971153343e+00
    6.6194483900588619e+00 -1.0590942575139555e+00
    6.2911957017603619e+00 -1.1379745262158514e+00
    7.7872829652812126e+00 -2.0652290055946847e+00
    7.1520887562849946e+00 -1.7337692300472638e+00
    7.1310788712809483e+00 -1.6883417698238457e+00
    6.8514607600887816e+00 -1.1312576306650171e+00
    7.3561718278180885e+00 -1.1093653771565757e+00
    8.0829207108450518e+00 -1.6907604810518337e+00
    7.0232950254421027e+00 -1.8166154953527365e+00
    7.2269424349666176e+00 -1.7845187077321312e+00
    7.1455413652440258e+00 -1.7070367509617994e+00
    7.0509812745473912e+00 -1.6397784758323382e+00
    8.4919543229406251e+00 -8.0373780673931583e-01
    6.8565260549047862e+00 -1.1384879867785274e+00
    8.2596677615745495e+00 -1.9454531579348127e+00
    7.2875150834146494e+00 -1.2657879826386342e+00
    7.5231992229556450e+00 -1.2753631283075504e+00
    6.8648745281288335e+00 -1.5149160019084009e+00
    8.5538888825441113e+00 -2.0380076032225016e+00
    6.7890440355252757e+00 -1.1976148463367167e+00
    7.2363872861356215e+00 -1.4994905871891371e+00
    7.4833716316186631e+00 -1.8980632659861369e+00
    7.5156204208252566e+00 -1.6785415337044278e+00
    7.1881564110077631e+00 -1.1682044472639306e+00
    8.7849351822516724e+00 -2.4595171039359527e+00
    8.7544830952045203e+00 -2.5668092239424571e+00
    7.8299233788488696e+00 -1.8172778946748716e+00
    6.8900331548153666e+00 -1.1295959648661607e+00</input_scale>
  <output_scale>
    5.2631578947368418e-01 4.9999999999999994e-01 5.2631578947368418e-01
    4.9999999999999994e-01 5.2631578947368418e-01 4.9999999999999994e-01
    5.2631578947368418e-01 4.9999999999999994e-01 5.2631578947368418e-01
    4.9999999999999994e-01 5.2631578947368418e-01 4.9999999999999994e-01
    5.2631578947368418e-01 4.9999999999999994e-01 5.2631578947368418e-01
    4.9999999999999994e-01 5.2631578947368418e-01 4.9999999999999994e-01
    5.2631578947368418e-01 4.9999999999999994e-01 5.2631578947368418e-01
    4.9999999999999994e-01 5.2631578947368418e-01 4.9999999999999994e-01
    5.2631578947368418e-01 4.9999999999999994e-01 5.2631578947368418e-01
    4.9999999999999994e-01 5.2631578947368418e-01 4.9999999999999994e-01
    5.2631578947368418e-01 4.9999999999999994e-01 5.2631578947368418e-01
    4.9999999999999994e-01 5.2631578947368418e-01 4.9999999999999994e-01
    5.2631578947368418e-01 4.9999999999999994e-01 5.2631578947368418e-01
    4.9999999999999994e-01 5.2631578947368418e-01 4.9999999999999994e-01
    5.2631578947368418e-01 4.9999999999999994e-01</output_scale>
  <inv_output_scale>
    1.8999999999999999e+00 -9.4999999999999996e-01
    1.8999999999999999e+00 -9.4999999999999996e-01
    1.8999999999999999e+00 -9.4999999999999996e-01
    1.8999999999999999e+00 -9.4999999999999996e-01
    1.8999999999999999e+00 -9.4999999999999996e-01
    1.8999999999999999e+00 -9.4999999999999996e-01
    1.8999999999999999e+00 -9.4999999999999996e-01
    1.8999999999999999e+00 -9.4999999999999996e-01
    1.8999999999999999e+00 -9.4999999999999996e-01
    1.8999999999999999e+00 -9.4999999999999996e-01
    1.8999999999999999e+00 -9.4999999999999996e-01
    1.8999999999999999e+00 -9.4999999999999996e-01
    1.8999999999999999e+00 -9.4999999999999996e-01
    1.8999999999999999e+00 -9.4999999999999996e-01
    1.8999999999999999e+00 -9.4999999999999996e-01
    1.8999999999999999e+00 -9.4999999999999996e-01
    1.8999999999999999e+00 -9.4999999999999996e-01
    1.8999999999999999e+00 -9.4999999999999996e-01
    1.8999999999999999e+00 -9.4999999999999996e-01
    1.8999999999999999e+00 -9.4999999999999996e-01
    1.8999999999999999e+00 -9.4999999999999996e-01
    1.8999999999999999e+00 -9.4999999999999996e-01</inv_output_scale>
  <weights>
    <_>
      3.2807701715215334e+00 4.2746507549881962e-02
      -2.6018424397023170e-02 1.3357206158878876e-01
      -1.5859922340314520e-01 -4.5307162273557811e-01
      -8.9056092441150356e-02 7.7541910434188854e-01
      -7.1455828239378916e-01 1.8132342632479828e-01
      3.8909305879312489e-01 6.5730332132197733e-01
      -3.2463312749826934e-01 -2.7162684780678098e-01
      -6.6315000512417366e-01 4.6704877569841502e-01
      1.1230048477316401e-01 1.9252367527940803e-01
      -4.5593159316130294e-01 -4.9299323907975962e-01
      7.3915651373086477e-01 1.3138184159055427e-01
      9.9555269376226094e-02 -9.3709136427214804e-02
      -1.2391903085009148e-01 -6.3970881173430472e-02
      -9.4400533751675633e-02 2.6700474248538081e-01
      -2.2514422594053723e-01 1.1505661215639050e-02
      2.7198641260626932e-01 1.4192875232965455e-01
      -4.7766016000247030e-01 -1.4847483764819130e-01
      -5.2919888148809957e-01 4.3704999125720279e-01
      -2.5527852784893268e-01 -1.0931355326990319e-01
      -2.6942754071951552e-01 -2.1706593519706899e-01
      -7.5186726211442627e+00 -1.0868070456300236e-01
      3.1840559698048365e-01 -3.7156195215706600e-01
      1.3111602802975136e-02 2.9297339868001621e-01
      -2.7039674165769595e-01 3.0448674776771791e-02
      -1.1253841721151528e-01 2.8124571282114641e-01
      2.5024351846832071e-01 -2.4975841974295576e-01
      -4.6866224041995114e-01 -2.2176370247439214e-01
      2.2487255567139704e-02 5.4474095621950447e-01
      -3.1854789634026065e-01 -7.7241447869495355e-02
      -2.4090582205538039e-01 -2.0792041439921621e-01
      1.3665829508144476e+00 1.6802958455826947e-01
      1.0920555918195539e-01 3.3889599707393175e-01
      3.0131250779870711e-01 2.3817575986907993e-02
      4.0016175325928993e-02 5.1518299155784306e-02
      2.0923962538404506e-01 3.7922077816015298e-01
      -3.9437029508043581e-01 1.0722238674352429e-01
      -2.5914388014667559e-02 -5.3743705460717051e-02
      -4.0261590480780701e-01 -6.5034834284656576e-02
      1.8362535374588576e-01 2.2322962863148915e-01
      1.9479504722405827e-01 8.0102974970408233e-02
      -9.5620764762221704e+00 -1.9659976234935828e-01
      -5.0869505255080139e-01 3.1581792433768963e-01
      -2.9550612417427036e-01 8.3036469986195557e-02
      3.4627115729135030e-02 1.2092850458912835e-01
      1.7018186769224750e-01 1.9880630920177550e-01
      1.5928616952635971e-01 1.9113117411885022e-01
      -9.9620668795718806e-02 -3.3165102391717646e-02
      9.1555692680170797e-01 -5.7775226618246647e-02
      8.4861625651007966e-02 2.7481017152277259e-01
      -1.8977998251979375e-01 -1.8513077493482294e-01
      -2.5989063539102597e+00 -6.9919232512181143e-02
      2.9006490499541637e-01 2.1636687084606038e-01
      -1.1498980220329817e-01 2.1969635637414484e-01
      1.7323935193916951e-02 1.4803672961805706e-01
      -2.2977716078260407e-01 9.8067873000632549e-02
      1.9958629458154073e-01 2.9666841085862888e-01
      9.3125499058148486e-02 -2.0663500416298863e-01
      3.0959380847555701e-01 -1.3990930352185471e-01
      1.0404813020628953e-01 -1.1220134713551519e-01
      -2.1888542322642199e-01 1.0218180508270071e-01
      6.2353702837058993e+00 -1.9789650657329266e-01
      6.4652532779681748e-01 8.5673422047568989e-02
      -2.5002303247550733e-01 2.3423435354759223e-01
      -4.3538770133825733e-02 -9.3238806082497280e-02
      -4.0738373787070248e-01 5.6373763723548562e-02
      2.6745906255350206e-02 -1.1717540005072490e-01
      -1.0519419513282546e-01 4.1639259109780269e-01
      -1.0482188379285330e-02 2.6512817830192359e-01
      -1.5049001940577253e-01 3.2775169598700735e-02
      -4.8780745061906006e-01 4.2715809581057557e-02
      1.6706482800389286e+00 1.9800079505048729e-03
      1.5449005132208682e-02 3.8503804960546306e-01
      4.1608866394810567e-02 -3.9257674600759979e-01
      4.4733859386482888e-02 -4.4859534985372568e-01
      -4.1647874069712032e-01 1.1826564276701933e-01
      -3.1291518288381409e-01 -1.1851419914606207e-01
      -1.7710321989845240e-01 -4.8225641801087897e-02
      2.0412711498075614e-01 -1.7753518285441111e-01
      4.2908887875455926e-01 -4.8533381618703519e-02
      1.9182156186260094e-01 1.6152170824048396e-02
      6.9914474685827743e+00 9.3104314249361109e-02
      -2.0764960633026526e-02 7.0400969089421020e-02
      -1.1441627232173235e-01 -2.6530977429551117e-01
      -1.6117197240813044e-01 -1.8323541744307628e-01
      3.5524742979819213e-01 -5.7946419582306241e-01
      3.4708761725463366e-01 2.3976892093750646e-01
      2.6905011158892361e-01 2.3927109843280181e-01
      -7.7293271768496513e-02 5.5667444877942521e-02
      -6.3342898701041495e-01 2.9131282756358817e-01
      8.8390339964060094e-02 -3.9460865258082423e-01
      1.4234371595414634e+00 3.4047236781222956e-01
      -9.5158055003367337e-01 -1.0822844062226807e-01
      -1.3103889378380967e-01 -4.7482830852971100e-02
      -1.3810920251126210e-01 6.1590341155830029e-02
      8.5673949201062860e-02 6.3733275333946141e-02
      2.0088290519834640e-01 1.5558919484551134e-01
      -7.8349217244179120e-02 4.1738940068515157e-01
      -1.6991740030732708e-01 -2.9183768583560643e-01
      -1.9502279045793814e-02 5.5821670742092121e-02
      1.6590186095111192e-01 1.9903986467017454e-01
      -1.3873493008935935e+00 6.5146284426398776e-02
      1.3461265359252589e-01 -7.3823432850329065e-02
      2.0349276476032491e-01 -8.0636584150707527e-02
      8.5466473585354016e-02 7.9487297559206416e-02
      2.2434254940303042e-01 2.8602522533112529e-01
      1.9554202786139507e-01 -4.0036432151626125e-02
      -1.6490847291508026e-01 -6.0408158935569417e-02
      -1.4689815368913001e-01 1.3364290626484207e-01
      3.2092094350378284e-02 2.4404772974449096e-01
      2.0911816482708764e-01 -2.5550755282330095e-01
      7.7029669742933482e+00 -2.8762234416114735e-01
      6.3145188916346451e-01 1.9165299602905479e-02
      3.2153530746409631e-01 3.2539293841709888e-01
      2.2312337678720834e-01 -2.3200956304328504e-01
      3.4817675100984047e-01 -2.5049267289665007e-02
      -1.9326449770641543e-01 -5.2686877223124240e-01
      5.0666587908567443e-02 1.0156932958203767e-01
      -9.4977174259400832e-02 -3.8974673677484656e-01
      4.3536069880898587e-01 -7.3767376168654558e-02
      8.6057032178454923e-02 -2.6036975171098314e-01
      1.2674990663698653e+00 1.1537116687005332e-01
      2.7102355193922949e-02 -2.0643841279876310e-01
      -1.9350008531227908e-01 -1.7689169741918867e-01
      -9.0893004567113203e-02 -1.2273698588644091e-01
      2.2393876452848349e-01 -4.1623804099187874e-02
      1.4334348476035672e-01 1.0171478080471670e-01
      5.6302275123282716e-03 3.2070506612479127e-01
      1.6152665172741373e-01 -2.9102317721952459e-01
      -7.0537848298057440e-02 4.0952519548980160e-01
      -3.2297029288746987e-01 3.5134962029535582e-01
      2.8651950894143428e-02 6.4277915647206446e-02
      -1.3482275991015366e-01 1.3526471840589641e-01
      -2.1917563163477666e-01 -2.9908670804296117e-01
      -1.2694173564162572e-01 -8.3513740393486510e-02
      -4.0346252970978091e-01 -2.2734968068237149e-01
      4.1950149485480488e-02 5.0130277036310700e-01
      -1.9225712672619849e-01 -2.2669440916487954e-01
      2.3351001863436838e-01 -6.1878436651370106e-01
      9.7179108015647761e-02 6.5784319940205296e-02
      -3.0089098824611910e-01 1.0970414940435939e-01
      7.2582827878292981e+00 2.5247890771896042e-01
      2.3067050226061406e-01 4.1522738572104680e-02
      1.0104694291681349e-01 -1.8554811932222415e-01
      1.8062719636698690e-01 1.5289993909685312e-01
      -1.4754731319755149e-01 -1.0649217778524117e-01
      1.8376724948395259e-01 -2.1891990676350329e-01
      1.5188882937753112e-01 -9.9295632992260352e-02
      -2.0238061963699419e-01 1.4892487572258994e-01
      3.7638917869617206e-01 1.5627417364665394e-01
      -1.6236479397889636e-01 -2.2760919171698796e-01
      3.2078431612475291e+00 7.4928151811075913e-02
      5.1576633041963971e-03 -3.6773917298793113e-01
      2.4515382370991941e-02 3.3985883624746360e-01
      -1.7519906765623001e-02 1.2284878613878367e-01
      -4.2903265450461553e-01 -2.6688138555833441e-01
      -2.4880438686146217e-01 -1.0383490227072445e-01
      -3.6110696977560691e-01 -4.6096138896895283e-01
      7.5576522648887923e-02 -7.0905464607048974e-01
      -2.3849769292720246e-01 -3.8612361294855824e-01
      -1.8193787068444861e-01 -4.1461424188922363e-01
      -1.7105205807484975e+01 -2.2077936752047153e-01
      1.9975889125724031e-01 2.8245554545824603e-01
      -2.5238553793006552e-01 9.3258058905134292e-02
      -8.0990301363363146e-02 5.2211411902222116e-01
      -3.5821341241372606e-01 3.3678864002230435e-01
      3.9403001597030890e-01 1.4969893394525322e-01
      -3.9921024347676848e-01 -3.5085489839391509e-01
      -2.2866110678786825e-01 -3.0317012929640824e-01
      -1.3872283127824148e-01 -2.6132867411564309e-01
      -2.3532481274730632e-02 -3.0623813242412473e-01
      -3.3412572445826485e+00 -1.8200928917511469e-01
      2.7377306293235049e-01 4.0393915307280343e-01
      -2.2602980068581044e-01 6.5505430582725377e-01
      6.9361332313255614e-02 8.0554354553567431e-01
      2.8381993861522942e-01 -1.1623802866416786e-02
      3.3185235683855835e-01 2.2009858591701328e-01
      -5.1762476852424424e-02 -3.0566419609561918e-01
      -3.3927253846899524e-01 -8.4122372733016135e-02
      -6.2153823595798352e-01 -1.7156337239120960e-02
      -6.8704713329708856e-03 -1.5547566493357454e-01
      6.4274942293734654e+00 -2.8176762289303980e-01
      4.1741241209864216e-01 1.4535962171408975e-01
      4.1884899113736829e-02 1.2878197371914957e-01
      3.6484797078986719e-02 -6.0320034721057653e-02
      5.1651934630606011e-01 -3.3376826970797091e-01
      -1.8164617482455715e-02 -2.2488297627339199e-02
      1.1174488703732690e-02 -1.5728610802965609e-01
      -8.5917364443599487e-02 -2.7170389826144729e-02
      -7.0017461626448452e-01 -1.7353798694143535e-01
      2.1034993354170817e-01 -2.6952447842462451e-02
      -2.3056755486459766e+00 -3.0670387820371120e-01
      -1.5783284557198102e-01 2.3020281048428765e-01
      1.1188660822518590e-01 -4.0584660388513194e-01
      -5.7427093151386326e-02 -4.3850335408722219e-01
      2.6964456482116145e-01 5.3292551273817601e-01
      -2.2289620944270550e-01 -2.0816042943106128e-01
      1.0418982130697094e-01 9.2952484083578063e-02
      -1.4534512109390624e-01 2.4069634468695561e-02
      3.2329540166841741e-01 -7.3373311301729680e-02
      1.4808809488289354e-01 -3.7151522651338309e-01
      -1.0715126230530263e+01 2.7887079733552933e-01
      -3.2650606615877092e-01 -1.0917971128099488e-01
      -3.1812950182796157e-01 -7.7591167625254379e-02
      -2.6514554592614120e-01 -7.3318097649934660e-02
      -4.6893453157143089e-01 4.6775610141208990e-01
      2.9801369030108560e-01 5.2478699607221690e-01
      -5.6534457779987357e-01 3.2559937850833492e-01
      -1.3376738190076545e-01 -7.5614316442271665e-02
      4.5230481973362424e-01 9.2833508549985275e-02
      -3.3751205720080835e-01 7.8652426378533952e-02
      1.8968042613976144e+00 3.5779178349931828e-01
      -1.5130821004194661e-01 1.8023678403450602e-01
      -1.6911701041097049e-01 4.8032587388055065e-01
      -1.0768816226527102e-01 -2.4543259328859904e-01
      -5.0840410174884720e-01 -4.5260030661696088e-01
      3.8860807311938750e-01 1.1317562425863645e-01
      -2.8808226301405077e-01 8.4198549927570265e-01
      -3.8059682479653113e-02 -3.8850935025829486e-01
      8.3988851425590469e-02 -3.9841705602679256e-01
      2.0877649535833800e-01 5.4181119501892716e-01
      9.6987288884917522e+00 9.7353843478822477e-02
      -1.0686677203536213e-01 5.4080809392730370e-03
      -6.2687173266493354e-02 -1.3162969305260339e-01
      -2.2330360833365664e-01 3.8595217989683489e-01
      -2.3750634081851174e-01 -1.2214116727710925e-01
      -1.5657627207745556e-01 -1.4454886642124404e-01
      -1.2048377741358628e-01 1.3228633031299900e-01
      -3.5601739877867322e-01 -1.9655559045868326e-01
      -2.0433361028451011e-01 8.4022797985641010e-02
      7.2499972121512407e-02 -1.6210465890999010e-01
      2.2293116003580802e+00 -4.0582599490649213e-01
      8.7041971457904543e-02 9.1481619871529599e-02
      -5.3185191507906883e-02 -4.8452844558669030e-02
      7.4765786030646514e-02 -2.7068821796126663e-01
      -6.1805502968835035e-01 5.4956201464186460e-01
      -2.4515456459034890e-01 -1.1795380296886897e-01
      -3.6484211422292405e-02 -3.1888049795734852e-01
      8.0512990346950516e-02 9.9083127864289425e-02
      2.4285540108884540e-01 2.0876577379995667e-01
      8.8590707820961363e-03 -4.8071858145054547e-01
      -1.4457767878270060e+00 3.3521344739214942e-01
      -1.0457892132273218e-01 -3.1803889378150096e-01
      7.2152820136666670e-02 -2.2311055726230200e-01
      -5.6539693952267239e-02 -6.1177295996392644e-01
      -3.5720287610419305e-01 3.8333826234618146e-01
      2.7890575748569145e-02 -1.9638172844669516e-01
      -6.8616682810864651e-02 6.5044796479902078e-01
      -3.8577589858742162e-01 4.1584189086235915e-02
      6.2338169554891831e-01 1.9408848442968954e-01
      1.4526258711905729e-01 -5.6891867900151966e-02
      1.5070328158279818e+00 2.3276876346363518e-01
      4.3229485061467163e-02 1.8437152241345203e-01
      -4.7889097872196230e-02 -5.2732907584392141e-01
      -1.2035175879267421e-03 2.5082651717004417e-01
      -1.6145974362301022e-01 -4.3341209573750700e-01
      1.2198725140222898e-02 3.2009647132342844e-01
      3.8478088700935983e-02 -1.3121415829876168e-01
      -2.8034130998581575e-01 -3.9862806867782269e-01
      -4.3928660421866039e-01 -1.7860989975914979e-01
      -1.6571650742460775e-01 1.2569046950095092e-01
      5.2103430725746280e+00 4.4546984021750981e-02
      8.7178698770368906e-02 4.7044555350715042e-02
      1.1625431876954515e-02 -2.7349616349285832e-01
      9.2304027535662386e-02 -1.8747623600705327e-01
      3.4876901890055118e-01 8.3455670350025823e-02
      -1.5664450395743174e-01 4.7252491476629438e-02
      3.1171449440673654e-01 -1.4732514644691403e-02
      2.7901528575692647e-01 9.4129525514725948e-02
      -5.2105633729690704e-01 -3.8567804473367738e-02
      1.9654328171454488e-02 -1.0279958627986333e-01
      -6.4296679175664844e+00 1.3986572129929606e-01
      2.9637749455201357e-01 -1.3385932836381972e-01
      1.7074075561200147e-01 -2.4209328526283706e-02
      1.7273769373252679e-01 7.5991587704981531e-02
      -5.7629512920622772e-01 3.8466874448612792e-01
      8.6185705167192511e-02 2.0394483957353152e-01
      -1.5298547522526915e-01 7.1994156141320195e-02
      -2.4405954188377652e-01 -1.4379772297015916e-01
      -5.2758322589062567e-01 1.1044602724877902e-03
      -2.4107787188316984e-01 -2.6130178550724942e-01
      1.4994443568596862e+00 2.9590669247963708e-01
      -2.8934417526026807e-01 -6.2778149469011571e-02
      -1.4403271707801960e-01 1.5172578204169723e-01
      -7.0596020372866677e-02 4.4600013187468190e-01
      -3.4034838782923121e-01 7.7580637448967849e-01
      2.4039376880111252e-01 -3.9830444640640800e-01
      -6.0507823567943014e-02 1.3442587506556852e-01
      -1.2894707292463686e-01 -5.8107090626602942e-01
      -5.3990860213456587e-02 1.9465515496162218e-02
      -4.2357007714431411e-01 1.1053209176197827e-01
      5.0332743970452496e+00 -2.0800607356551526e-01
      -6.1481453067498615e-01 4.1314723204770792e-01
      -7.8108722119517915e-02 -3.6937074339626497e-01
      5.2023828953232036e-02 1.9634129185884283e-01
      -7.8485687645055258e-01 -7.6601192956711375e-02
      2.2108946301769666e-01 4.1429321558623078e-01
      -8.6371094866632844e-02 4.1407124772915210e-01
      2.0348987323134271e-01 -3.7318036464419740e-01
      4.8780680527415066e-01 -3.0354983098221905e-01
      -1.6166390469259034e-01 6.4045404337728137e-02
      9.4345942222898707e+00 1.3547350961629606e-01
      2.3980200296981832e-02 2.1248999162592588e-01
      -1.2057807198057439e-01 1.0653479737451829e-01
      -6.1244797719111892e-02 3.4211054188313611e-01
      -6.8857118686746863e-02 3.0994947210512713e-01
      2.9899982367559464e-02 -1.5025370228603155e-01
      5.0531772422450834e-02 -6.7743918063996045e-02
      -2.8078963145651545e-02 -4.7498620414107146e-01
      -9.2979033888478169e-02 -2.0118062134042389e-01
      -2.0400736343615655e-01 4.2510783833617255e-02
      4.7914263364921474e+00 3.0961134714400707e-01
      -5.0790217006223037e-01 1.5483713533034082e-01
      1.4948089322574076e-01 1.0451749356647995e-01
      8.0159969767108971e-02 1.0157228519539703e-01
      -4.4158994225023629e-01 3.3996929369724244e-01
      -2.4264486367935975e-02 2.0253324397778488e-01
      1.2377676773273937e-01 -6.0797473501964593e-02
      -2.5020516572067675e-01 1.3928511034166693e-01
      -2.1425523719289985e-01 3.0246638908772960e-01
      -2.2655150785475192e-01 -3.9966362370782904e-01
      -1.2002298344206157e+01 -2.2851615012220372e-01
      -1.1147739065025927e-01 3.7200899573872494e-02
      -1.8671515844552575e-01 4.0413281485441555e-01
      -2.4485375488633535e-01 -4.9969993570371643e-02
      2.7045661276735810e-02 1.4533107597412562e-01
      1.2782481868958038e-02 1.4927919372665044e-01
      -1.7994640424228420e-01 1.7303196141216307e-01
      8.1477688598355372e-02 -4.1363845846886926e-01
      3.8410622480170442e-01 -6.3530773948778818e-02
      1.8416332610404254e-01 5.6928256853746036e-02
      2.7870061532218151e+00 3.0386009995225755e-01
      -3.5296201977432778e-01 3.8297004587325584e-01
      -1.5023060211349237e-01 1.7545213789943670e-01
      -1.4847199992971005e-01 1.5140643822746180e-01
      2.8060568262831753e-01 -2.8724890564757954e-01
      2.3787454805527503e-01 2.4439172663870895e-01
      1.3317818220888379e-02 6.2734135918248735e-01
      2.7567455368796240e-01 -7.3227226455934524e-01
      7.4633664804490976e-02 -3.0549747328636645e-01
      3.6625472004632842e-01 2.5365796759729775e-01
      1.3406654588559558e+01 3.7180449685361006e-01
      7.4398330137775873e-02 1.7109039023820583e-01
      -1.5919861505893113e-03 -7.7758197642547444e-01
      1.9823408894222211e-02 2.5071058542610608e-01
      -1.9107615902449757e-01 -4.2620128470418800e-01
      -5.1817289250394888e-02 2.4197552442631007e-01
      -3.9926814688502982e-01 5.0782984962651753e-02
      3.1505182899817724e-01 -3.9924565785467397e-01
      -1.3332080884133332e-01 7.9235846666623713e-02
      -5.9046680118957882e-02 -4.3133835134215787e-01
      1.8150821757105904e+00 1.4442697104770791e-01
      -1.3527900953400446e-01 2.7231137594891797e-01
      -9.2058014597071733e-02 -1.0457566969556582e-01
      -1.4771465924610083e-01 3.7418165656235125e-01
      -3.6786591412594144e-01 1.1725844816436060e-02
      2.4112452061740608e-01 -3.8427667938153269e-02
      -5.2177585775959490e-02 2.4416396025375911e-01
      6.4076636840982720e-02 -1.4133742865259175e-01
      9.6896205932004070e-02 -2.2918066402940362e-01
      -6.3874722319922680e-02 -4.3028023229865980e-01
      -1.4859464505053548e+01 3.1523228671312825e-01
      -3.3231471046109251e-01 -1.1950648710910469e-01
      9.6511640195146436e-02 4.2110182195254353e-01
      -7.2280524543412050e-02 -1.2234922027436201e-01
      3.5784169363840668e-01 -9.5183106124511196e-02
      6.7133144401621252e-04 -3.0684445538606736e-01
      1.2345624016848571e-01 3.1832504787597043e-01
      3.5856533818780323e-01 -1.1340952114043085e-01
      5.9329812962401328e-02 -2.6061361630753294e-01
      4.3425773839345483e-01 -1.7767109312662011e-02
      -4.0716971178121559e+00 2.2512357480142350e-02
      -4.0313933997926960e-02 1.8225044130144974e-01
      1.6772833276865914e-01 -3.2777839482716252e-02
      -6.3279749735364349e-02 4.4837732947867853e-01
      8.4020079264315942e-02 2.2242733386112840e-02
      1.1451415827445136e-01 -3.9168657945340163e-01
      -8.9522579181884249e-02 -6.3911182167086411e-02
      -5.1774455585511847e-01 -3.0437724849996539e-01
      1.6424455061639159e-01 9.7116813439197022e-02
      4.8484999159943321e-01 2.0420678781722082e-01
      9.6680902354752725e+00 4.3859766206678852e-01
      1.8814172080878083e-01 2.8989269212958285e-01
      -5.0219754839176893e-02 -6.8230076455471667e-01
      6.1922211402726746e-02 3.1447710668133289e-02
      -8.5517137501049767e-01 -2.3408850110647478e-01
      1.8483552445744109e-01 -5.7214690569462517e-02
      -2.3377248455035454e-01 -1.5496914543170556e-01
      -2.0089555429136643e-01 3.8177729966343987e-01
      -6.8195413794194512e-02 4.5387778308759757e-01
      -7.9386585419320060e-02 1.0539235910875001e-01
      -3.4041623037105557e+00 -1.5199271750266868e-01
      -6.1549112747307899e-01 -9.1656642424699560e-03
      -2.6374272484012018e-01 4.4117202380027525e-02
      -1.9046489727247773e-01 -1.4349594607648522e-01
      -1.2432506194366451e+00 9.1260376750806338e-01
      3.0309091664995585e-01 2.3959644051661042e-02
      1.9199199097868622e-01 7.2324502476023525e-02
      7.8469366564049597e-02 2.4819758618660356e-01
      3.7146126706183996e-01 1.4645792671296279e-01
      -3.9197382728434899e-01 1.2527257992743526e-01
      -7.8479139961786313e+00 -1.6245947360111906e-01
      2.8378935501727603e-01 -3.7290744884335569e-01
      2.5354658596982793e-03 3.2434148297202664e-01
      5.7561947181820139e-03 6.4505470479443938e-02
      -7.7379808866987573e-02 1.8966537300778172e-01
      3.8813004150578989e-01 4.1262871757747959e-03
      -6.2794502780247036e-02 7.1964529333591126e-02
      3.7825002426758642e-01 -5.5384653068851653e-01
      -5.9472162029346964e-01 -1.1711699143289482e-02
      -3.0855728155708234e-01 1.0831893129144628e-01
      -6.0997236801599746e+00 -2.9229405625847079e-02
      1.3384473903656069e-02 -9.8133096843358251e-03
      -6.2264375168082003e-02 -1.9401010870285271e-02
      4.9188687674957710e-02 2.5052389079534422e-02
      -2.4367458173309564e-01 3.2995820949893190e-01
      1.9858170430706437e-01 3.3570664278208157e-01
      -5.9444486402316032e-02 -1.2264718072364006e-01
      1.8411551803842513e-01 7.1936483666207959e-02
      -1.4065412934664887e-01 1.5500594007285651e-01
      9.8989025118089796e-02 9.1521843700566735e-02
      1.0235015490045710e+01 -1.4206681785416439e-01
      -2.4611869314715198e-01 3.8601459628932017e-01
      -9.8375444010703805e-02 -2.9529812265592553e-01
      -1.0394233742188376e-01 -2.1573155460284560e-01
      2.0877141947330180e-01 -2.2303215594542933e-01
      5.8466874274596077e-02 -9.4078930575943964e-02
      -2.0318979222840244e-01 1.5067108133245849e-01
      1.7429670638646855e-01 5.5586391640813104e-01
      -5.0479511002538023e-02 8.1816867498928803e-02
      7.0293848563464767e-02 1.1131865725276854e-02
      4.4662605120028678e+00 -8.4525248336981593e-02
      -1.9619646853669848e-02 1.0138578509558543e-01
      -1.2027958768987765e-01 3.4850228756425150e-01
      -1.7942091418416465e-02 -1.4915261962650600e-01
      -4.5130187030869107e-01 2.2427797829564397e-01
      1.9304450430443557e-01 1.0092027737380950e-01
      -4.1643649011904088e-01 2.3466217455716037e-01
      1.8284893215645237e-01 4.2083443325432546e-01
      8.3669092919057900e-02 -1.0360997007640893e-01
      1.4886787696033381e-02 2.4959123055769727e-01
      -1.2288544900863995e+01 3.7140766535460884e-01
      1.4089370176716051e-01 -2.3785947092870766e-01
      5.9566408130463641e-02 1.4160699578383343e-01
      -1.0496284405807778e-01 9.6297426822119281e-02
      1.8219184523650728e-01 7.5110925480526045e-02
      4.1861225290517956e-01 -1.3583423901287622e-01
      2.5960440941668672e-01 2.0655037897839554e-01
      3.4213932996638702e-01 -1.3849931688284262e-01
      9.4722673750372480e-02 2.0670932634711442e-01
      2.8490283114920306e-01 9.3896843333772156e-02
      -9.0069066969014830e+00 -6.9800290091690725e-02
      -2.2318467808616946e-01 1.0618719790451324e-01
      2.0881212671785720e-02 -3.0249292617100826e-01
      -4.2762804468564605e-02 3.7897936880131200e-01
      -1.8758723380784470e-01 2.5986365343899054e-01
      3.7291939233470149e-02 5.5951940898439267e-01
      -8.0707490177528380e-05 -2.5555196523651352e-01
      -2.3473031854375953e-01 2.1197683242079982e-01
      -1.3214973557222362e-01 6.5333209415840018e-02
      -2.4193289848261529e-01 -2.2173020761466791e-01
      1.8962863204646936e+01 2.1892537593800199e-01
      -4.7792814013592472e-01 6.6607703047531344e-02
      1.4295445586993983e-02 -7.0828599306330275e-01
      -1.5163584245626227e-02 -4.2181367031863853e-01
      1.6272144388458187e-01 -2.3444284311412711e-01
      2.9694513622038865e-01 2.1402979314108397e-01
      3.6229406203231207e-01 1.6605811893718769e-01
      -1.1597689275012744e-01 7.6934053291154747e-01
      1.7675473243612747e-01 6.4841394248836795e-02
      -2.1219316823116888e-01 -2.0614624805440206e-02
      1.3631790430338457e+01 2.6783924430381328e-01
      -4.5725567325862404e-01 -2.1383192646115087e-01
      1.7002567166142210e-01 -1.2758923752048690e-01
      -1.9489733194577721e-02 -1.0056629532578375e-01
      -2.7069890290861220e-01 3.0535700050691161e-01
      1.6439655546294124e-01 2.2977181429259044e-01
      5.5884423245627327e-02 6.8575691677852901e-01
      -4.2188686661288541e-02 3.1000445037149671e-01
      -5.1027249903437280e-02 1.4783970363605939e-01
      1.2297996004846710e-01 -8.0516963383623907e-02
      -1.2557655986299265e+01 6.3841291424817717e-02
      1.5864763435762411e-01 -2.3359204359018387e-01
      2.2967708186243611e-02 3.3665708284444357e-01
      -1.3975323598216641e-02 -2.2703133486408594e-01
      1.6070150434552155e-01 1.5758895332354944e-01
      -2.6820237902191379e-01 -1.6810364066872358e-01
      -1.1632516510101683e-01 1.0793925808512915e-01
      3.0893751844954798e-01 2.4978614311400586e-02
      -2.6232285024047720e-02 -2.3467727851825032e-01
      5.1924184111349643e-02 -3.7052846330944372e-01
      -3.1072649188581836e+00 9.5276418807297189e-02
      2.8156336990455044e-01 3.9113119967265568e-02
      5.6335701179479357e-02 2.2298332410771368e-01
      -1.0596128039416688e-01 3.1767903501718348e-01
      3.0608645215117500e-02 -4.1741547788967881e-01
      2.3237676597436999e-01 -2.6337285239833036e-01
      -2.3047124590960485e-01 3.7781640726766685e-01
      3.1686480196855514e-02 -3.7090207666690400e-01
      3.7006603921840207e-02 -4.4678756806037323e-01
      2.1405836518407087e-01 7.4686683160753747e-02
      8.1302100182569070e+00 2.9036314996739676e-01
      -2.7894454110067601e-01 -7.9174429892783283e-04
      8.6539776279661307e-02 -1.6959641318179897e-01
      1.6773372042194096e-01 -6.5695769404984439e-01
      1.0433387302059222e-01 1.1598588049740836e-01
      -2.4804187975518324e-01 -4.4800399718351386e-01
      2.5666583295702128e-01 4.2599318178976914e-01
      4.8495636645115681e-01 1.2982555013343466e-01
      2.2191606426566815e-01 -3.1111549014928488e-02
      5.0974399158206493e-02 -1.2705108147179323e-03
      3.4988169945155576e+00 1.6652147164672715e-01
      9.8693154152842952e-02 6.9880812967638581e-02
      -8.8707475807514299e-02 2.9526679674244150e-02
      -3.6429701146766170e-02 -4.2764313971264439e-01
      -1.1936977964674350e-01 -3.7706224655738019e-01
      1.7956041993502331e-01 -1.4177131032047077e-01
      1.9323842160854526e-01 -4.7836798229042221e-01
      -1.8818780282774922e-01 3.1923984447601156e-01
      3.4825595265659304e-01 3.7354531781008102e-02
      7.6166810874827739e-02 1.9948302135210438e-02
      -1.9476882704967029e+00 8.8695626780154802e-02
      4.4750730322265930e-01 4.3863441548201454e-01
      -7.3399124506124638e-02 -1.5241938896684259e-01
      2.9572968681610118e-01 -1.0247408213631636e-01
      1.1168005675918267e-01 -7.1828950266945163e-02
      -2.4004849935602195e-02 -4.3378532078502097e-01
      -5.9967201843473261e-02 -4.4090749811748270e-01
      -2.5712839910801039e-01 2.9884074138868766e-01
      1.0638449994697755e-01 5.4131243935359917e-02
      3.2394915126682244e-01 -1.7998402729259008e-01
      -2.4456040226404490e+00 4.1513196520516632e-01
      -3.5034941869004832e-01 -6.9819854960028779e-02
      -1.1420994195471870e-01 -1.8486093156164379e-02
      -1.4915610856433675e-01 -1.1564407637903010e-01
      1.5527753643556799e-01 -1.9065341911853620e-01
      2.4270074578497509e-03 7.9222521769190438e-02
      3.2576626070372738e-01 -1.1992072184059845e-01
      2.3605004339218763e-01 1.8452774435863131e-01
      -1.4682842242917798e-01 -3.2925062477354838e-01
      2.3502802930835928e-01 2.2058721874871248e-01
      7.2884747369398317e+00 9.1023549856531077e-02
      -4.9013400136640078e-01 1.5951123519141458e-01
      -8.2638628206631481e-02 2.4459556239242405e-01
      9.0812197843308712e-02 -1.0060255003908081e-01
      5.1616765834242651e-01 8.5402874878830332e-02
      -1.4501857057936551e-01 -2.0599359006975693e-01
      8.0609255934622065e-02 3.1191873786416614e-02
      -5.7051132016473452e-02 3.4135293731516286e-01
      -2.0144256159440871e-01 -3.2842270745494458e-02
      -1.3605710210928065e-01 -2.1608314349737898e-01
      7.2729527104514577e+00 -3.5959816758350131e-02
      -3.2074665469976560e-01 3.1215330223558879e-01
      1.4143152656797559e-01 2.2080509447398824e-02
      4.6917965532279565e-01 3.6743237208460772e-01
      -4.1976977327109327e-01 7.0984912541114675e-01
      3.9465732775452328e-01 1.0778738130567442e-01
      1.8500243967757166e-01 2.1312196319736795e-01
      -6.9355454728017307e-01 -1.3575232420906400e-01
      5.2972739165555138e-01 6.3104481130938395e-01
      5.7864976392071193e-02 3.0971592131437548e-01
      -9.1662241708361769e+00 1.9793855952846121e-01
      -1.4974331743949723e-01 1.2530216147861850e-01
      -5.5899047878353328e-02 9.4760054048238174e-02
      1.8029900671129095e-01 -2.3609338910267780e-01
      -1.0188924996331206e-01 -3.4908618708666662e-02
      1.9619960102721928e-01 1.0825946273403833e-01
      -1.9603985336215521e-01 4.5173869183286014e-01
      3.5123738116083436e-01 -5.2996361777244740e-02
      -2.1024547062510121e-01 2.1603396289122270e-01
      -2.2195387935150945e-01 -1.2371774453082343e-02
      1.9731492254198653e+00 6.9941611619971769e-02
      -1.7269884310995609e-01 2.5980607882015044e-01
      -6.2832914620825478e-02 -4.0370037341237985e-01
      1.7792693008448143e-01 2.8394645644970268e-01
      3.5188698179934647e-01 8.5083792120149507e-03
      -5.3054585460187792e-02 4.3477825269817388e-01
      -3.4794103797736509e-01 -4.9736559244214766e-02
      -8.2725229512249560e-02 -2.0247169104201682e-01
      -3.1692306842804796e-01 9.3321294442030273e-02
      1.9258349225443361e-01 -1.7789669418087309e-01
      1.4831272692161038e+01 -4.0516441417716667e-02
      -3.4272331736377121e-01 1.9280499088681902e-02
      1.1792986829502378e-01 -2.6993677637841001e-01
      -1.0329362934264829e-02 -4.2633826773838396e-01
      -4.6777516151818505e-01 1.1404999479748015e-01
      7.9011444714089774e-02 -3.7376921333195534e-01
      9.3286870277344683e-02 4.2940278861720904e-01
      4.3695644153007814e-02 5.4218983974882473e-01
      2.3559927534929828e-01 3.1525122633784003e-01
      -1.6018482108235990e-01 -3.2259003165070838e-01
      6.6372320588489568e+00 1.6578574022158554e-01
      -3.6584012997762899e-01 -1.0477518825807229e-01
      -2.0432885019186925e-01 -1.5911409046524494e-01
      -8.7530708054039341e-02 7.8457243007925823e-02
      -5.6955748315514820e-01 2.8556861643378676e-02
      1.6852339216069984e-01 4.8308810673896160e-03
      -4.4285005829738311e-01 5.0179823666444567e-01
      5.2817630473587029e-01 -7.0829471257405172e-02
      -4.0877145923667380e-01 -2.0087998095338164e-01
      -1.8397334936841755e-01 -3.2671198987762563e-03
      -3.3510264194720443e+00 4.1707504615061813e-02
      -5.3032626675183725e-01 3.2094228718293766e-01
      2.6387408730075557e-02 -2.2263690213670762e-01
      1.5119661972186749e-01 3.0173851741264711e-02
      3.1232695774095232e-01 -5.6783759528011714e-02
      2.8520743191565435e-02 -1.8113393817037790e-01
      -1.5087961697170940e-01 -4.4095941017445933e-02
      -3.6092854503910454e-01 6.0929570064047711e-01
      -3.6952484260971058e-01 2.5151333415285915e-01
      5.1317360864081694e-02 -3.4803202945510597e-01
      3.0255699631720030e+00 -1.9739681112374460e-01
      1.5982369842841124e-01 -1.9425957555372467e-01
      6.4966310983046838e-02 5.1423837279025275e-01
      -1.9799936578656513e-01 1.5570850281393608e-01
      -1.4764163922006662e-01 -4.4540664624278192e-02
      1.9243562429764893e-02 5.3673901936770541e-03
      -1.3774613190516333e-01 2.2791995516604771e-01
      -8.8935272814426244e-02 -1.1232600348943673e-01
      -2.5057080140668542e-01 4.8916875402472804e-02
      6.1369176220894266e-02 2.7770614606634675e-01
      1.2111790015616478e+01 3.0878026200253339e-01
      1.0390364645306807e-01 6.5967519795070095e-02
      -4.6532522246843296e-02 2.2223495372124666e-01
      -1.6185677551348074e-02 2.8961281921610232e-01
      6.7138540771218239e-02 1.4438492982660953e-01
      7.2093110460524343e-02 -4.5015115566228246e-02
      3.6724660003082638e-01 -2.9072015867608364e-01
      -2.2498283497093685e-01 1.7990505264511017e-01
      -3.4552346731589706e-01 1.0712527101626707e-01
      1.7612518614609549e-01 -1.4508814203221812e-01
      3.2614736164923523e+00 -1.9535645069559286e-02
      -9.2801066050567149e-02 1.5337606422592029e-01
      -2.5245171315756321e-01 4.4156760509536097e-01
      2.4356072113243429e-01 8.7345088831646489e-01
      1.8457002709626438e-01 3.4027675700208021e-01
      7.4768475709675153e-02 4.0528120138692886e-01
      -3.9070434546979019e-02 1.0647915904940662e-01
      -3.5169074377676740e-01 -3.9788709695751279e-01
      3.2645553654813683e-02 -2.9552091262423419e-02
      1.8355261528643022e-01 2.6925227750269065e-02
      -6.2336268019892298e+00 8.0663363770370380e-02
      9.5769329571093437e-02 2.0219827383196670e-01
      -1.6293291510692970e-01 -1.1135563323621453e-01
      -3.2261895246315897e-01 1.8051273353922453e-02
      -2.7792323385028558e-02 5.6399114383193560e-02
      1.3456073695521872e-01 -9.9577821148213314e-02
      6.9589118139604889e-02 2.3021590512992668e-01
      -2.6550113241703888e-01 -6.6996468774135426e-02
      1.9963848592342886e-02 -3.9119326968031060e-01
      1.4916527268917875e-02 7.3209351008072659e-02
      3.8751230919927200e+00 -2.2225668126451514e-01
      -1.5070738193619776e-01 1.0321587339889433e-01
      -1.9955735824130533e-01 -5.9429554967001799e-03
      -1.5931738260979955e-01 1.1652529446827387e-01
      -5.3150873462731496e-01 -4.5207670064025034e-02
      1.9885341564209341e-01 -2.9474540430685303e-01
      -4.2368539229971408e-01 -1.7498451777332680e-01
      2.7414489847892792e-01 1.5557928252839417e-01
      2.2066670215274153e-01 1.1814093181418781e-01
      -1.7802000112238106e-01 3.9235791824830007e-01
      7.5535504282021231e+00 -1.6838253640500597e-01
      -2.1799413374826060e-01 1.2617222189077681e-01
      -1.5373772419907586e-01 -3.6157102370726218e-01
      1.3954723768836605e-01 2.2669964175044477e-01
      -2.7332950233003411e-01 -3.3136022487994388e-01
      1.5851061598733107e-03 1.1150913879533169e-02
      1.2805344432648641e-01 9.7696199722266203e-02
      -8.8808874991120862e-02 2.4553290220286614e-01
      3.6747608695911482e-01 -9.7687197600685657e-02
      -1.8795726733025663e-02 6.5045991541340012e-02
      2.9418169925937385e+00 3.2844767865155233e-01
      1.4164118812869279e-02 4.9018855114664495e-01
      3.4051329454586325e-02 3.2542919854826652e-01
      2.8397491450871110e-01 -9.7789673737266797e-02
      8.2724440334453850e-02 3.3598052882910973e-01
      -3.6352591093244062e-02 -9.6235864484828418e-02
      4.8567145532556460e-01 9.1765187179466648e-02
      -1.4736567980769316e-01 1.8948777830423244e-02
      2.0239803540052440e-01 2.3641433405614051e-01
      2.5761053430659003e-01 2.2999273812906088e-01
      -2.7817645784262806e+00 -6.6840591137045116e-02
      -5.1461264900491362e-02 -1.7097548357522305e-01
      -1.0923800300519248e-02 -2.6683268126389686e-01
      -1.8862693123635543e-01 -2.7726648693251038e-01
      2.2535029461511583e-01 -1.5227329228211017e-01
      2.5505973525842601e-01 6.0613640556259972e-02
      5.6882831872348154e-02 2.3501462842998208e-01
      -1.5158745884500258e-01 -3.2995001680996811e-01
      1.2940099451519926e-01 1.9576291819823846e-01
      4.0109969592771794e-01 1.0674559239541444e-01
      4.6021415646232011e+00 4.5342945440828269e-01
      5.6501610905236399e-01 -1.8305002226978373e-01
      -2.1794613470598015e-01 6.9631478146172376e-01
      8.8951857013566837e-02 2.9522531112428224e-01
      -4.1615190479448105e-01 -2.5913691910137107e-02
      3.3147358502929958e-01 -4.6036289493028987e-01
      -5.1621128603257915e-01 3.3858144525814515e-01
      -2.1739386552846546e-01 -1.5778255727253709e-01
      -5.8316382353493257e-01 6.5506034904454793e-02
      3.8135420723392532e-01 1.3732134645702904e-01
      3.1918963185832947e+00 1.5639228305236844e-01
      -1.7441749460513162e-01 2.0788721245617492e-01
      -1.3199064634153423e-01 3.1247450989257636e-01
      1.3508543915592322e-01 3.9668118607330294e-01
      -2.7936112319817502e-01 3.8295664926317396e-01
      1.3744051496021384e-01 -1.0510994774206250e-01
      1.6002734642983205e-01 -2.3427221101112319e-01
      -2.4206947156311978e-01 5.2586012149477675e-02
      2.0772169857959835e-01 3.7897094055345804e-01
      -3.5856351986995272e-01 1.5425254011391940e-01
      -1.8606460087317021e+00 -8.8567805207299552e-02
      1.7852520955643578e-01 8.2454273602948089e-02
      6.9151325328050033e-03 2.6661179249415795e-01
      5.5802186237585448e-02 -3.1308381163495264e-01
      4.0319355492213577e-02 3.4707125029239422e-01
      -1.0971961227679573e-01 -1.5488292504803264e-01
      2.8556576183049565e-01 -1.6861878254133167e-01
      -5.9989418994192863e-02 1.2499528001950549e-01
      -7.0947138023050782e-03 4.7857121289012755e-01
      2.4826910851552400e-01 4.6246362239940879e-02
      -6.5911389450810178e+00 3.2233322001746750e-02
      -3.4013027098170813e-02 4.4347906035943979e-01
      -1.3967496981925859e-01 2.2625489596245239e-02
      -3.8465959060043015e-01 -7.7253610049367899e-02
      -5.6715307393114400e-01 3.6760500517914907e-01
      -9.3460476328990211e-02 2.8852083985382854e-01
      -1.1286958131082275e-01 1.2118525722709304e-01
      -2.9251825829710693e-01 1.9692486359208078e-01
      4.1167518068799133e-02 -5.4760208281410837e-02
      -7.7112813879581832e-01 3.4649910879115974e-02
      3.5340302378155761e+00 -1.6772795472830859e-01
      -5.3301630124125110e-01 1.6686569711492266e-02
      2.2736884036366656e-01 4.0310665862159867e-01
      -1.2975472212916137e-01 -2.7424048716500804e-01
      5.6265269965267195e-01 -2.3160017259711732e-01
      -2.8154736887080767e-01 3.7436914753567176e-02
      1.4374401292280170e-01 1.4700024710763643e-01
      -1.3924150877638788e-01 -1.9904662044041410e-01
      1.0511585259922183e-01 -1.1130573184194661e-01
      2.2063839243401243e-01 5.7249398005694924e-02
      7.3008668392346836e+00 -2.5079053618725790e-02
      -2.0297088785653550e-01 2.6236856385266710e-01
      -2.7758532152979587e-01 -3.5019796816157805e-01
      -1.6470402566789544e-01 2.7453865426534974e-01
      -4.3177679265142965e-01 -2.7853815869659315e-01
      3.8033572290437800e-01 -7.5529215494157210e-03
      -1.7246441842936891e-01 -1.1789509618339485e-01
      -4.9951490671974762e-02 -1.7706488213868132e-01
      3.6865803623303911e-01 -2.1055898792874925e-01
      3.4788223228438914e-02 -1.6868036130601391e-01
      -9.3719060028151215e+00 1.3419207371655012e-01
      -2.3018785225333455e-01 1.5333335390454331e-01
      -2.4358370139918681e-01 7.7120030865146488e-02
      -7.4470844660874443e-03 7.3093401944043665e-02
      1.5923733158105732e-01 1.9996524802960176e-02
      8.7601460108005000e-02 -1.0261061738823669e-01
      -4.3862717476755728e-04 1.3109235573832351e-01
      -1.6907513346722125e-01 -1.1248923042029040e-01
      9.8338570248907353e-02 2.4196542979228877e-01
      -1.9030581729962090e-01 -7.1617166668775073e-02
      -3.1856508468743785e+00 3.2382755987350451e-02
      -5.2959575675407766e-01 1.7866629616922025e-01
      -1.0228403081649826e-01 -1.0475083492305913e-01
      -1.0663594496751351e-01 -2.1504054295133321e-01
      -1.1593631865753332e-02 2.2988739006590184e-01
      -1.1781107468871466e-01 3.4343686872413010e-01
      -9.2580852723251242e-02 4.0240629198709963e-03
      2.6365645158172774e-01 -9.1129604854756741e-02
      -6.7551214173346918e-02 9.0954979450754314e-02
      -1.9307644571312482e-01 1.8143585055175804e-01
      2.3038571240582900e-01 1.0774006910320115e-01
      8.1948973882457518e-02 -4.2282594689973929e-01
      -8.0563795178505218e-02 7.4328738983247500e-01
      6.7386405523027063e-02 5.1428822863122803e-01
      -1.2353522517801308e-01 4.2304586359044055e-01
      4.2489191426586748e-02 2.5170143128240407e-02
      1.1037445987530256e-01 -1.9321522767724056e-01
      7.6742914030019718e-02 2.6601863855383216e-02
      -3.8433856603053906e-01 -9.4831632712307809e-02
      -2.0297922188051562e-01 -1.2195538245454668e-01
      2.7952816584582707e+00 2.8477713413946198e-01
      -2.0183819150744725e-01 2.2480317089349205e-01
      7.4444481490617331e-02 2.4625701324472279e-01
      2.6858598001722406e-01 1.9925727309415309e-01
      -2.5705318198137317e-02 3.5231189444130712e-01
      1.9606756174008702e-01 -2.9692388095909872e-01
      4.8477602940202719e-01 -1.9658834115998555e-01
      -3.0195778015831837e-01 5.6427286036329662e-02
      -7.1003495036258607e-02 1.2095683534800909e-01
      9.4071502698182263e-02 -1.5895549678758675e-01
      -1.0513968441112812e+01 2.3922603493358924e-01
      4.6999444481093972e-01 -8.0139800857570206e-02
      9.5732595573960244e-02 -5.0017928083994367e-01
      -8.3344587181956600e-02 -1.2997583952367384e-01
      7.8447292379740755e-02 -3.0014183543473982e-01
      -1.4022068906422497e-01 3.1213464364668853e-01
      1.9143406572469127e-01 1.3105513532677401e-01
      4.1237786095729906e-01 -9.8205643791776834e-02
      -3.1343824645830770e-01 2.1564977061689052e-02
      2.1109103526706495e-02 -3.9330045006810588e-02
      3.9752362491086366e+00 -8.0311247134383812e-02
      -3.4032553663699261e-01 6.0301993214065014e-02
      -4.5927060563004100e-02 -2.3371043799968603e-02
      -2.9816152649443123e-01 -9.1309922589724396e-02
      6.4659687696247914e-01 -4.0210317337475493e-01
      7.7640572421606602e-02 -2.0914337404500727e-01
      9.7984658537142458e-02 6.2965893619103389e-02
      -9.5092745583595359e-02 4.3635419291837196e-01
      -4.2577777763125424e-01 -1.3197440023183607e-01
      2.4121149972110667e-01 -2.3439765887400693e-01
      -1.2349197521542610e+00 4.4501769928789070e-02
      -4.8476781451786938e-01 -3.5953576759357425e-01
      -2.0465668707174223e-01 -1.9257002433839870e-01
      -1.3791438352824736e-01 1.3691949690012098e-01
      1.9546060058361983e-01 5.0257608817768507e-01
      -1.0240853909540678e-02 -3.3365777640036433e-02
      1.2808964041097828e-01 5.2414264176052572e-01
      -3.8584108182612947e-01 4.3972275613569528e-01
      -1.0750956498941436e-01 9.8419819696238933e-02
      -4.2099251838356083e-01 -1.4539006303652940e-01
      -1.5314425521974209e+00 -1.1187698989891837e-01
      1.0818710156965745e-01 -1.7870596263030547e-01
      6.3293788991724151e-02 -1.4407816546899196e-01
      1.0376089586890629e-01 -4.1264473981417787e-01
      -4.8383165018407609e-01 7.8336478733167278e-02
      -1.2058731776232243e-01 -1.6904485804189426e-01
      -1.6267328617004512e-01 -8.7924505867344724e-02
      -8.0733002843477164e-01 -1.7949613283031557e-01
      -5.3645612902398232e-01 2.5558226269052593e-02
      -2.1640048236328696e-01 3.6110514610985078e-02
      2.5788801175374907e+00 9.9001621947485685e-02
      4.9157899690694390e-01 1.4659394455283112e-01
      1.8133637053855686e-01 5.9079336469938244e-02
      1.7441484826641526e-01 2.7383846574023700e-02
      5.0708687367268113e-01 -1.0706832471806101e-01
      6.6047077588602357e-02 -3.2141943806821044e-01
      3.2053977614179935e-01 -4.7502059204099750e-02
      1.0832257567319285e-01 -3.0905586204612417e-01
      9.0326621086985512e-02 -1.0185627252783579e-01
      2.0515105937576675e-01 -1.5029218078806070e-01
      -1.8515132987867591e+00 3.1103125843042256e-01
      -3.9929080078743762e-01 -3.5290735791136958e-02
      -1.2451250795302558e-01 -1.1686282117129238e-02
      -2.0183981429819531e-01 -1.0605332526271093e-01
      6.1558368062234048e-01 2.4800811978634579e-01
      2.5879520961469789e-02 4.5360863412550556e-01
      4.4156302683141258e-01 3.5999466530895606e-02
      -2.4948098115919223e-03 -1.9545106823909397e-01
      -4.0764910050239112e-01 -2.8948525729381173e-02
      -2.7046933057961425e-01 3.3751626941810098e-01
      2.3774151314438234e+00 2.6205500045993008e-01
      1.4657192263493699e-01 1.3741024981032243e-01
      -2.7392247870222192e-01 5.2332824980149205e-02
      -4.2711745513434587e-03 2.3919703942443588e-01
      -2.5594314933676576e-01 3.5563508520380438e-01
      3.3580754612525471e-01 2.0299688843021294e-01
      -4.1682528157890913e-01 1.8580011755477119e-02
      9.0113674928216880e-01 -4.7358063632968700e-01
      3.2716487932733462e-01 2.6404199089285224e-01
      -3.7342945049905935e-01 2.3537506633869704e-01
      8.2198198551217718e+00 4.4356537155331527e-02
      2.4569471713416485e-01 2.2239396393982987e-02
      3.5574712847421426e-02 -5.4091353835239742e-01
      -8.4914531635330998e-02 -5.7960967026392762e-01
      -1.5068629390423574e-01 -3.1837146456033633e-01
      1.0925098512817071e-01 -5.3595029556372364e-01
      1.9529187425130167e-02 -3.9628603495822834e-01
      -1.8669896792883783e-01 3.6805024474509029e-01
      3.2387905226813934e-01 1.9236552048210703e-01
      -4.1929147788148652e-01 -4.4737113473919460e-01
      -1.9043406556944338e+00 2.7001015378752563e-01
      4.3171697713216078e-01 -1.1371453210298510e-01
      3.7185352130985228e-02 1.9234389444859404e-01
      2.2937852874943762e-01 2.9227492390223936e-01
      6.2813672575763246e-01 -5.6042099127915179e-01
      -9.3296882679976094e-03 3.7218935695047174e-02
      1.1687070695992433e-02 -1.7136604019310955e-01
      5.0352834501891264e-01 -4.3826408769672098e-01
      -5.5603851432740536e-01 -6.3677361845893887e-01
      3.9841079357600484e-01 -1.1099064610627342e-01
      6.3723275014875975e+00 1.2762903263139105e-01
      -3.9335873165089401e-02 1.7662883601131221e-01
      -1.7296356531649423e-01 7.0463212402405689e-02
      -1.1259496595069084e-01 1.7849460481463550e-01
      3.3844477057420391e-01 -9.6016747566427696e-02
      5.0850581367875798e-02 1.5137678966502649e-01
      -1.2114362224621382e-01 8.1510658512239631e-01
      -9.4815825993829192e-02 -4.0656243329255948e-01
      4.7915012646891531e-01 -1.6214180041116317e-02
      1.9040507567116585e-01 -1.7067051694568028e-01
      2.7148240197324700e+00 4.1436865503918674e-01
      -4.7515857161420877e-01 1.6473348705994689e-01
      2.4665594530747141e-03 -2.2615410176306155e-01
      1.8346787109215307e-01 9.4312588925114504e-01
      -5.0396355119383585e-01 7.4253800005652226e-01
      6.6021070699105844e-02 -1.2047107962712855e-01
      2.3048219464051833e-02 2.5636287067658842e-01
      2.5680163684378143e-01 -1.1021607629511126e-01
      2.4004424593177032e-01 4.5536767956665586e-01
      -2.3132705686276528e-01 1.5188837255228410e-01
      1.8328712965776151e+00 -6.6803784677748904e-02
      5.3326289220595513e-01 -5.2195234623979729e-02
      2.0357362088696873e-01 1.5554205259405765e-01
      9.2101719075834906e-02 -3.7350725262267104e-01
      -1.1328067466440910e-01 5.3246179795870341e-01
      -9.2718595782431829e-02 -3.6445481133847163e-01
      1.0098680904731724e-01 -3.6164398493296968e-01
      -1.0227059707771462e-01 -1.6313531245644711e-01
      -6.4493327696410474e-02 4.6424441319708054e-01
      -2.7411901396123633e-02 3.1196645657136807e-01
      8.6631590625290422e-01 -2.4734245112951350e-01
      2.9169712351809923e-01 2.7630662820211432e-01
      1.7706425611163093e-01 -2.7426983512438102e-01
      1.5204080454482427e-01 -1.1314132649104697e-01
      2.3096130372796525e-01 -8.7095500607431611e-02
      2.0040224610482098e-02 -1.8089640557984391e-01
      4.6950610775129636e-01 -1.8622691247621007e-01
      3.5918805611248161e-01 -2.9883199184476411e-01
      3.5761746017425688e-01 1.2348928289606061e-01
      1.6762207046032221e-01 1.4189855574040527e-01
      -4.1331503897554231e+00 5.4114213642474998e-02
      9.3641430575291784e-02 2.2360863630069877e-01
      -1.3913201031934980e-01 7.4616372117840302e-01
      1.7568226401671103e-01 5.1374630488077458e-02
      -3.4281574656218600e-01 5.1097208215477430e-01
      -9.5998172231661072e-02 2.4357638638999912e-01
      2.2172878945152533e-01 -1.7701197533054533e-01
      3.1217258536701126e-01 -2.5184793170429171e-01
      5.5418776792711122e-01 1.2115725266900418e-01
      -1.2492124498427824e-01 1.7640441185664782e-01
      -2.7764603540193185e+00 1.8586920999087883e-01
      2.4266013438048573e-02 4.8238010229417316e-01
      -1.5987375362264952e-01 8.8579819970138418e-02
      -7.5200903072164000e-03 7.8056126637697065e-01
      -6.8639149188029813e-01 6.6024023049438596e-01
      9.2567626117412788e-02 7.3354023935916313e-01
      -2.2432043879351207e-01 2.1666964234729097e-01
      1.2708293268918372e-01 -4.1853821316514772e-01
      5.7939611714410322e-01 5.3956066261705948e-01
      -5.5496147955707076e-01 -2.2071219788713473e-02
      1.0241821626011083e+01 3.5951116197125460e-01
      2.5599268717304979e-01 1.7883411028574828e-02
      -2.2901182894409949e-01 7.4696773951951001e-01
      -1.2453370421616738e-01 -1.1431006803427355e-02
      -1.4133802661202741e-01 2.7614671813467201e-01
      1.7090130666082565e-01 -3.4999429644418012e-01
      -1.4613223428183783e-01 -2.7228086999036977e-01
      5.6207621156070386e-01 2.7780677148149568e-01
      -1.7734908942045902e-01 6.4501453847303647e-01
      -3.0891605250795601e-01 4.8229125655143879e-01
      5.1660125435714976e-01 2.9463665292520352e-01
      4.0662859785250516e-01 1.3484714944058307e-01
      1.1394624627946001e-01 3.6684542440171736e-01
      -1.3203367968584478e-01 1.9285372417564267e-01
      2.2716786843999109e-01 -2.0741093175201411e-01
      -8.3126438078125295e-02 -1.3562745056667061e-01
      3.2573215105680692e-01 -2.7683761588174677e-01
      -4.4737092701463393e-01 3.6700185684238912e-01
      -2.0258956376900061e-01 -2.8004273114480122e-01
      8.1565925938363551e-02 -1.8691794690686284e-01
      -5.3464908367052448e+00 -1.1821355623152410e-01
      -1.6298520143665809e-01 -2.9984632918788451e-01
      -1.4785818097784058e-02 2.6161548697175596e-01
      -1.0548905788731500e-01 -3.9656943440983139e-01
      -7.3686576145263541e-02 -1.4794687366962939e-01
      2.2068450470576101e-01 1.7292168827320825e-01
      -2.8841911845211843e-01 -3.9413708286747715e-02
      -3.5780363594853776e-01 4.4117617524132757e-01
      -4.7732273676494225e-01 -1.4535476226865884e-01
      -1.6771272082755237e-01 -1.2124584278027188e-01
      2.7823648418137039e+00 7.5827438397400304e-02
      -3.9056211812077204e-02 4.6592184463839154e-01
      8.3413030835946089e-02 1.5929236125788464e-03
      2.0280664639372253e-01 -3.0810058783298921e-01
      -1.8589301261843671e-01 3.7190372557304857e-01
      1.1308446955144701e-01 4.1067048959434072e-01
      -3.7057428450173896e-01 5.4580643117547678e-01
      3.2822278551536910e-01 -1.1922788148212117e-01
      4.6215146098819532e-01 4.2007906312326027e-01
      5.5939883327646912e-02 3.3277458364153056e-01
      -9.8711780734335675e-01 1.1896990511894492e-01
      1.9888979072439283e-01 6.0103801681047776e-03
      8.2092533104437065e-02 -5.2303310778065182e-01
      1.7631106323399696e-02 -8.2030556334937865e-01
      2.5455339299286256e-01 -4.3966690355450738e-01
      -1.8750026378348567e-01 -7.4357042092538628e-02
      1.5166491913125119e-01 -3.3261268990538145e-01
      -6.1762516789799005e-01 3.7305215660345276e-01
      -2.5401035772543651e-01 -1.4628087751671431e-01
      7.8916660330824923e-02 -4.7381105551918890e-01
      -6.4189065683079116e+00 1.7617781788236669e-01
      1.3949948215585439e-01 -8.2619162299000126e-02
      -7.2792956783147109e-02 7.0178985988951148e-03
      -5.8417246669062575e-02 8.8727660024991162e-01
      -4.2732921459494380e-02 -1.2635410681628857e-02
      2.1375124765233822e-01 1.6609329057552666e-01
      2.0753336152863927e-01 9.4932320097585537e-02
      -5.2693944130046255e-01 -1.0758876433000755e-01
      -1.3319524688075232e-01 -3.2974850909447906e-01
      1.5918853698057128e-01 1.1209226902138317e-01
      2.8741138543970601e-01 -1.1449407762870481e-01
      7.6863151913028449e-02 -2.1002236562191515e-01
      -3.6843458327863253e-02 -2.0535624069556657e-01
      -2.9510976321612991e-02 -4.7465612218814401e-01
      -2.6158195294331188e-01 -3.6174683490287918e-01
      5.2556286251638967e-02 -2.9220119903336922e-01
      -4.6397734923012768e-01 -1.3829501091778290e-01
      -7.7536340516330141e-02 2.3094000798404329e-01
      -1.6571697721354064e-01 -4.4612601183103540e-01
      9.4713403634700460e-02 -4.3784553965326162e-01
      2.7482324791045493e-01 -1.8066268408852543e-01
      2.0918474336544149e-01 2.7103649340083685e-01
      -1.3709589357665128e-01 3.7362230853175055e-01
      -6.6439797557104899e-02 6.5003842484423939e-03
      -3.3604268369187246e-01 1.8603152116920343e-01
      2.8973934052807380e-02 -4.1919694708120986e-01
      -1.6128064365786618e-01 2.2157298810324827e-02
      3.6249433862926855e-01 -1.4008487863360572e-01
      5.0425216841116623e-02 -1.5290884394994830e-01
      -4.4626578762205654e-01 -2.8369275069572431e-01
      6.8613150260248092e+00 -8.2759220120667470e-02
      3.9763184197728028e-03 2.8622576761533830e-01
      -2.1484087075264660e-01 -2.9585818109444995e-01
      -2.3780931103552139e-01 3.2524962524650730e-01
      -4.6340194604041435e-01 1.7968858450891531e-01
      1.7203415555138893e-01 4.6214055406374283e-01
      1.4979851722055618e-01 4.8575322313472585e-02
      -4.6514765175461842e-01 2.4809296096556141e-01
      8.5389233311515045e-02 3.3428425824864227e-01
      1.4219146794037419e-02 -2.9523582398316029e-02
      -7.4355711995405016e-01 2.3436607429769388e-01
      -3.2934964573458742e-01 9.1666977061578073e-02
      5.6130772640912041e-02 2.4551078534767981e-01
      -6.7493362637883150e-02 -5.0023577286802934e-01
      -2.4562359510089027e-01 1.3230912909858056e-01
      3.4523740435154970e-01 -1.9267756786385723e-01
      4.2041564793886432e-02 1.6669964826338224e-01
      -3.9649564620986999e-01 -2.7345264850041995e-01
      3.5679605834791850e-01 -3.3623669870650547e-02
      3.0395770812205895e-02 3.1157415976896063e-01
      -6.6407736953974519e+00 -6.4229539752530651e-02
      -3.0195137930867244e-01 1.2318194249951948e-01
      -1.1591396349816462e-01 1.1989954865497625e-01
      7.4533762997122485e-02 5.6296480179831210e-01
      -5.1668656934991987e-03 1.0354358907244837e-01
      1.1546133030871675e-01 3.9798951627927537e-01
      3.0104085929388202e-01 2.0506285888959078e-01
      -5.4975999586302213e-02 -5.5916958678755535e-01
      -4.5964454628914808e-01 -2.8567281350656265e-01
      -1.1892904806635754e-01 2.7205853734168811e-01
      -2.1474302131493963e+00 1.3649615888173239e-01
      2.4028306764506710e-01 4.3308398170806939e-01
      6.2384232473485617e-02 2.5353286765425170e-01
      -2.0126675372523134e-02 6.9067680937144327e-01
      -5.6924037807455286e-01 6.9491407267061012e-01
      -8.8913796258331845e-02 5.9125842612615123e-02
      -7.6900395105523156e-02 -5.0346995925659843e-01
      -9.1401158724482490e-01 -3.8504555076851182e-01
      1.9590448883723888e-01 6.3356656219235896e-01
      -2.6074688092979409e-01 3.9735740000215632e-02
      9.9054053630534593e+00 2.6649692790436991e-01
      -8.7953716733779816e-02 2.5762961575402177e-01
      2.7032083189989092e-02 1.8455424170440418e-01
      3.3264684353679477e-02 1.9268686978262553e-01
      -3.7967670457983888e-01 2.5911186103582756e-01
      1.0409392101339610e-01 3.2904006978909328e-01
      -2.4329765510430407e-01 8.7637100624710973e-02
      -4.1578355911942616e-01 2.0093285053405052e-01
      -1.4898048848808654e-01 2.5814237178145527e-01
      -2.7652556111159959e-01 2.5560404367776490e-01
      -2.7669523373927634e+00 1.2048822571976436e-01
      -7.6949476373845797e-03 -2.3541823895377201e-01
      2.7257941335522268e-01 4.0480021864160937e-01
      -4.4843588352807058e-02 1.3739351534558372e-01
      3.2377902277996534e-01 -7.1702410622967616e-02
      1.0615360899923332e-01 -2.6709549430257928e-01
      3.2678169537937263e-01 -3.0784692168971745e-02
      -5.0632353826758229e-02 7.5386879113835473e-02
      -1.1794622352775472e-01 -1.6717900401194216e-01
      1.7092870475081060e-01 -2.0608783261963853e-01
      -1.1594569875712676e+01 1.5620902146578539e-01
      1.9496507320329109e-01 4.1499002138732553e-02
      -4.6290710820573309e-02 1.5773969892303913e-01
      6.1915058543620248e-02 -2.2514565801739297e-01
      -4.0314793484114937e-02 -1.4008034481593131e-02
      -2.9953281975080053e-02 -1.4290199637611789e-01
      -2.4190933989626673e-01 5.1646216398812748e-02
      5.5653675768280286e-01 -1.5883407183135226e-01
      -3.7736638689766289e-01 1.3264940226674862e-01
      -3.7844059101085298e-01 -5.7304327491513624e-02
      -3.1429971117639419e+00 1.3186941340106770e-01
      1.9778673018157361e-01 1.5219149577048136e-01
      -5.0674323772695054e-02 6.5753696107030835e-01
      -1.8881064795672356e-01 4.8647383998732793e-02
      -7.3981881252097548e-01 6.2577952817706306e-01
      3.3196798506232822e-01 -3.5348180896972653e-01
      -5.0607659037151165e-01 3.9553711479565523e-01
      4.7038266395885381e-01 -2.7229641938558430e-01
      8.3064669679861058e-01 4.3020481562061441e-01
      -3.6948211855769419e-01 -1.4745665406852057e-01
      7.3177689939851929e+00 -1.1843985423527210e-01
      4.5242314536894875e-02 6.3386141816188069e-02
      2.4738094341045122e-01 3.6528654221328283e-02
      -6.1079483311186095e-02 -5.9338073303060701e-01
      -3.0537086520476003e-01 2.8744011735452601e-01
      3.1974522925448626e-02 1.5496654044906175e-01
      2.0499112282748227e-01 7.1847686621525339e-02
      -3.2198026377300254e-01 4.3300654673859523e-01
      2.1167308135719079e-01 5.3204793472213330e-01
      -1.2484638641689731e-01 2.5941705439044882e-01
      -7.2366559560191410e+00 2.3793703396891278e-01
      1.8327252798694604e-01 2.4190474299971895e-01
      -1.2137917638809786e-04 4.2335066196759491e-01
      1.0310363966422099e-01 3.1412394568913865e-01
      -2.4740218598497554e-01 5.6143248404371338e-01
      3.7390553975371704e-01 3.0471815630051136e-01
      -2.7334536180797481e-01 7.1098755983598383e-01
      3.5041874555260566e-01 -1.3235543635607042e-01
      2.8796521127256242e-01 2.4222409503863759e-01
      -3.5362741733817998e-01 2.1841632762625893e-01
      -1.0247007713376712e+01 -1.9388743110140841e-01
      3.3789487274146301e-01 -4.0942662387401285e-01
      1.2371652141442616e-01 5.7592115511176829e-02
      -1.1466422320686030e-02 -5.9518014956525700e-01
      7.9458917270697565e-02 -2.0283283489545317e-01
      9.0239041884622465e-02 -2.9217893337618112e-01
      -9.5732539788871834e-02 -1.2333279052708501e-01
      -5.2382369788443177e-02 2.1978642543704255e-01
      -1.9414150083204149e-01 -3.9251094897397615e-01
      5.2806642488173383e-01 3.5452906385800486e-03
      -5.3499325965044697e+00 2.7370158044128312e-01
      2.4885550041503826e-01 -2.8563421793232863e-01
      -2.0671949164148337e-01 2.0056000615393207e-01
      -1.0573179493990803e-01 -2.3954802887809015e-01
      -3.2350022409220675e-01 1.9201753282006606e-01
      1.4235132222505789e-01 -1.0671919366297934e-01
      -1.9869182042773939e-01 1.7015580967402713e-01
      1.4572908761710192e-02 3.1453945085746987e-01
      -5.1968368122336661e-01 -2.0694751335477804e-01
      -2.2283170323459819e-01 1.2547558241533929e-01
      8.9845186079060646e+00 2.1008597442386923e-01
      -7.9075450242357667e-02 1.8809241110153216e-01
      -9.5008929474821521e-03 4.4602033149043874e-01
      -1.7925037136863589e-01 1.2127934773077305e-01
      -4.3406259272579278e-01 2.3431701203894789e-01
      8.9858467526053087e-02 -4.0159279372870463e-02
      -2.0858153572598179e-01 -1.2626638433569698e-01
      7.2320210704561416e-01 3.1657512102880231e-01
      -9.7970142109280761e-02 2.0205611437918800e-01
      -8.1433805072556750e-02 -6.9646893776663610e-02
      8.5811458588283465e+00 4.2358776773008866e-01
      -7.8908462143020719e-01 1.6408934663063299e-01
      -7.7730572032875950e-02 7.2174111717943440e-02
      -8.7899432866004740e-02 -1.9549573243396395e-01
      -2.6147942075877445e-01 -1.2272736374250606e-01
      3.6938319149036819e-01 -1.0658708360507880e+00
      5.0657982119859357e-01 -3.2783537050213790e-01
      3.8381665156073030e-01 7.7983387228850662e-02
      4.8162761794160913e-01 1.1930138902825202e-01
      1.6231275012611038e-01 2.5162857078915846e-01
      -1.3783252976614380e+01 -1.0581396788650012e-01
      -2.2558873237089999e-01 -3.2485446449487898e-01
      1.5698045855862330e-02 -1.2893440470062595e-01
      -5.0814281061748817e-02 -4.8524506435878934e-01
      -5.7814745375343624e-01 -1.6841529560672246e-02
      2.4598790079041885e-01 -1.4120921462689259e-01
      5.6198358563115773e-02 -2.9393300637872405e-01
      -2.1277729610570401e-01 2.1710604520467419e-01
      -1.3850540635295591e-01 -1.7047760099873532e-01
      -2.9965390140436715e-01 -2.9021877431432536e-01
      -1.0493579198996809e+01 1.1987889494017645e-01
      8.2900123262612882e-02 2.3646655482648071e-01
      -3.5382244662419682e-01 1.1974620928894407e-01
      -9.1794052457303099e-02 2.1043824000305564e-01
      -2.1715348443286420e-01 1.0002941463627713e-01
      1.9651298779554371e-01 -5.6369731465939786e-02
      -7.6957580751178103e-02 -2.6322350213111168e-01
      -8.4145038134321792e-01 -1.6555329220368033e-02
      -1.1261713821182981e-02 -8.5276646508136017e-02
      4.9214719910489315e-03 -2.7504417321894553e-01
      1.2409915668108210e+01 2.2594011806966499e-01
      -3.9607851274956946e-01 6.7595642726686320e-02
      -1.2046444584734345e-01 2.7208865501660375e-02
      -1.2419653409947279e-01 -3.8559240731096373e-02
      -1.3491814594783319e-01 1.2781122614547719e-01
      2.7931794424176826e-01 5.9414289613769344e-01
      -1.5963273210265683e-01 -1.0674175045546082e-01
      1.9359658547810762e-01 5.8248956877837543e-01
      3.0176672067263782e-01 -1.0866609171497688e-01
      -2.7823000333484793e-01 -1.3202489865673706e-01
      8.7077155096039274e+00 -2.7358934511695417e-02
      1.6679772878429186e-01 -9.1591302505800831e-02
      -6.5151401716802785e-03 -3.1314377886987366e-01
      1.4243444055467544e-01 -2.2979533952989847e-01
      5.8190334019899599e-02 -5.0311182855430132e-02
      1.7960237781248589e-01 2.6996928352050181e-01
      -1.4340166729726331e-01 -8.0574557836266381e-01
      -3.3818635515134371e-01 -5.0339860848252649e-02
      3.0054040771353002e-01 2.3700310058361443e-01
      -1.1719735739056787e-01 -2.2977118488277198e-01
      -1.1290943642855378e+01 -6.0841560267569060e-02
      2.9770187164234106e-02 -2.1355342298235888e-01
      4.3399027287308559e-02 -1.7032639874831032e-01
      -4.1575117307768215e-02 -8.7584833231058601e-01
      -6.3650072899318466e-01 -1.7555166652058998e-01
      1.2647990365311387e-02 -2.7592278788529101e-01
      -1.7615624102984433e-02 9.2793880146273355e-01
      7.8215722129855475e-02 -1.5311885261834052e-01
      1.7742380481625991e-01 -2.2311105693352981e-01
      -1.6897757914877570e-01 2.8109037843038358e-02
      -5.4854535555012884e-01 1.4716929844077478e-01
      8.4269237373317540e-02 2.6938472661973545e-01
      -1.1361592606598989e-01 3.5144338555540000e-01
      -1.6686116916234872e-01 6.7488113502983116e-01
      -3.4259747279685454e-01 5.7562182397178405e-02
      2.4668703075076230e-02 -1.2458817636855306e-01
      -3.9212736803468540e-01 7.4040652873914503e-01
      3.3676552503575058e-01 -6.6068329124196579e-01
      -1.9376689613873169e-01 -1.6077070678186894e-01
      -5.0813564254595558e-02 2.1149005210920799e-01
      4.8944877057273120e+00 1.9997025658319731e-01
      -3.2153085188904823e-01 3.5502762798609211e-01
      1.0752166047979264e-01 1.9688862702758642e-01
      3.9935554900294356e-03 4.0546875483350281e-01
      1.0853483518644326e-01 6.5044790854800405e-01
      2.4039583286735669e-01 2.1244038263849835e-01
      1.6068875825304085e-01 3.7453023194858293e-01
      4.6702455114174846e-01 -7.8748904372413331e-02
      2.0448045628868214e-01 3.5493824652051748e-01
      1.1333358787294216e-02 1.1087914871827539e-01
      -3.4074579764072603e+00 -4.7492377791078809e-02
      -2.9603927247532946e-01 2.6129991056399643e-01
      1.1789403799792071e-01 -2.5751318096371703e-03
      -3.6786338513825484e-02 4.3142174012183288e-01
      8.2462329895086450e-02 3.7532799337265069e-02
      1.9761034723036128e-01 3.7909700952597020e-02
      1.0304939087170864e-01 6.4512139515220301e-01
      5.2751793992681351e-01 -1.3428120717896067e-01
      1.7921418625266991e-01 6.3985765256013305e-01
      -1.7422784122071316e-01 -3.2678939827488450e-02
      -1.2737136085514855e+01 1.9995896335387436e-01
      -2.5821639202204860e-01 -2.4556766704543445e-01
      3.7103881752621665e-02 -2.6791697570456524e-01
      -1.0682902534151366e-01 -1.1548251286222559e-01
      -3.7874477543015111e-01 1.3594311146161081e-01
      3.3899351385349080e-01 -2.9842832900582292e-02
      -2.0115800770764897e-01 4.8711262563554396e-02
      -2.1256345239424079e-01 -1.0940123986439992e-01
      -3.5986288713146547e-01 7.9357061727267780e-03
      -6.9926296835602336e-02 6.5526057418594907e-02
      -7.3656952606294483e+00 -9.5302185932641961e-02
      -4.0978417222199981e-01 6.2327959192814190e-02
      -7.4751200756553268e-02 1.0133589500780145e+00
      -5.3831316045697582e-02 5.5321640205300759e-01
      -1.0483569489516684e-01 7.6641323261962283e-02
      3.4116803949316699e-01 -1.6459571187845390e-01
      -1.0556062557025092e-01 -4.1731936503160934e-02
      6.7696464605331727e-02 -4.7442762987230269e-01
      -2.0860157187938305e-01 -8.7688262222156435e-02
      -2.0179056391278896e-01 -4.8043327382133405e-02
      8.6987044140090113e+00 1.2110835544379052e-01
      -3.0897310069760064e-01 4.6200159123763351e-02
      -2.7597225463126335e-02 3.0744236084725207e-02
      1.0416086179726809e-01 -1.1709854597196268e-01
      -1.5406242324835126e-01 2.0969847587739052e-01
      1.5852316368128505e-02 4.4422308716792008e-02
      3.6936457614264667e-01 5.0594272041004799e-02
      -1.5074509551362639e-01 -5.0737120604022590e-01
      1.6232312203984903e-01 1.9838361361365237e-01
      -2.4590993520647195e-01 1.2378447561963433e-02
      1.1336647309085750e+00 1.2706394916683680e-01
      -7.3276246097643801e-03 1.3105981581499934e-01
      -2.5473803550739929e-02 6.4352200367526660e-02
      1.5190522807748716e-01 -2.0342624028590950e-01
      -6.3878972806507994e-01 6.4443996381888261e-02
      1.0390482387011351e-02 -2.2401172444883075e-01
      -3.6106171367790291e-01 -1.2127779178459260e-01
      -1.3250518911942796e-01 2.7146193599706747e-01
      2.7127603320432886e-01 5.8585957306713365e-01
      -3.0719711815491302e-01 4.0875618347133291e-01
      -9.0053894298530484e+00 7.9491497910742032e-02
      1.6575272023366797e-01 -2.7696499794474677e-01
      -4.9712187403477152e-02 -1.0311732862053127e-02
      7.8555446179563570e-03 -2.8968330705236139e-01
      -3.3554187251572948e-01 7.9284820960650079e-02
      3.2331086407311993e-01 1.0754174519041201e-02
      -1.6402382898846068e-01 -2.9546336524775069e-01
      -9.0214254015890588e-02 4.3692476812615608e-02
      3.1831497400212558e-02 4.2465070944217709e-01
      8.3892988972164170e-02 7.1360282151368984e-02
      -3.8453938729277821e+00 1.4389150800447190e-01
      -1.9324847395975067e-01 6.9102308717684538e-02
      -1.3925812866741138e-01 6.4791802947252120e-02
      -1.7746567158004534e-01 -1.8597880678065118e-01
      1.3376909473791020e-04 -3.6532688513947231e-01
      1.5219764600295504e-02 -6.7430687728750616e-01
      -7.8565757176438533e-01 -2.8131610208185459e-01
      4.5919860953505354e-01 -9.2654931111412056e-02
      7.3881037551906847e-01 -2.1060089910543900e-01
      -3.2516867583621066e-02 -3.2095004455457460e-02
      1.2393378755149973e+01 1.8618701869338630e-01
      -4.6043207886160187e-01 -7.8342700403032622e-02
      -8.5227179683936255e-02 4.4574842366752049e-01
      -2.1235343169312842e-01 -9.9930562724501223e-02
      4.1186873402694452e-01 -3.6519840196655351e-01
      2.0303148982534244e-01 -5.1439132582597892e-02
      -1.5267990068249757e-01 -7.1795025589587058e-01
      -2.0899367322953522e-01 6.8358046686892965e-02
      1.9418599584002719e-01 1.6439988707531517e-01
      4.2982405584113292e-01 -2.1566361093917949e-01
      7.4072283190405290e+00 -2.4476192463445255e-02
      3.1313448222704342e-02 -4.2323949024713076e-01
      -1.1992036823124248e-01 -3.5638029390236338e-02
      -1.4371559954098545e-01 -4.0751719164758987e-01
      -1.5184356257277862e-01 -1.4160431904856663e-01
      -7.1670318275191797e-02 -3.8303500193011197e-01
      -6.3084278648247102e-02 1.6625776655859262e-01
      6.2607144774261450e-02 1.9258654043961518e-01
      -3.5279419719865340e-02 -4.2971574593001099e-01
      -1.9912353704754848e-01 -1.2126421749784771e-01
      -8.6434909734597358e+00 1.3738137642959275e-01
      -1.8673182286226009e-01 -2.4203064098329227e-02
      -1.5112682599630650e-01 4.3801941033295483e-01
      4.9880477635273562e-02 -5.0325592648039807e-01
      -6.6688224579909541e-02 4.3929545265626957e-01
      1.9102794314321006e-01 -1.0966648017563349e-01
      -1.3668583690216357e-01 -1.3850618858720615e-01
      -9.9991836797883191e-02 1.4306772584434643e-01
      1.6872431606634719e-01 2.7639714842689406e-01
      -5.4369028471297973e-02 -1.1548347242739675e-01
      -3.2261509363061354e+00 3.3408004027061416e-01
      -2.9689296568729862e-01 -5.9225164163473148e-04
      1.9292978801253352e-01 2.1674414624097130e-01
      -1.4354795794739444e-01 6.7779460233905298e-01
      -3.2425349431831957e-01 -1.8153083814454912e-01
      3.7875955001498507e-01 -2.6054002494647432e-01
      -7.2212434634816053e-02 -8.3214688838036732e-02
      -2.6497877663696597e-02 -5.7918982969185323e-02
      1.4075663550971408e-02 -1.6887859524061205e-01
      2.4096132906553654e-02 8.0709490914508006e-02
      5.4021046341306596e+00 1.7682376481479700e-01
      5.4724358547911640e-02 -1.4354258990937116e-01
      -2.8441215676357323e-01 3.3342409317011179e-01
      -2.1696997319676531e-01 3.9104102306904970e-01
      -5.0112768734486487e-02 7.4382695010311098e-02
      4.9395866192768967e-01 -5.7873057829454830e-02
      -2.2226683190302944e-02 -5.5845749747671966e-02
      -1.9891684660086750e-01 -1.6033390007767653e-01
      -1.9045759807217796e-01 -1.8069055050363983e-01
      1.7220948598169206e-01 6.4504478536755207e-03
      -5.8204353985061799e+00 -1.4348625021002914e-01
      -1.1002125025030629e-01 -2.4350254096944002e-01
      -3.4581411946243729e-01 4.7929193186739860e-01
      -3.9051804123615780e-01 3.0062344499863858e-01
      2.7928714513295855e-01 -6.1331370907531942e-02
      1.1407361966810455e-01 -7.3948505290619138e-03
      1.9896833902208563e-01 1.9591524451796422e-01
      3.7898980421997415e-02 -8.0629908939519920e-02
      -1.0331575155445324e-01 -2.0473283635660466e-01
      5.4941062216041961e-02 4.8335647901028844e-02
      -1.1318004333517617e+01 -9.9385572996735852e-02
      -5.7157801535955266e-01 6.1910599430609432e-03
      -2.1573096788187049e-01 4.5632702770291141e-02
      -1.2746058072097086e-01 -1.2597087882299315e-01
      8.0999149885410834e-02 2.4198645282649103e-01
      7.1416964175069458e-02 -1.0580030943362935e-01
      1.2664890127854944e-01 1.5219288521335236e-01
      5.0583246448875976e-03 -1.1096746071194664e-01
      7.1113107227615768e-02 -1.9581894044565742e-01
      -2.7478454941215419e-01 -6.8680405128296956e-02
      -2.3715011513245283e+00 1.2129470968955797e-01
      -3.4017804822402226e-01 -8.7036359862835855e-03
      -3.1845333325649663e-02 9.9511562837201373e-01
      -2.7721944250242853e-01 5.9602127574811803e-01
      1.6252565851820802e-01 5.6112886908032490e-02
      2.5477454389287008e-01 -3.4812881561207526e-01
      -2.6830737338771776e-01 -2.6888696504000958e-01
      2.5184956168641309e-01 -6.1576448526759020e-01
      3.0946314664411173e-01 -8.0202012923184240e-02
      2.6562709476597657e-01 -3.2842553112663064e-01
      1.1643719216805939e+01 2.6858898299777273e-01
      9.0296376217029586e-02 -3.7803399563396895e-03
      1.3500430976863642e-01 1.2383245988645898e-01
      1.9302447310730478e-01 5.9876029298703254e-02
      3.1208748855687102e-01 -7.6720891272466424e-02
      -2.5567313626358595e-01 -3.7609291495810193e-01
      1.3897796443766019e-02 -2.5505302449549250e-01
      -2.2916814933856736e-01 -4.5297005090168513e-01
      1.9730305952173557e-01 -1.3907503921452161e-01
      5.1423531130301303e-01 -1.2740754540502458e-01
      6.0811386514276098e+00 4.8323963475160832e-02
      2.0771100322090946e-01 3.6063182864662180e-01
      1.0575269246009447e-01 -1.1079204346915343e-01
      1.9097318264208388e-01 1.7068421726467314e-01
      6.7028078991760054e-02 -2.3342450692141942e-01
      -2.9103471700376707e-02 5.6844518147236700e-01
      9.2405052837263385e-02 3.0860001861113451e-01
      2.9257886055847321e-01 -1.3468861366581539e-01
      -3.4490562266148672e-01 -2.5464330119016920e-01
      -1.7058953293252371e-01 3.4509192190742409e-02
      -1.6954733859717805e+01 -2.4012623579404127e-01
      -1.7195468596117611e-01 1.9285254264625984e-01
      -2.1061974500778505e-01 -1.7112932118941107e-01
      -3.2294771266718014e-01 -3.4164768214824348e-01
      6.1075074775762672e-01 4.1355228199497435e-01
      2.2468838121562906e-01 -6.1757801125642532e-02
      5.7326912239423067e-01 -2.5422613260868665e-01
      -4.6181648530552587e-02 7.5653042998055725e-02
      1.7040266623747255e-01 2.5672560530712481e-02
      -2.7808785872414971e-01 -2.9692240258987862e-01
      1.3708226641139916e+00 1.6793972746128505e-01
      -9.2929053939506151e-02 -1.7293200501466249e-01
      -6.2123049412722245e-02 -2.1949307974520632e-01
      -2.6728836345790313e-01 4.8934623774473707e-01
      -2.2362309800148872e-01 -3.5964020580458805e-01
      2.6325118520747176e-01 -8.0825959380444123e-02
      1.6196477986438151e-01 -1.4960553024447526e-01
      -2.8599248768773189e-01 -1.8371522845509830e-01
      3.7872857273885485e-01 -4.7000611113379870e-01
      9.9030130532814939e-02 -3.4350940661552415e-03
      1.4859361299660216e+01 1.6011463576795054e-01
      3.0390554833052175e-01 1.5895553626664449e-01
      2.1965333859375036e-01 4.4810948845790793e-01
      2.0360259717293311e-01 -9.8469074420179992e-02
      4.8244192771068345e-01 -3.5580842195671425e-01
      1.5412257909989027e-01 -7.8617440782656534e-01
      1.5471294024733875e-01 1.8171075683779767e-02
      -2.1688419980824425e-01 -2.8264823331175265e-01
      3.8463140006691487e-02 6.4777852273866180e-03
      2.6333639310835455e-01 -7.8777045500707132e-02
      9.1681612640882939e+00 -1.0348029966158574e-01
      -4.9286662485905873e-02 -8.4924027077423636e-02
      1.5116125500782121e-01 -3.2184445387917926e-01
      2.1525268442457265e-01 -1.8589309647332200e-01
      3.6190261062498275e-01 -1.0968331514536818e-01
      -2.0371547759423331e-01 2.5708591339236442e-01
      -8.0420870298881494e-02 5.8927337707588956e-02
      4.7062254593253007e-02 -5.1844577012672997e-02
      -2.8144260331740645e-01 3.2557439024892804e-01
      -1.9601981358548953e-01 7.5778399015669975e-02
      -6.1796859666490880e+00 -1.0965886760883803e-02
      -3.9446324121872861e-01 -1.4467152691738183e-01
      -4.8940761387404511e-02 -2.0585868168745605e-01
