<?xml version="1.0"?>
<opencv_storage>
<FindShape type_id="opencv-ml-ann-mlp">
  <layer_sizes type_id="opencv-matrix">
    <rows>1</rows>
    <cols>3</cols>
    <dt>i</dt>
    <data>
      900 100 4</data></layer_sizes>
  <activation_function>SIGMOID_SYM</activation_function>
  <f_param1>5.9999999999999998e-01</f_param1>
  <f_param2>1.</f_param2>
  <min_val>-9.4999999999999996e-01</min_val>
  <max_val>9.4999999999999996e-01</max_val>
  <min_val1>-9.7999999999999998e-01</min_val1>
  <max_val1>9.7999999999999998e-01</max_val1>
  <training_params>
    <train_method>BACKPROP</train_method>
    <dw_scale>1.0000000000000001e-01</dw_scale>
    <moment_scale>1.0000000000000001e-01</moment_scale>
    <term_criteria><epsilon>9.9999999747524271e-07</epsilon>
      <iterations>3850</iterations></term_criteria></training_params>
  <input_scale>
    1.3006238171353798e+01 -1.1712577430329909e+00
    1.2894906339237238e+01 -1.3469179202288226e+00
    1.0296365965495795e+01 -1.3074516872899804e+00
    1.4341370711022302e+01 -1.2150985205183209e+00
    1.0726026202501043e+01 -1.1176423655405656e+00
    1.5395593196574957e+01 -8.6478948419453716e-01
    1.5880742064295086e+01 -7.6574819930581339e-01
    1.7147829766228117e+01 -7.9683562311564171e-01
    1.3506039125842060e+01 -1.0103638673963244e+00
    1.1541758809483063e+01 -1.6795362295015213e+00
    8.3855589658294338e+00 -1.6630297078316711e+00
    7.8661998151627390e+00 -1.6120931457920795e+00
    1.1837938639383857e+01 -1.4996987074698995e+00
    1.0405103074775145e+01 -1.2913481107702114e+00
    1.2522600253306244e+01 -8.9747890209716452e-01
    1.2603024303804025e+01 -8.1222888004621252e-01
    1.2739227710188571e+01 -8.6933500534663666e-01
    1.1350643810598664e+01 -1.1706186465883255e+00
    1.0938224661175939e+01 -1.4902726100400359e+00
    9.2076733322639015e+00 -1.7314381374118879e+00
    8.0143085235817395e+00 -1.7500831564322115e+00
    1.0859213954472954e+01 -1.8069150368254063e+00
    9.9812051574656238e+00 -1.4313306339573337e+00
    1.2751702648740459e+01 -9.5915604045926683e-01
    1.4195436623448284e+01 -7.9871474989361257e-01
    1.4573737248270714e+01 -7.9517831457767330e-01
    1.2303331633640957e+01 -1.1689544553963149e+00
    8.4015069155787465e+00 -1.6550731017935294e+00
    8.5528880905422966e+00 -2.2767787228212204e+00
    8.5665314363194387e+00 -2.3028921445805492e+00
    1.0105140258796382e+01 -2.1546759356372243e+00
    8.7467130519774585e+00 -1.4004307518063464e+00
    1.1122437845258291e+01 -9.4586857987216122e-01
    1.1256444571788700e+01 -8.1542247358471054e-01
    1.1358620232063013e+01 -8.4159166601388458e-01
    8.2177350101751969e+00 -1.0824782636001322e+00
    1.2324479535103789e+01 -1.6616976417673965e+00
    9.4374986985894065e+00 -1.4280858223235964e+00
    9.1328481964569654e+00 -1.3607603769196790e+00
    1.2976177819586516e+01 -1.2848426069414338e+00
    1.1788961068776057e+01 -1.1411992731379899e+00
    1.5801515656502444e+01 -8.3706717965595978e-01
    1.4174188760437668e+01 -7.4762806900022893e-01
    1.4412648472540411e+01 -8.0059590880094356e-01
    1.3572221841854246e+01 -1.2571959193351163e+00
    1.1540859502004926e+01 -2.2199143074345780e+00
    9.7824092386180492e+00 -1.5365009079773624e+00
    9.8865148760672454e+00 -1.3864872552894638e+00
    1.2786580380454607e+01 -1.3829877385161036e+00
    1.1217532572345979e+01 -1.3385096180027671e+00
    1.4322434391890079e+01 -9.2816701993359418e-01
    1.2742364280978508e+01 -8.3914030586134702e-01
    1.2682758708268983e+01 -9.2006131980161632e-01
    1.2652832033121266e+01 -1.8155170322717002e+00
    1.0983206261471675e+01 -1.9633738666988676e+00
    9.4703123698929250e+00 -1.9981827386611599e+00
    9.3165646097314490e+00 -1.9643951608366916e+00
    1.1521533673789014e+01 -1.6994821273324243e+00
    1.0144226584835906e+01 -1.3120903930621084e+00
    1.1881651935697692e+01 -8.9586147488808454e-01
    1.0842093078919579e+01 -7.9409029998088387e-01
    1.0882720648798163e+01 -7.9310488378774902e-01
    1.0962299938048709e+01 -1.2357632635528555e+00
    1.1033153635567066e+01 -2.5516706820580501e+00
    8.9833352481691300e+00 -1.8505973407473659e+00
    8.6061330845874746e+00 -1.7273692221243557e+00
    9.6394314619833370e+00 -1.6492014197452252e+00
    9.2610967147916448e+00 -1.6011049611628521e+00
    1.0191839839082901e+01 -1.1494618591028287e+00
    9.7582134156081874e+00 -1.0733422783109134e+00
    9.9293878187570765e+00 -1.0780247998693870e+00
    1.0509922120130355e+01 -1.8476067916540515e+00
    1.1212781349466500e+01 -2.0141310054269552e+00
    1.1995260677317784e+01 -1.3259043067592475e+00
    1.2887261732110263e+01 -1.1506357016933975e+00
    1.5286560304895337e+01 -1.1359775621706947e+00
    1.2260735137033132e+01 -1.2416005698221702e+00
    1.7784960453345789e+01 -9.3312651021597115e-01
    1.4877037654330593e+01 -8.4167650885913348e-01
    1.4306699078944925e+01 -9.9422629475112778e-01
    1.1641961163099591e+01 -1.8394091008691336e+00
    1.1818387002682780e+01 -2.3611081458956407e+00
    1.1307169813146004e+01 -1.1695825405576596e+00
    1.1600712078728188e+01 -9.9370860588517806e-01
    1.3821924630277325e+01 -1.0871967148676212e+00
    1.0742563299816389e+01 -1.3757518321109656e+00
    1.2769541784953381e+01 -1.1424435692520840e+00
    1.1487478115672991e+01 -1.1419862465357682e+00
    1.0810151762896695e+01 -1.3292651189921891e+00
    1.1242602343330917e+01 -2.2153881683957897e+00
    1.2312565401667943e+01 -2.7002714409053969e+00
    9.8028434006793255e+00 -1.5316886705951700e+00
    9.6383249738474515e+00 -1.3621324809743627e+00
    1.1561136112489782e+01 -1.4591932092823494e+00
    9.8853010009061393e+00 -1.4720032375725798e+00
    1.1439531550712065e+01 -1.0998469611548745e+00
    1.0435734044340366e+01 -1.0671398251259063e+00
    1.0340513459933666e+01 -1.1303913251602511e+00
    1.1407202599907155e+01 -2.1973861216653590e+00
    1.2625443652808780e+01 -2.8617818279177034e+00
    9.4103619325387573e+00 -1.3986165274332878e+00
    9.1073345852243968e+00 -1.2198520038382232e+00
    9.7514602433708397e+00 -1.2661414757004783e+00
    9.7087972730035919e+00 -1.6148455857285011e+00
    1.0751618692572558e+01 -1.5105447080697549e+00
    9.5487783600135803e+00 -1.4211659080678518e+00
    9.6019694448635757e+00 -1.5652850978061204e+00
    1.2198244009824061e+01 -2.7685371198774873e+00
    1.4115493776209679e+01 -1.7415951605944695e+00
    1.3477359754270587e+01 -9.4530475846154483e-01
    1.3027558352227357e+01 -8.4361898147305381e-01
    1.5468384403410750e+01 -9.5726417781839424e-01
    1.1834982858832877e+01 -1.2656121365259845e+00
    1.4536802136846944e+01 -1.2315909140324155e+00
    1.1054571529812792e+01 -1.2154019611028830e+00
    1.0323762669710993e+01 -1.2929525442044458e+00
    1.1203208644960673e+01 -1.7641547491428262e+00
    1.1484673180811292e+01 -1.4083224886683681e+00
    1.1197797057687767e+01 -9.3919518280622982e-01
    1.1014245706793110e+01 -8.8116980463442562e-01
    1.1807405737663135e+01 -9.9283116797493898e-01
    1.0573077874616420e+01 -1.3919106249438367e+00
    1.1436602561092823e+01 -1.3371224569321003e+00
    8.7250563305766651e+00 -1.4132547727619353e+00
    8.9258073277741818e+00 -1.4769613736744798e+00
    1.1709655961660673e+01 -1.8298107381299269e+00
    1.1474344891943060e+01 -1.7434220836704015e+00
    1.0455278672038064e+01 -1.0529978286849053e+00
    9.7863515301688775e+00 -9.8565977785042735e-01
    1.0468054712839573e+01 -1.0934647754929099e+00
    9.8186839261541046e+00 -1.4752233311915393e+00
    1.0153403239689187e+01 -1.4325813708035973e+00
    8.3218897295294720e+00 -1.4601737424554067e+00
    8.5838638005256183e+00 -1.5186250818477496e+00
    1.0640642229619715e+01 -1.9828556654737344e+00
    1.0421336772425278e+01 -1.4094609021028375e+00
    1.0147847430860699e+01 -9.4337908005799587e-01
    9.8721213489875748e+00 -9.2731826145318952e-01
    1.0169882394389978e+01 -1.0613353351784742e+00
    1.0103810456238639e+01 -1.5870105943556085e+00
    1.0313360567925018e+01 -1.8407032358918309e+00
    8.6668336317788395e+00 -1.8986626180648467e+00
    8.8380755976296168e+00 -1.9582799451696900e+00
    1.1356969059320816e+01 -2.1432508751137953e+00
    1.1420776299070274e+01 -1.1943356770942097e+00
    1.2636470829261039e+01 -9.3231800084794325e-01
    1.2489037595675589e+01 -9.0817858959347120e-01
    1.2805528469405104e+01 -1.0407024054894745e+00
    1.0856387400184845e+01 -1.4306077537363322e+00
    1.3874528367824542e+01 -1.4810344286695321e+00
    8.6507496736113030e+00 -1.4131859202195312e+00
    9.6969396691902823e+00 -1.4958095064711519e+00
    1.2912005716170711e+01 -1.5885356340640955e+00
    1.1419011756860128e+01 -1.3649957234905050e+00
    1.3594243705293666e+01 -9.6451540467070906e-01
    1.3223695761069088e+01 -9.6801113323317156e-01
    1.2256653560619187e+01 -1.1283726617762384e+00
    9.8723391442482473e+00 -1.5162613922450234e+00
    1.2825477072657518e+01 -1.4196982939593497e+00
    1.0325323851022118e+01 -1.3495365123779148e+00
    1.1757153215134100e+01 -1.3379939214366383e+00
    1.2029186946107826e+01 -1.5227931729183071e+00
    1.0357181532733646e+01 -1.2188363785913148e+00
    1.2027958640513045e+01 -9.2481132683026857e-01
    1.1835270609726694e+01 -9.0749097025294878e-01
    1.1690196084540885e+01 -1.0740450169960756e+00
    9.8620835218099749e+00 -1.5948745224989820e+00
    1.0244772082180313e+01 -1.9718708021012423e+00
    8.4566480716316974e+00 -1.9266441119599118e+00
    8.6166340766512324e+00 -1.9319870873991669e+00
    1.0813845371228574e+01 -1.7687110784707178e+00
    1.0773350118863034e+01 -1.5437463472755706e+00
    1.1908049011839791e+01 -9.7307107950466742e-01
    1.1761140214756285e+01 -1.0054647258836236e+00
    1.0908304134076529e+01 -1.2440815830768313e+00
    1.0193673653613034e+01 -1.9603011488531252e+00
    1.0802537363638836e+01 -2.1117690803938869e+00
    8.5119174576706538e+00 -1.7520290949338206e+00
    9.1719559357405629e+00 -1.6877645950680487e+00
    1.0969680802082300e+01 -1.8460596742295201e+00
    1.2683735002620857e+01 -1.3516084741743715e+00
    1.0440782757568412e+01 -1.4485473401282309e+00
    9.1294296612209731e+00 -1.5045842537167593e+00
    1.1567876496484358e+01 -1.6616688389954146e+00
    9.3264762226857716e+00 -1.3763445704184774e+00
    1.5327620696873479e+01 -8.9212919368548471e-01
    1.7811552545288663e+01 -6.9789207684924237e-01
    2.0261884350176267e+01 -7.1249400012183084e-01
    1.5365327001105150e+01 -1.0538966665214742e+00
    1.1135659217161352e+01 -1.6228225481673326e+00
    9.8963760695211622e+00 -2.0797208967796101e+00
    9.7942803153801030e+00 -2.1688996944219987e+00
    1.1727520969969044e+01 -2.0741737397808984e+00
    8.8910948980551918e+00 -1.4314404591968697e+00
    1.3081174455162055e+01 -8.1364084516106328e-01
    1.3575914478009926e+01 -6.7823089994403551e-01
    1.3183271087948395e+01 -6.8536636079148616e-01
    1.2134234127266929e+01 -1.0682938076216615e+00
    1.0359172210960779e+01 -1.4380107026847113e+00
    1.0219599731906207e+01 -1.5519396225168374e+00
    9.1966296232110025e+00 -1.6271108528813769e+00
    1.1437592853231914e+01 -2.1572140780233249e+00
    1.0158962050458632e+01 -2.2514992498290565e+00
    1.2365281266099421e+01 -1.0651092978490235e+00
    1.4230802318585942e+01 -7.9113029073708652e-01
    1.5918128653083688e+01 -7.5579065220348585e-01
    1.2357114450848792e+01 -1.1644523557434101e+00
    9.0824784420010296e+00 -1.4583788295988340e+00
    9.0139860563172896e+00 -1.7259568174282023e+00
    8.7538309589485088e+00 -1.7849606616980904e+00
    1.0942877668950304e+01 -2.3369448761402367e+00
    1.0671039803628476e+01 -2.5329051508417333e+00
    1.1785795882723795e+01 -1.0184923909744219e+00
    1.2595364376204431e+01 -7.4102132635737694e-01
    1.3454758636328943e+01 -7.4563388250858020e-01
    1.0251195422365527e+01 -1.0999785866067449e+00
    1.3822666435872824e+01 -1.6822978671666207e+00
    9.9955420704844435e+00 -1.6888268180732731e+00
    9.3858198553022572e+00 -1.7042182596723918e+00
    1.3544145943410447e+01 -1.6163508119348642e+00
    1.1000358655095454e+01 -1.4131987111377959e+00
    1.3969446034168167e+01 -9.4786578358754825e-01
    1.1328874883483358e+01 -7.9489772533836456e-01
    1.1716525851660144e+01 -7.7981908494446095e-01
    1.2265516595792201e+01 -1.0621043321099493e+00
    1.2141997153040341e+01 -1.9070068537641509e+00
    9.7350293829468413e+00 -1.4883366704925622e+00
    9.1132883383439367e+00 -1.4482797533757059e+00
    1.1067618769630169e+01 -1.4926153815977929e+00
    1.0193154899791953e+01 -1.6268016083443753e+00
    1.0527039763579516e+01 -1.2172593748534524e+00
    8.8432537128533326e+00 -1.1181721403840568e+00
    9.4367592575713548e+00 -1.1229307889676701e+00
    1.1088110732797185e+01 -1.4310747762406635e+00
    1.1145888758663613e+01 -1.3833423308903161e+00
    9.6471469847111422e+00 -1.3985654614346859e+00
    8.9523699966479917e+00 -1.4567175160759629e+00
    1.1135822248532147e+01 -1.7026585734821762e+00
    1.1082095204156223e+01 -2.1380048287630751e+00
    1.3768496444572778e+01 -1.2356564271864026e+00
    1.0543060639759796e+01 -9.0383079553392820e-01
    1.1371975601916519e+01 -8.6895026738491010e-01
    1.2920960908425709e+01 -1.1862758805144515e+00
    1.0783753363487120e+01 -1.5731656366350402e+00
    9.3004591883780137e+00 -1.2949476051246855e+00
    8.6986216869865878e+00 -1.3190271355641736e+00
    9.4986756158217815e+00 -1.4599933285208102e+00
    1.0401479529130684e+01 -1.9713955445807925e+00
    1.0615491539215949e+01 -1.5519618423997779e+00
    9.0458267595489321e+00 -1.3827316527931584e+00
    9.3040967004167943e+00 -1.3705809707693759e+00
    1.0628413241269511e+01 -1.5948662717569171e+00
    1.3076881138656711e+01 -1.7750129608300553e+00
    1.1203127353427993e+01 -1.2479719311712152e+00
    1.0465971863003096e+01 -1.1899583823826185e+00
    1.3164651070866263e+01 -1.2697069868776791e+00
    1.1226570194320933e+01 -1.4016317559318328e+00
    1.2738024045992075e+01 -1.1774746819412059e+00
    9.4324989282833354e+00 -1.0962506171812934e+00
    1.0806023690562089e+01 -1.1780866750133803e+00
    1.2475209744523754e+01 -1.5740266989109799e+00
    1.1983399604199805e+01 -1.9139663314491933e+00
    1.0420456530050460e+01 -1.2684848868023764e+00
    9.6238355335870800e+00 -1.1901217575597391e+00
    1.1365826529369345e+01 -1.2505225938697073e+00
    1.0558584161784415e+01 -1.5135873094729944e+00
    1.1842138734075876e+01 -1.3475491807860298e+00
    1.0150915195752217e+01 -1.3998891683920829e+00
    1.0661119856081985e+01 -1.4620508124937661e+00
    1.1595648809425622e+01 -1.9213172343294169e+00
    1.1774027417845254e+01 -1.5873573727843866e+00
    1.0562754569617757e+01 -1.2536248480838124e+00
    9.6307601030439365e+00 -1.2688938413001312e+00
    1.1214869014761533e+01 -1.3591732871016409e+00
    1.0791426264837019e+01 -1.6144166690720463e+00
    1.1660216723857980e+01 -1.4745034577393965e+00
    9.1195492412943473e+00 -1.4012128636412688e+00
    9.4484752442892486e+00 -1.4312390470358400e+00
    1.1772042674945551e+01 -1.7502431110474521e+00
    1.1177418094510561e+01 -1.8673712974204026e+00
    9.7322546957405773e+00 -1.3546905383729777e+00
    9.3242324134450012e+00 -1.3208141530585105e+00
    1.0331466556850675e+01 -1.4070084019259723e+00
    1.0207193833194866e+01 -1.6429928351683569e+00
    1.0890355148303888e+01 -1.5371398418451243e+00
    9.5609108382064818e+00 -1.7186376014212994e+00
    9.8839660873873729e+00 -1.7547732962494176e+00
    1.1633879231411411e+01 -2.0764085318729140e+00
    1.2719179562245836e+01 -1.4426495038694598e+00
    1.2083066843770876e+01 -1.0440419292291425e+00
    1.0390701243718100e+01 -1.0093293398802701e+00
    1.2300900311104623e+01 -1.1395229552326243e+00
    1.0811875462454269e+01 -1.4593817554026238e+00
    1.2948237894724011e+01 -1.3984137641296419e+00
    9.4069314243137114e+00 -1.4092538776707482e+00
    1.0733337909850061e+01 -1.4588328688004362e+00
    1.2805046404098574e+01 -1.6601952808500742e+00
    1.1333647731026181e+01 -1.2389697326053508e+00
    1.2366553367326581e+01 -8.8690963889190899e-01
    1.1461401979279108e+01 -8.9834661857395237e-01
    1.3269116605317599e+01 -1.1028929387709576e+00
    1.0806777657306393e+01 -1.6698628630345083e+00
    1.0658454748651353e+01 -1.6242692483755521e+00
    8.8147855547229561e+00 -1.7198479071918724e+00
    9.1452251968525129e+00 -1.7820186760734473e+00
    1.1974926783611579e+01 -1.7763868044956019e+00
    1.0775475307247573e+01 -1.5004225034809460e+00
    1.0477261212712998e+01 -1.1999004332980201e+00
    9.7326409305060828e+00 -1.2034739511242776e+00
    1.1865346909829658e+01 -1.3215166926777795e+00
    1.0128245496223178e+01 -1.5797980808105516e+00
    1.1663592172531382e+01 -1.3706971881387826e+00
    1.0003511525332216e+01 -1.5566846684143028e+00
    1.0801326208526223e+01 -1.5469481011122830e+00
    1.1036354910062000e+01 -1.5861373845483784e+00
    1.0222024522488487e+01 -1.4033097044609000e+00
    1.1159466822276050e+01 -1.0717820150833450e+00
    1.0756323659878552e+01 -1.1417792902552635e+00
    1.2230150437646175e+01 -1.3545926250811293e+00
    1.1918649856937954e+01 -2.4761168745404247e+00
    1.0487850232293114e+01 -1.8611704888500036e+00
    9.4976917108951486e+00 -1.8543656036954126e+00
    1.0142234202146032e+01 -1.8772982822260011e+00
    1.0297610496653407e+01 -1.7457605344948814e+00
    1.2763684009134176e+01 -1.0506420665862983e+00
    1.4874407343713077e+01 -7.4186759379130862e-01
    1.4813741581468859e+01 -7.3725646424993208e-01
    1.4937376287800904e+01 -9.2621333949176909e-01
    9.1433039693221296e+00 -1.4891523546715297e+00
    1.1843727692960298e+01 -1.8518156757410638e+00
    9.4445856015658300e+00 -1.7887400968110323e+00
    1.0183570194811837e+01 -1.7987713638114187e+00
    1.1919928872125448e+01 -1.4617240580514352e+00
    1.2190868192533133e+01 -1.2675660880317872e+00
    1.5540478827651915e+01 -8.4323502234028025e-01
    1.4453172291469437e+01 -8.5376231936297997e-01
    1.2853487981796548e+01 -1.0833948103134838e+00
    9.3422532595798078e+00 -1.7917543468185275e+00
    1.1602349865187549e+01 -1.8868854749292905e+00
    9.6009423521077739e+00 -1.4966299205187008e+00
    1.0541729937643137e+01 -1.4187093283202046e+00
    1.1447335071715662e+01 -1.4890604855113176e+00
    1.0529110931930754e+01 -1.1291932221060896e+00
    1.2448218283026975e+01 -8.1141642010728066e-01
    1.2305409894848701e+01 -8.3246956819129003e-01
    1.2353850980558962e+01 -1.1284756333585544e+00
    1.0998543213480881e+01 -2.5928625162992711e+00
    1.0940138660365431e+01 -2.0493633285442145e+00
    9.5733411931981216e+00 -1.7061414428672415e+00
    1.0383178786272147e+01 -1.6896536387388066e+00
    9.9145835848920321e+00 -1.4602776206491501e+00
    1.1008165297721176e+01 -1.4198292492352256e+00
    1.2830771260147477e+01 -9.2711012589885733e-01
    1.2043249827427980e+01 -9.6838569089543214e-01
    1.0864723234881053e+01 -1.3547701453905321e+00
    1.2090340617848247e+01 -3.0353782012490154e+00
    1.1235829665113716e+01 -2.2383534737793500e+00
    9.4514063992117556e+00 -1.5555894715619378e+00
    1.0319491254217123e+01 -1.4580704016955224e+00
    1.0606397492659594e+01 -1.6535706742867582e+00
    1.2255845332553401e+01 -1.2526223054600485e+00
    1.2286629726499415e+01 -1.2129384570875932e+00
    1.0744971856674413e+01 -1.3142891337132516e+00
    1.1759859877740855e+01 -1.8080793867746068e+00
    9.7410077815277152e+00 -2.3373831152690969e+00
    1.2921628890221722e+01 -1.3383483053083820e+00
    1.4384955606357218e+01 -9.1790696632588986e-01
    1.8342020073119993e+01 -9.0314175894730475e-01
    1.5034895134713338e+01 -1.1812942919093281e+00
    9.9613646809113021e+00 -1.1566678163593576e+00
    1.0642425535475164e+01 -1.2257135325611181e+00
    9.5520209034087138e+00 -1.2907111863731233e+00
    1.1116803142223942e+01 -1.8884472289041614e+00
    1.0718609242622573e+01 -2.8113395711021276e+00
    1.1833134629759927e+01 -1.3324903387711078e+00
    1.2270045795380547e+01 -9.0457306319523989e-01
    1.4156777815406816e+01 -8.0174781902569647e-01
    1.1321718328010181e+01 -1.0079881534178792e+00
    1.2258432605815425e+01 -1.2288299549443580e+00
    1.3832244766568229e+01 -9.3734422903949211e-01
    1.2160103836685547e+01 -1.0373300362114031e+00
    1.1601731966595418e+01 -1.4563634340100080e+00
    1.0228967887030890e+01 -2.6038071123978836e+00
    1.0841176425278784e+01 -1.9791507802354025e+00
    9.9441320925596486e+00 -1.3735170365275455e+00
    1.1403900473346447e+01 -1.2412885600158381e+00
    1.1194252167674694e+01 -1.3592120947922981e+00
    9.8701810627263136e+00 -1.0531939864787654e+00
    1.2245525756507348e+01 -8.6786476147478819e-01
    1.0928519557326307e+01 -9.6630623816462036e-01
    1.1294651904394073e+01 -1.4883224882794763e+00
    1.1580404102374812e+01 -3.1552957614205912e+00
    1.0845229272263744e+01 -2.1597858806166532e+00
    9.0791667009220198e+00 -1.4578096360615789e+00
    9.6938406820450975e+00 -1.3266289111694050e+00
    9.1540735724887927e+00 -1.2603608564205950e+00
    1.2731578737616912e+01 -1.0688412654413109e+00
    1.2648662058600555e+01 -1.0536242281724526e+00
    1.0993630417905857e+01 -1.1399422825082870e+00
    1.2337330208817768e+01 -1.5432999042052742e+00
    9.8297695609020490e+00 -2.0923744717986543e+00
    1.3247168893373541e+01 -1.3416536042446114e+00
    1.0612205627032665e+01 -9.8527948170138968e-01
    1.3338122591753089e+01 -8.9857688950456738e-01
    1.4257139208514515e+01 -1.0249635228859724e+00
    1.1646191054364378e+01 -1.4093162992337747e+00
    1.1432898691767917e+01 -1.2078963326805796e+00
    1.0120334231399760e+01 -1.2444111358372070e+00
    1.1044957033091427e+01 -1.4631625674758724e+00
    1.0467933075511436e+01 -1.9110652214328692e+00
    1.0974718153402216e+01 -1.4724899204212814e+00
    9.2123769866753147e+00 -1.3552056196591025e+00
    9.3727523264201018e+00 -1.2932768078554677e+00
    1.1540383998909002e+01 -1.5187200212510281e+00
    1.1737711802305878e+01 -1.1209527466715656e+00
    1.2650612891472640e+01 -9.7702557378964605e-01
    1.1151355685705116e+01 -1.0740338507685214e+00
    1.1651415361318477e+01 -1.4242233032170268e+00
    1.0435193543672046e+01 -2.4006155288691633e+00
    1.1457157839218096e+01 -1.7871145116764990e+00
    9.8507432962018662e+00 -1.4221835596266019e+00
    1.1003943602342121e+01 -1.2512502213543704e+00
    1.1415946499982665e+01 -1.2584150623927877e+00
    9.4835367299276410e+00 -1.5197700813656088e+00
    9.2401470565257675e+00 -1.2694592440013082e+00
    9.1069255044313486e+00 -1.3578215355525252e+00
    1.0014037701699737e+01 -1.5668590479489091e+00
    1.0763640753266694e+01 -2.2114966949743193e+00
    1.0822552430116286e+01 -1.7813630435759555e+00
    9.2453988740990916e+00 -1.6418851179339111e+00
    9.5969049386587457e+00 -1.5423406718734931e+00
    1.0913158448851547e+01 -1.7414805970883898e+00
    1.3767384001415667e+01 -1.4869850264249715e+00
    1.2902396606483476e+01 -1.1586834854261705e+00
    1.1449837504066524e+01 -1.1880177340095699e+00
    1.3038584881625027e+01 -1.2702092946353469e+00
    1.1525119359715761e+01 -1.3658191805143749e+00
    1.3969901976958610e+01 -1.3460741108883150e+00
    9.8041231275361689e+00 -1.2778409730127493e+00
    1.1071140304011722e+01 -1.3567124828977819e+00
    1.3853518981551895e+01 -1.6353825004604767e+00
    1.1342827154607324e+01 -1.7008735934345969e+00
    1.0726207725462073e+01 -1.3619222482577529e+00
    1.0255497298808383e+01 -1.3584140662438204e+00
    1.2045107644052196e+01 -1.3796806142505431e+00
    1.0513864554120085e+01 -1.4332219633329943e+00
    1.1845720747380611e+01 -1.4139185353036248e+00
    9.4584577599894164e+00 -1.5341582558416258e+00
    9.9353624139558079e+00 -1.6013870402185999e+00
    1.1375314605745595e+01 -1.8549105044451457e+00
    1.1527495245345170e+01 -1.7234230572186384e+00
    1.0696549872820089e+01 -1.2954640183678667e+00
    1.0413006486572174e+01 -1.3075098572127843e+00
    1.1837250101910522e+01 -1.4408253602118493e+00
    1.0716704430876842e+01 -1.5582626000568298e+00
    1.1905059242277579e+01 -1.4166085820310048e+00
    9.4360801698208938e+00 -1.3648419933638747e+00
    1.0237205916293330e+01 -1.4188551113176160e+00
    1.2205410195354389e+01 -1.7394385452531393e+00
    1.0689288276780468e+01 -1.9435789357247817e+00
    9.7006986184027273e+00 -1.5470615456928718e+00
    9.6031897524183929e+00 -1.5063823711374242e+00
    1.0406703403639433e+01 -1.5509390799277107e+00
    1.0343128875434623e+01 -1.7272231380671430e+00
    1.1117141523178487e+01 -1.5701228963720395e+00
    9.3314568748539859e+00 -1.5753447755371353e+00
    9.7353374398016577e+00 -1.6504698083198437e+00
    1.1653290764286373e+01 -2.0667911799674936e+00
    1.1710844758334977e+01 -1.3762295179452739e+00
    1.2205022021365762e+01 -1.2315639443073509e+00
    1.0768128133062888e+01 -1.2256172269852832e+00
    1.2985296952389747e+01 -1.2337785254409335e+00
    9.9644082917833465e+00 -1.3853667907929232e+00
    1.4158836394539088e+01 -1.4143602254707617e+00
    1.0075253500861741e+01 -1.4646980604285686e+00
    1.1762150811321638e+01 -1.4858405109990991e+00
    1.1881257487013032e+01 -1.4702726797699950e+00
    1.1099455244445478e+01 -1.2522898937002451e+00
    1.2378943874011062e+01 -1.0932720406500327e+00
    1.0933382614385680e+01 -1.1504482355786583e+00
    1.2059104739195186e+01 -1.3767612567273528e+00
    1.1451405797297701e+01 -2.3371408266347382e+00
    1.2103413709310111e+01 -1.6525389695813339e+00
    1.1057984863456774e+01 -1.5359899718549554e+00
    1.2524916453667661e+01 -1.4303436657933253e+00
    1.1147451294406833e+01 -1.3724742182684304e+00
    1.1277282063641215e+01 -1.5284098949567921e+00
    1.1031522696211916e+01 -1.3872178925913108e+00
    1.0226933805940655e+01 -1.3721850848932760e+00
    1.1255634820501040e+01 -1.4749389711739302e+00
    9.5777481682822998e+00 -1.6797964908520078e+00
    1.0780490985602341e+01 -1.4948170208284057e+00
    9.0906425084110065e+00 -1.4998646885707683e+00
    9.4960477246510813e+00 -1.4563505967342338e+00
    1.0903422924194551e+01 -1.5265797767605105e+00
    1.0226408689768643e+01 -1.5896365401494683e+00
    1.0654464796055329e+01 -1.5678501118154207e+00
    1.0070548498761829e+01 -1.5959355042122874e+00
    1.1001557899447679e+01 -1.8752373445121113e+00
    1.1863757846078331e+01 -2.5991555147338747e+00
    1.1185328680073447e+01 -1.6063122083819352e+00
    9.4161254261546716e+00 -1.3794272610877245e+00
    9.8661537305709786e+00 -1.2567230817036725e+00
    1.0159838986289538e+01 -1.3836064148376603e+00
    1.2003208391870187e+01 -1.0782808753978217e+00
    1.3884429746039086e+01 -8.9846162294311105e-01
    1.2360775408225251e+01 -9.6412495897461825e-01
    1.2746277715841641e+01 -1.3665416858839168e+00
    1.0841282622724632e+01 -2.6526540568145642e+00
    1.2087323640513146e+01 -1.6655916812815834e+00
    1.1841197531881397e+01 -1.2579812110281632e+00
    1.4402678371148559e+01 -1.2298677992472906e+00
    1.1406025825116453e+01 -1.1472790374513990e+00
    1.1863401383635582e+01 -1.3217011058238546e+00
    1.4161498040410505e+01 -9.5132589302048221e-01
    1.2621129966015154e+01 -1.0153851169950729e+00
    1.1447405169738355e+01 -1.5667240751855389e+00
    1.1403528288686200e+01 -2.9804810211605886e+00
    1.1105216921224091e+01 -1.7691091886620165e+00
    1.1710888681193168e+01 -1.2153104245024093e+00
    1.2944478665335563e+01 -1.1247948021856824e+00
    1.1446111488221879e+01 -1.3676820285610300e+00
    9.6635035554121114e+00 -1.3697294916187874e+00
    1.0718573629009454e+01 -1.4850436789815913e+00
    9.8472241287281044e+00 -1.4927427341024451e+00
    1.0998896546051691e+01 -1.9641705258926214e+00
    1.1552212545298175e+01 -2.9991893763672559e+00
    1.2126034005202952e+01 -1.3830398595228084e+00
    1.2023210197431087e+01 -9.8541407370306633e-01
    1.2508448208364058e+01 -9.1747869326787024e-01
    1.0401999642541730e+01 -1.1163138729060604e+00
    1.0446144364240929e+01 -1.5846847533913104e+00
    1.0719732444267784e+01 -1.3448022206609407e+00
    9.9161159845235982e+00 -1.4261784944993963e+00
    1.0770589538935736e+01 -2.1530798266812292e+00
    1.2223544608541477e+01 -3.2941218455732253e+00
    1.0821671680495381e+01 -1.5394841557766468e+00
    1.2035459019987933e+01 -1.0224770302233102e+00
    1.2726406043253746e+01 -9.6918960045381841e-01
    1.0794893846718487e+01 -1.4025650431022139e+00
    1.4006447743117707e+01 -1.0794057740701506e+00
    1.8030998528283543e+01 -7.3879360128382787e-01
    1.6753584115520145e+01 -7.7063990153644757e-01
    1.5535660915292606e+01 -1.0519655034243807e+00
    1.0341074263099324e+01 -2.0251142795326960e+00
    1.1905437500463409e+01 -1.8815716236197209e+00
    9.4119168806861015e+00 -1.4174544245073584e+00
    1.1883284224715370e+01 -1.3715613936522519e+00
    1.1430640196286831e+01 -1.3178496295698305e+00
    1.1082098798198501e+01 -1.0344121097008514e+00
    1.4752398470544101e+01 -7.1398955116513840e-01
    1.4329839338494061e+01 -7.3080245914828690e-01
    1.4242276939092644e+01 -9.9355510055447183e-01
    1.0431373234159564e+01 -2.2492677420697369e+00
    1.0389387411482186e+01 -2.0241739955355986e+00
    8.4977703273380172e+00 -1.7200513685351082e+00
    9.2000406154886480e+00 -1.6161283729773530e+00
    9.5188553482618268e+00 -1.4025027286849465e+00
    1.2982606484416369e+01 -1.1227000745767017e+00
    1.6317831527239715e+01 -7.7515574932068865e-01
    1.5571131128012771e+01 -7.8197567500542708e-01
    1.3402073414840050e+01 -9.4801787339360277e-01
    9.5896625102515358e+00 -1.5504513673231610e+00
    1.0783521335318023e+01 -1.7761635818010775e+00
    8.7822799352691501e+00 -1.5931340322974903e+00
    9.6089985308345902e+00 -1.5013522857823667e+00
    1.1733063953348385e+01 -1.4763114346620767e+00
    1.0091519747112008e+01 -1.1379865660339146e+00
    1.1369619828689883e+01 -7.5534676390468858e-01
    1.1582012031125620e+01 -7.3969112059353170e-01
    1.1295142283152771e+01 -8.6971056751404285e-01
    9.2708316357192881e+00 -1.6056154022672038e+00
    1.1242364525661948e+01 -2.2858025127534738e+00
    9.3838414045184813e+00 -2.2283012270413032e+00
    9.5739991174145818e+00 -2.2282979088258243e+00
    1.0433871901656268e+01 -1.8386771988407797e+00
    1.4112220966465902e+01 -1.0806876061807975e+00
    1.4792447765036130e+01 -7.8264062059719464e-01
    1.3423159354481189e+01 -8.1663054149780645e-01
    1.6324874885396270e+01 -1.0783949131966251e+00
    1.1216580909319022e+01 -1.8306642968132816e+00
    1.2527876918305799e+01 -1.6074778555090274e+00
    8.9725103563437685e+00 -1.5130326922200414e+00
    1.0151553920542151e+01 -1.4142909105044250e+00
    1.1967524933726613e+01 -1.3181542856723081e+00
    1.1383513022758944e+01 -1.4161321965266438e+00
    1.0277685639528681e+01 -1.0742214873193376e+00
    9.9728705835317584e+00 -1.0980638060369992e+00
    1.1185492032398864e+01 -1.2567948198037391e+00
    1.0214931899701321e+01 -1.6860105208982139e+00
    1.0558656955311648e+01 -1.4700852574920202e+00
    9.0132024327847553e+00 -1.4475831482909198e+00
    9.8249891165421825e+00 -1.3907259638513079e+00
    1.1239221340269054e+01 -1.4998866542683795e+00
    1.0933967242337692e+01 -1.1423464726776631e+00
    1.0910244053812962e+01 -7.6376962086893097e-01
    1.1114960278565372e+01 -7.7311914481091393e-01
    1.2696575650912310e+01 -8.9530528493254224e-01
    1.0550369609518393e+01 -1.4191521675038832e+00
    1.1444151226077230e+01 -1.6207414971042986e+00
    8.8984549379230131e+00 -1.7625956363173234e+00
    9.2136100824840685e+00 -1.8136632175395093e+00
    1.1797148594672167e+01 -1.8088118991747943e+00
    1.0767949542351051e+01 -1.7162561759868995e+00
    9.3010276126216311e+00 -1.1030330899871559e+00
    9.1713748608895234e+00 -1.0831826069211810e+00
    1.0282038384205354e+01 -1.1708850323809885e+00
    1.0104469090227305e+01 -1.6699957052827652e+00
    1.0269696996654361e+01 -1.6431394882460268e+00
    8.8944724096502021e+00 -1.7030211827346364e+00
    9.1358028822220483e+00 -1.7359099669701910e+00
    1.1265515325552004e+01 -2.2331348803438402e+00
    1.2848121834559091e+01 -1.5911467227527623e+00
    1.1011938512644390e+01 -1.1416446389614432e+00
    1.1069750570379302e+01 -1.1370208916911082e+00
    1.2615210793742563e+01 -1.2477278047277367e+00
    1.1027013115456693e+01 -1.4264327128511913e+00
    1.2796698007618332e+01 -1.3364437061866115e+00
    1.0067784861565080e+01 -1.2767707984411050e+00
    1.1309615853862496e+01 -1.3383135293879982e+00
    1.2814813310094884e+01 -1.6129114716628032e+00
    1.1760026842410582e+01 -1.8236258368752483e+00
    1.0432622539607118e+01 -1.4253330769303969e+00
    1.0192326506357373e+01 -1.4004237814749072e+00
    1.1401807863926544e+01 -1.4920511755183650e+00
    1.0691840859339504e+01 -1.6786486271816596e+00
    1.1333370943059620e+01 -1.4497671211942136e+00
    9.4547032570174423e+00 -1.3976083913388757e+00
    9.9321352781954744e+00 -1.4231064305467265e+00
    1.1671769320410993e+01 -1.7818348333391321e+00
    1.1791788164435271e+01 -1.8941176817825431e+00
    1.0299412836615019e+01 -1.2323436027823680e+00
    1.0146962123816609e+01 -1.1443931363852253e+00
    1.2005775839433728e+01 -1.2037924247589420e+00
    1.0716835404729688e+01 -1.4359592833700676e+00
    1.2314493005425231e+01 -1.3992463664530730e+00
    1.0441665897045540e+01 -1.3851110451602893e+00
    1.0692970614871024e+01 -1.4841258029159570e+00
    1.1740080208974307e+01 -2.0570456070236873e+00
    1.2135015666059711e+01 -2.3613254879224983e+00
    1.0403392676682802e+01 -1.5803850024435286e+00
    1.0269738694562879e+01 -1.5091447855127484e+00
    1.1560736762331691e+01 -1.6013333089144750e+00
    1.0674249234445515e+01 -1.7642801439984992e+00
    1.0864204640676133e+01 -1.4913582112368751e+00
    9.6030992804564939e+00 -1.5172663785334648e+00
    1.0127197636726144e+01 -1.5882427531856409e+00
    1.1698699240859188e+01 -2.1908858898304762e+00
    1.1458502453132962e+01 -1.3138675666968038e+00
    1.1331689853977316e+01 -1.2723725344433801e+00
    1.0489438720577150e+01 -1.2836914977504856e+00
    1.1931878453424471e+01 -1.3032562271133565e+00
    1.0256544355632483e+01 -1.5072825006422825e+00
    1.3930152471756740e+01 -1.3672890536706057e+00
    1.0525824456716368e+01 -1.2383500839630366e+00
    1.1554039895914158e+01 -1.2116634891289211e+00
    1.2338791692276136e+01 -1.3330641989924907e+00
    1.0966039847631739e+01 -1.6369927763942549e+00
    1.0109448944639306e+01 -1.6755849437640638e+00
    9.2608396271180649e+00 -1.6463886054268950e+00
    1.1526074393369051e+01 -1.6876321715886000e+00
    1.0893592299817495e+01 -1.9635180693214138e+00
    1.3733790284912081e+01 -1.2983806231358366e+00
    1.0981352875662902e+01 -1.0672274349396795e+00
    1.1386571126285608e+01 -1.0303618006307309e+00
    1.0829481000976632e+01 -1.2574265151092414e+00
    1.2578096333837840e+01 -1.9676415132421912e+00
    9.9906792521367294e+00 -1.5742698804705439e+00
    9.1445972434140010e+00 -1.5137658295135188e+00
    1.1655590277512255e+01 -1.4989452736943987e+00
    1.0605521557335143e+01 -1.6526984710781647e+00
    1.2032879964520331e+01 -1.3206168339982007e+00
    1.0193582651439542e+01 -1.2350998220142435e+00
    1.0864387084944990e+01 -1.2309709811339988e+00
    1.1538906342375020e+01 -1.5676002259662716e+00
    1.2035655909734974e+01 -2.1352929834041090e+00
    9.5901212937038203e+00 -2.0572504334168271e+00
    9.3066937497680478e+00 -1.9754135621854276e+00
    1.0755906883651772e+01 -1.8265884261450842e+00
    1.0631245379831757e+01 -1.8034409815688841e+00
    1.1789128699657141e+01 -1.1588556418704981e+00
    1.0860750160240217e+01 -9.9266034577733109e-01
    1.1105419131520607e+01 -1.0095030407638741e+00
    1.0211461098946241e+01 -1.3453620532705279e+00
    1.0896860013969311e+01 -1.4685315757631510e+00
    1.0448245226702488e+01 -1.6414433801766470e+00
    9.2499646664206008e+00 -1.5932732310288751e+00
    1.0937206968651031e+01 -1.7745237661718987e+00
    1.0214334637659990e+01 -2.0333714586189995e+00
    1.4568837952402722e+01 -1.0279626340873618e+00
    1.5247030798037496e+01 -8.3228907377835093e-01
    1.5168546336858268e+01 -8.3315255109780351e-01
    1.2269170729017965e+01 -1.0972827560221567e+00
    1.1090290155247011e+01 -1.4790362762181923e+00
    1.0807124353643985e+01 -1.4068006756937714e+00
    9.4248132166631766e+00 -1.4537606070690556e+00
    1.1156641936604814e+01 -1.9735912070758415e+00
    1.1131035030470697e+01 -2.5247337088215320e+00
    1.2918898050103286e+01 -1.1727150950833836e+00
    1.4435533430293557e+01 -8.6949824231288475e-01
    1.5355586115346018e+01 -8.4828725859677934e-01
    1.2001339585170793e+01 -1.2291702511105669e+00
    1.1144025149592721e+01 -1.7174132306880052e+00
    1.0174177301851222e+01 -2.1129707640234736e+00
    9.8449556592423644e+00 -2.1028767893466607e+00
    1.1546988265332647e+01 -2.0918590473946961e+00
    9.2588597163749231e+00 -1.6011429465690270e+00
    1.2787363943077837e+01 -9.6545080544134576e-01
    1.3069347179019589e+01 -7.9462737069366995e-01
    1.2812567868782933e+01 -8.1296047050879461e-01
    1.0772570644494243e+01 -1.1216459029520724e+00
    1.1025571401115570e+01 -1.6805863148837641e+00
    9.7811034135946358e+00 -1.5953017627310373e+00
    9.4172040738902965e+00 -1.7154018211810995e+00
    1.1130227155624784e+01 -2.0926124809924072e+00
    9.8865219123263870e+00 -2.0177106881785871e+00
    1.1593560381196003e+01 -1.1356295017061564e+00
    1.3219748651771969e+01 -8.8413308182683614e-01
    1.3964953451272764e+01 -9.0154640551153853e-01
    1.1383587930039123e+01 -1.3387294521866178e+00
    1.3039054027924276e+01 -1.1720379506215068e+00
    1.6127047442498434e+01 -8.3644454582238892e-01
    1.5518373293807814e+01 -8.2517591966815562e-01
    1.4889062040426726e+01 -9.7104784717379455e-01
    1.0314729577924000e+01 -1.3031136957231415e+00
    1.2170045035104216e+01 -1.6228883668103087e+00
    8.2602773231923372e+00 -1.5114401379330660e+00
    1.0138719814702903e+01 -1.5454482741621101e+00
    1.2449174649778501e+01 -1.4601371503653180e+00
    8.2769571465000702e+00 -1.0919550585845228e+00
    1.2105503454904676e+01 -8.8963623950015613e-01
    1.2058852284442661e+01 -8.4936068795242325e-01
    1.2268731141998266e+01 -9.5066738690490926e-01
    8.8144394236730648e+00 -1.2941664248172944e+00
    1.0298896803203410e+01 -1.8867729924423873e+00
    8.2167815612258028e+00 -1.9732256896030029e+00
    8.5411640817936370e+00 -2.0209960680322987e+00
    8.5157826476985488e+00 -1.6016695986244049e+00
    1.1119138336563541e+01 -1.1721095471269436e+00
    1.3264987043111629e+01 -9.2834271796020684e-01
    1.3429956112870752e+01 -8.8594070945298653e-01
    1.2867022917125334e+01 -9.7128426046508265e-01
    9.9425251542286155e+00 -1.4061472464003826e+00
    1.2660392846126429e+01 -1.2794431553817374e+00
    9.9055499618137848e+00 -1.3507678137932122e+00
    1.1468835251998383e+01 -1.3946930822254526e+00
    1.1354371385179451e+01 -1.3157816228015125e+00
    1.0060510542146726e+01 -1.4150180825683731e+00
    1.1030862779964774e+01 -1.0363834847149398e+00
    1.1207417889770868e+01 -9.7237661624799465e-01
    1.1206111407672633e+01 -1.0394631631596523e+00
    9.9517614679401465e+00 -1.6871566719144409e+00
    1.0605242908101081e+01 -1.5741333155109316e+00
    8.2051651989509047e+00 -1.6669066654392262e+00
    8.5058612963175371e+00 -1.7160413808121635e+00
    1.0558078981398666e+01 -1.9183680968037906e+00
    1.1328922180845931e+01 -1.2541789891176622e+00
    1.1967726505870463e+01 -8.1224334762074957e-01
    1.2145190513733377e+01 -7.8900239222696134e-01
    1.3272051848103505e+01 -8.4996931261210151e-01
    1.1153775915890822e+01 -1.2107733793896636e+00
    1.2846743319772827e+01 -1.5704393094787819e+00
    9.5321778553162400e+00 -1.8094303331198898e+00
    9.7031488016360008e+00 -1.8371077531350946e+00
    1.1036374781177713e+01 -1.8723835106339810e+00
    1.0732067433681101e+01 -1.8815303531834480e+00
    1.0353482493015887e+01 -1.1037542375413079e+00
    1.0407857442297679e+01 -1.0631065264763850e+00
    1.1539935524352046e+01 -1.0747633774370300e+00
    9.5726759497434735e+00 -1.3498551187531191e+00
    1.0465990690214618e+01 -1.4913987277532248e+00
    9.3030293671456974e+00 -1.6519274129814134e+00
    9.3585046127727782e+00 -1.7609953601952317e+00
    1.0571314884540556e+01 -2.2769062816074332e+00
    1.1504835931275259e+01 -1.4418409568356034e+00
    1.2177086928079916e+01 -9.3874737002274133e-01
    1.2538244947004660e+01 -8.8494994084830325e-01
    1.3590402996531306e+01 -9.4065296337076021e-01
    1.0776911056946062e+01 -1.4403288664508183e+00
    1.1765611079544598e+01 -1.3295933533130277e+00
    9.6771170910686628e+00 -1.4272643663336642e+00
    9.7090822517601580e+00 -1.5035995131265674e+00
    1.1252645294303317e+01 -1.8623085371083867e+00
    1.1804822676359402e+01 -2.1534175525932109e+00
    1.1197349037251980e+01 -1.0998820347092617e+00
    1.1471845254540037e+01 -9.8954981354300187e-01
    1.2356902651347928e+01 -1.0272687459788195e+00
    1.0737383834404890e+01 -1.6516349020740924e+00
    1.1767709531094328e+01 -1.4191777344685799e+00
    1.0198839975330664e+01 -1.4928840921330364e+00
    9.9182055457442804e+00 -1.6957163675626274e+00
    1.1806277406069579e+01 -2.5708933308388886e+00
    1.1702364892799570e+01 -2.0864002328279656e+00
    1.1174321246666853e+01 -1.1741095267317914e+00
    1.1201191435619629e+01 -1.0432652150449906e+00
    1.2974614822582099e+01 -1.0471874641323651e+00
    1.0782841842331672e+01 -1.2075084818199739e+00
    1.3777324517764681e+01 -1.2650029037064090e+00
    1.1688880135404448e+01 -1.3109434769324395e+00
    1.1065688656514705e+01 -1.4704164355664975e+00
    1.1585852980641466e+01 -2.3000511230304417e+00
    1.2190597685611779e+01 -2.7059506659042571e+00
    1.0008335566404400e+01 -1.5067778487525807e+00
    1.0366498964234633e+01 -1.3701952082082802e+00
    1.2032440798682112e+01 -1.4328674904053500e+00
    9.8650943466980170e+00 -1.4451803801381384e+00
    1.0371402222604173e+01 -1.1701086460489085e+00
    1.0041678642480099e+01 -1.2270314048353110e+00
    1.0340508988398000e+01 -1.3355308822217036e+00
    1.1831896171221171e+01 -2.4963828534269248e+00
    1.0992415831888282e+01 -2.1022718684773705e+00
    1.2178833999203817e+01 -1.1632037049842530e+00
    1.3287232829943406e+01 -9.9636830536832521e-01
    1.4292003006319957e+01 -1.0094984400067757e+00
    1.0823767901007491e+01 -1.4115882506930624e+00
    1.3980803183553034e+01 -1.1260527768977482e+00
    1.2588492291274648e+01 -1.2041913920052330e+00
    1.1434635042317954e+01 -1.4061832299498469e+00
    1.1184913054297441e+01 -2.2725759617417394e+00
    1.1733684894938708e+01 -2.6348257377115774e+00
    9.9809040891443619e+00 -1.5113277638857681e+00
    1.0759622371468204e+01 -1.3201289249356785e+00
    1.1472719175498371e+01 -1.2747312833570867e+00
    1.0336206035459684e+01 -1.7270907185825723e+00
    1.1920018780233566e+01 -1.1157559677644748e+00
    1.1237954419856210e+01 -1.0720036480529087e+00
    1.0895229203624353e+01 -1.2470094945944676e+00
    1.2194690945630171e+01 -2.7415444176041910e+00
    1.1160770051777144e+01 -1.9454296711518764e+00
    9.3431729993123316e+00 -1.4409652339064560e+00
    9.1979915083232129e+00 -1.4067145894583661e+00
    1.1977301613823483e+01 -1.3687977732250840e+00
    1.0683991208332317e+01 -1.3637055029582010e+00
    1.2457588724218034e+01 -1.0603472973813943e+00
    1.1089772905836364e+01 -9.9244951628437816e-01
    1.1782781994635425e+01 -1.0162475962127187e+00
    1.1419671051170363e+01 -1.6014994831069276e+00
    1.1814016612000611e+01 -2.1225628053262020e+00
    9.4360639684990062e+00 -1.9203998881306543e+00
    9.2623979267076102e+00 -1.8840957763247799e+00
    1.1259974951462048e+01 -1.7116875446984969e+00
    1.0142901582821953e+01 -1.4198495403672695e+00
    1.1274468817189156e+01 -9.9539067216543309e-01
    1.1133332827278998e+01 -8.6053885193386059e-01
    1.1188904664974586e+01 -8.9074900771873322e-01
    1.0508237651645025e+01 -1.3342600385772607e+00
    1.0730037796826329e+01 -2.0780382052999502e+00
    9.5524730431550537e+00 -1.4257763597782180e+00
    9.9197408511294576e+00 -1.3235856706688292e+00
    1.2462553202984822e+01 -1.3101211131056294e+00
    1.0783496664320191e+01 -1.5413473972156602e+00
    1.3839742107752670e+01 -1.0356783505715821e+00
    1.2802956422110045e+01 -9.0416133168698576e-01
    1.2954941748320914e+01 -1.0049683823408113e+00
    1.2107308572483877e+01 -1.8744326623341290e+00
    1.1651387005088885e+01 -2.2215818311112274e+00
    9.1543717038061079e+00 -1.6242248337120904e+00
    8.9506955045745755e+00 -1.5450049063144220e+00
    1.0772178630701021e+01 -1.4890112050442057e+00
    1.0300400120598422e+01 -1.7540036906585510e+00
    1.0858208455905695e+01 -1.0903110673904011e+00
    1.1118586778959713e+01 -9.5554807948241438e-01
    1.1035248582447462e+01 -1.0180657349463045e+00
    1.0409642146499372e+01 -1.5652713699736291e+00
    1.1171181944945989e+01 -1.6601707771148220e+00
    8.8787179909774085e+00 -1.8110483940737172e+00
    8.7225901169889237e+00 -1.8353362631756185e+00
    1.0640450023768869e+01 -1.7156073011653532e+00
    1.0080579254806723e+01 -1.4273129160502809e+00
    1.3846281556285874e+01 -1.0356019513983272e+00
    1.3847432721605044e+01 -8.5211646558173071e-01
    1.3837412912060714e+01 -8.9381647139063558e-01
    1.1176264949845914e+01 -1.1736825109741453e+00
    1.1359392466966863e+01 -1.7066954786576063e+00
    9.8713332646607519e+00 -1.6100092127060779e+00
    8.7291040297002827e+00 -1.6418846230094968e+00
    1.1374676760325118e+01 -1.8689244667068159e+00
    1.0194868857865375e+01 -1.7485959126274806e+00
    1.2218230463488764e+01 -1.1624582246941195e+00
    1.3445264522419601e+01 -9.4418516568693878e-01
    1.3821479432482654e+01 -9.6579760755726152e-01
    1.1631461642153356e+01 -1.4221848190321229e+00
    1.1360099416575954e+01 -1.7902410584273294e+00
    9.0272600628884341e+00 -1.5852834943577914e+00
    8.4988755878787341e+00 -1.5281291909639845e+00
    1.1897177700396236e+01 -1.5201264146394575e+00
    1.0613597116282934e+01 -1.7995436515751588e+00
    1.1877830547961983e+01 -1.1402838946040492e+00
    1.2270853011898174e+01 -9.8180908194723027e-01
    1.2239558338545052e+01 -1.0355621401070894e+00
    1.0427880404434211e+01 -1.3363627327168230e+00
    1.0883653374541844e+01 -1.7190990325187387e+00
    1.0717490075942015e+01 -1.4744212366418812e+00
    1.0133128337299400e+01 -1.5085733024861514e+00
    1.1411638149957627e+01 -1.5124162452266925e+00
    1.0333901980965196e+01 -1.9192605551917583e+00
    1.1197426665401176e+01 -1.2024652925241388e+00
    1.1763846279785886e+01 -1.0224029710958760e+00
    1.1844673479858065e+01 -1.0568033981458169e+00
    1.0333912788334484e+01 -1.5094774383954481e+00</input_scale>
  <output_scale>
    5.2631578947368418e-01 4.9999999999999994e-01 5.2631578947368418e-01
    4.9999999999999994e-01 5.2631578947368418e-01 4.9999999999999994e-01
    5.2631578947368418e-01 4.9999999999999994e-01</output_scale>
  <inv_output_scale>
    1.8999999999999999e+00 -9.4999999999999996e-01
    1.8999999999999999e+00 -9.4999999999999996e-01
    1.8999999999999999e+00 -9.4999999999999996e-01
    1.8999999999999999e+00 -9.4999999999999996e-01</inv_output_scale>
  <weights>
    <_>
      -4.2833288618543153e-01 -2.5752412140148409e-02
      -2.3697083157677205e-02 1.1486011011530720e-01
      -1.1018537928049449e-01 7.7000707125645159e-03
      5.3844645576198655e-02 6.8804308271373836e-03
      1.0623034597836537e-02 7.5135955008836006e-02
      9.4700746604206798e-02 -6.2746561591879399e-02
      -8.3669262928094304e-02 -4.1642603005596697e-02
      -9.3104229396465121e-03 -9.0622607366398752e-02
      9.1910727297240619e-02 3.8456512077423670e-02
      -2.0104395107673634e-02 -1.8132743165295465e-02
      -6.4786209441290710e-02 -3.0281051214843296e-02
      1.2713630794589223e-01 -3.2095648415250255e-02
      3.5480282946752852e-02 -3.3190115197192546e-02
      -7.0614039492549019e-02 2.3671661591353945e-02
      -2.0249714329651936e-02 -3.2505564142387741e-02
      -2.3613127059375412e-02 2.8781369246648546e-03
      2.1451574467161089e-02 -4.8616796694025570e-02
      -3.0741221127440072e-03 6.9906982883456814e-02
      -1.0572066678361200e-02 -6.3331456126193833e-03
      6.4878210285093108e-02 -3.9304498704772664e-02
      2.0974449037059299e-02 6.0171148302179704e-03
      -4.6276488253748541e-02 4.0530764229094511e-02
      -2.0421991320773693e-02 -2.5883609172461877e-02
      6.1703699513756998e-03 5.5886708737551492e-02
      -6.3091026503370881e-02 1.0274099711490415e-02
      8.3168734636802646e-02 -3.9964614635638294e-02
      -2.6612334725935508e-02 -5.5770953652935953e-02
      -1.9807152575100757e-02 -1.2378163764204095e-03
      -7.4827014359291580e-02 3.2251781975685137e-02
      -1.5987460102411639e-03 -4.9464376404012356e-02
      4.6355256002747487e-02 -8.9892374397578884e-02
      -5.5160656167211601e-02 -4.5285287593324224e-02
      9.0216178848248983e-03 7.4672250554883718e-02
      3.9384171905933338e-02 -4.0209972188146634e-02
      -4.1764931328191673e-02 -5.8763729869688447e-03
      -1.5784708406001519e-02 5.7087801957871949e-02
      -4.4987830387450918e-02 7.7964079677854447e-04
      -2.3821814239606805e-03 4.6084223639602108e-02
      9.4068772705713666e-03 -5.1784321278933718e-02
      3.1714757913374581e-02 4.0012593846747270e-03
      -1.4645923413853972e-02 -9.5151718523556704e-04
      1.0419249929451414e-02 -5.2064813152549391e-02
      -8.0780552211162596e-03 -6.1180110482896906e-02
      2.1725119178132316e-02 -3.7485640345947945e-02
      -5.6451386425517593e-02 1.2194280228246287e-02
      2.3970902296730261e-02 -2.6022793241747746e-03
      1.9780233063513005e-02 -1.3981539862956799e-01
      1.0991295733578998e-02 -1.4761894457604823e-03
      2.0407469023370619e-02 -5.6852145126389919e-02
      -1.3236562017460233e-02 -7.5172430591766967e-02
      3.7191338990147099e-01 -1.8220496722955497e-02
      -1.6596460274730401e-01 2.4399286283969680e-02
      -1.5589402038657549e-01 -1.5817107693456116e-03
      9.0797938982542223e-02 3.1229937116132669e-02
      -9.7464891085824359e-02 1.8854806443903824e-01
      -1.0202334695455409e-01 -8.8207064006193218e-03
      -2.1832362654944881e-02 -8.2372168717416005e-04
      7.1676464709836227e-02 -1.7197176353798091e-01
      -1.1307286069642157e-01 -2.2472593438520733e-02
      1.2577401445868316e-02 -1.0372721645545381e-01
      1.1739186516883095e-01 1.3743927809978893e-02
      -3.2019192894676640e-02 -3.1492471448298668e-03
      1.4584733399593024e-02 5.9677759242803011e-02
      1.1657507716607837e-01 -3.1976799820711929e-02
      -4.1139115381978709e-02 6.8565904157819907e-02
      1.1919174133426921e-01 1.2449329254706260e-02
      -1.1862529654260216e-01 -7.2104982161250416e-03
      9.8674216466326417e-02 -8.2956074453707798e-02
      -6.3849273619750110e-02 -9.1964006959297691e-03
      -1.0831711405200584e-01 2.1574327467935250e-02
      7.7603271011039102e-02 9.0944781461944693e-02
      6.5269655757548645e-02 -6.3375111776023382e-02
      7.4280166034989700e-02 -4.5131697600765214e-02
      5.7819801473827932e-02 -5.3074685879986531e-02
      -2.5131355408838051e-02 -1.5982608919602606e-01
      8.2890432046810320e-02 1.7132371135282071e-01
      -1.3033691843668115e-02 1.5979619782885832e-01
      -2.0089554230673123e-01 8.2813606093952677e-02
      3.9047134574143228e-03 -5.1069191339134352e-02
      6.4088111062830175e-02 -1.0228942990295059e-01
      -3.9753901022645331e-02 1.4500902483294009e-01
      8.4374004655321258e-02 8.6652738159484349e-02
      3.1528476299139241e-02 -2.1325474770416344e-01
      -1.0714651690582845e-01 1.7344763094604195e-02
      1.9515198947486431e-01 5.2526097304909702e-02
      1.4408751644211631e-01 -1.6346809660173198e-02
      -3.7131207540708130e-02 4.9289911214764205e-02
      2.2976819518406393e-02 -1.2300236683776433e-01
      1.6660695720186677e-03 -7.1783211261835567e-02
      -1.3721531170813531e-01 4.7895876744139650e-02
      4.0195929854313778e-02 1.1988948218277434e-01
      -4.5674248638209458e-03 2.4839772337227176e-02
      6.7694767650671103e-02 2.3618921712692035e-02
      1.6315473098821218e-01 1.0301472959035705e-01
      6.9706574669959470e-02 6.7901077254742301e-02
      7.3160851477451758e-02 7.6412414232728723e-02
      -9.8462089379689158e-02 -1.5530197929958861e-01
      -4.2737084068800002e-02 2.9101917672620468e-02
      4.5640775581367317e-02 6.4433830305941726e-03
      8.2700549603636195e-02 -9.0904666394170230e-03
      2.2460653523760840e-01 -7.9958505242604491e-02
      -8.7436121744270442e-02 -1.6157276067261834e-03
      6.3737890723673446e-02 -9.5648916545564757e-03
      2.0752160778912711e-02 -5.9191966770359143e-02
      6.3797563948445019e-02 6.4069883312371914e-02
      -1.5123858278777780e-01 -3.3878326231858366e-02
      1.5594941994736347e-01 8.7866657131374006e-03
      2.9648313226010983e-02 3.7273990753463784e-02
      -1.0660343862659401e-01 -5.7261129052726401e-02
      2.1597029051659073e-02 4.3373950731915432e-02
      5.9044168033556568e-02 3.1994634612738292e-02
      -1.9324412387534043e-01 -1.6678873609266096e-02
      -2.8793248580462345e-02 3.7595610592039121e-02
      1.0986943703503818e-01 3.9484714736382057e-02
      -1.0899346125182856e-01 -3.2537220150578257e-02
      1.2350275017990313e-01 2.3605809002126232e-02
      -1.2762088926951803e-01 1.2323550176448671e-01
      -6.0418252442653753e-02 -1.2687898509874834e-01
      -1.3061148837384915e-02 3.4472327599693660e-02
      -1.3551248838704585e-01 2.6494472750870884e-02
      5.3977778349186892e-02 7.2496458665680913e-02
      2.8203191676005615e-02 -7.2584141971225175e-03
      1.5629441676073809e-02 2.3751013182630440e-02
      4.9444383515345275e-02 -6.0919411380451940e-02
      2.9208079738652609e-02 -5.7061011770037570e-02
      2.0771782812095130e-02 6.1849139375609798e-02
      4.1346741601513338e-02 5.7064276011729503e-02
      -3.7953918417835977e-02 8.2472967706041386e-02
      -9.2903910951762009e-02 -1.0776875107752189e-02
      2.7645162185175449e-02 -4.1293143015936624e-02
      -2.8026870337552797e-02 2.3502406314983801e-01
      1.1436786743742643e-01 4.5990008491182885e-02
      -4.2845622996286400e-02 -1.4051672670724455e-01
      -1.2057503761358891e-01 6.1987937237460169e-02
      9.0195508795906237e-02 -1.1659728490587478e-02
      6.1643611301593147e-02 -1.7410274368092331e-02
      1.3197176856365034e-01 5.1209041219672798e-02
      -6.1376564447494765e-02 -8.3842919578225261e-02
      7.6549723465278198e-03 1.6307611756206760e-02
      -1.1613035520527561e-01 -6.2069053061694454e-02
      1.4782493211000036e-03 7.2588591066142627e-02
      -1.9315913860645424e-02 3.7929357705184581e-02
      8.7461828557773819e-02 9.0673458079483849e-02
      -5.5556842671478620e-03 4.7416301751477923e-02
      5.3441714620991246e-02 8.3835460851834111e-03
      -9.7687190831101237e-02 1.9963453594523166e-02
      -1.0484795903200225e-01 -3.3380044596528068e-02
      -6.1483262748216604e-02 4.4903255978383030e-02
      6.3023824144089316e-02 4.4866484598534824e-02
      7.1299143955097039e-02 9.8441459551904142e-02
      -1.5163819042744933e-01 -1.1943986297594422e-02
      -4.8181387808414515e-02 1.6087053797247133e-02
      -6.3908816392679493e-02 -3.6947728656431721e-02
      1.2240615138059287e-01 4.3884992798684436e-02
      -6.1678545439684145e-02 1.3806047936180943e-01
      -1.3939104038460251e-01 8.4003296137504707e-02
      3.7427716490780708e-02 -2.2967168133441587e-02
      3.6919988355757445e-02 -1.7672227102513885e-01
      4.7513953748281053e-02 1.0754321914933177e-02
      9.2633715192879953e-02 -1.4253876072828844e-01
      4.9766533994660550e-02 -4.4560088563354056e-02
      8.4240682867239458e-02 -5.2959062688727548e-02
      -3.9884015524364984e-02 5.3513024610453500e-02
      -9.5372702901914562e-04 4.3204798404824080e-02
      -7.4338370710820639e-02 9.9776298065007804e-02
      3.2848151094122609e-03 2.9945760455887269e-03
      -6.3578228544562132e-02 1.1408029608345199e-01
      4.9114862843475555e-02 -8.3362691918289836e-02
      -2.6995379683509860e-02 4.8991036775811375e-02
      9.5541182640523012e-02 -1.3893991670728528e-01
      6.0834927574846182e-02 1.2202873828066871e-01
      6.1956434480486579e-02 -2.2270896199471649e-02
      -2.3816657165221435e-02 -2.0674303561511873e-02
      7.0214885936718444e-02 -4.2132912181245499e-02
      -4.4468546305455443e-02 -1.1208960310819263e-01
      3.7736802270295619e-02 1.0278051514446965e-01
      -3.0633842142260854e-02 1.4801767497728898e-02
      -1.6451759041873026e-02 5.7085555075307798e-02
      -2.1428493879399813e-02 -6.2753212037624420e-02
      5.3695189576857177e-02 -2.0104759605578611e-02
      3.7989788796564561e-02 4.3140262961351060e-02
      2.5334197914281035e-03 4.1544080538347766e-02
      3.5823717864990570e-02 1.7037962634843605e-02
      -4.2766443577708327e-02 4.9540758239965697e-02
      -4.1727093814930370e-03 5.8697551630361069e-02
      6.0142255721947181e-02 4.9701723113569712e-02
      1.8210251564049530e-02 -3.5682008676858827e-02
      2.3760152376515090e-02 -7.5275432931974792e-02
      5.5810209483975609e-02 -5.8199378270214729e-02
      2.0737924719887026e-02 1.0790359098796808e-01
      3.4866484797840679e-02 3.6829541316543403e-02
      -7.0710520232732709e-03 5.0784457466507851e-02
      -8.0318757589620607e-02 7.9386667803945220e-03
      1.7707670824973840e-01 1.2070429039900628e-01
      4.7086784793570195e-02 1.4938624062003153e-01
      8.0642647183517990e-02 5.5663621865578716e-02
      -2.4034212042535724e-02 -1.0929724402832053e-01
      -1.6842843894301267e-03 6.3820242961362031e-02
      3.8013828788740593e-02 4.4632880147212411e-05
      5.5136730195002030e-02 6.4222275063390746e-02
      -5.5290488077542332e-01 -1.2265622033743543e-02
      -1.8807713513532157e-01 -3.5801922058583944e-03
      -1.0305199419253867e-01 2.5853545874532730e-02
      7.3467658434572952e-02 1.2607074616960995e-01
      -6.5040865582207188e-02 1.6441734683852316e-01
      -2.0057108549208454e-02 -1.0366081734550782e-02
      5.4128242730749565e-02 -2.7535245133098272e-02
      -5.8893625395868322e-02 -1.5335565802965465e-01
      -2.6199196196117408e-02 8.0916171463224260e-02
      7.7924710419142118e-02 -1.8754138611833778e-02
      2.6100100701391283e-02 -6.0330265709789326e-02
      1.7634045215731677e-02 -2.5601497144087874e-02
      -1.0398980845366285e-01 4.0114908086036696e-02
      -8.0771723392181735e-02 -7.9721405187938230e-03
      -5.1789368033837463e-02 8.8335090372088865e-02
      -6.9937965692672072e-03 4.8175328338473190e-02
      -2.7686873988336906e-02 -2.1467613799974590e-02
      1.0234855163822509e-01 -5.9464421539012886e-02
      -5.0896634684855419e-02 6.5657927467278443e-02
      -1.0241108011811792e-02 -6.7246991994512145e-02
      4.7318071330354969e-02 7.1141178957141744e-03
      -3.4246519777831108e-02 -7.8021002149746901e-02
      -5.3125362754553630e-02 -1.9345927805582825e-02
      6.1916964680865730e-02 6.4236866274753182e-02
      -1.8514664906011988e-01 1.9575692450292921e-03
      1.8769325866204276e-01 1.0339950313857822e-01
      5.6103479221817569e-04 -4.0863142295904237e-02
      5.6380305888914746e-02 -9.2953225950698735e-03
      1.3209223029348663e-02 -5.4334187146323092e-02
      -2.9604528331907323e-02 6.6384685641718372e-02
      1.0345305157722881e-02 -7.3394475139878415e-02
      -4.9774644953010809e-02 -5.2441161901012041e-04
      5.3424970076982901e-02 1.0920788616250206e-01
      7.0295092653571062e-02 1.4807781558472050e-01
      -8.5175310323482523e-02 5.4786842529350406e-02
      2.4564692708062948e-02 1.6103673847279332e-02
      8.9274055400370509e-03 -2.9225296966527850e-03
      3.0742395870270712e-02 -3.0773971449050613e-02
      -2.0522207374830827e-02 3.2482941508030052e-03
      5.2590406325392407e-02 5.8488928206178091e-02
      -4.3421351911027091e-02 -3.1999595616508940e-02
      -7.9709578030596195e-02 3.9802269214116920e-02
      -2.4307988384828935e-02 5.6787125222092158e-02
      1.1203866931844780e-01 1.1295978077999137e-02
      -1.6174334890239603e-02 1.6601158825124915e-01
      7.8561405804624299e-02 -9.1190457583273862e-03
      -8.7921098273581383e-02 -1.8950755254836252e-01
      -2.9610563741738757e-02 5.6447749887624424e-02
      1.7425644537631586e-02 -5.4255463827380994e-02
      8.0053116471722127e-02 5.1451399694464627e-02
      -5.4860628654874247e-02 -6.8928002147901249e-02
      -9.1964994985159018e-02 -5.1215331434697010e-02
      -4.1564083128088042e-02 7.1473361616229941e-02
      7.9180801448287777e-02 1.0082806249966762e-03
      -8.5449657753875086e-02 1.4384430972935708e-01
      -6.0690088914726978e-02 -4.1806574931071549e-03
      -2.0329987759373214e-02 -6.8659434812960538e-02
      -6.5894842323658415e-02 -1.4929662023681872e-01
      -1.5737435429296007e-01 2.0404511297534522e-02
      1.0966529805425525e-01 4.0638314326120013e-03
      8.3763031084504405e-02 1.3538201306992570e-01
      -6.5996952249639654e-02 -3.7794165113305689e-02
      -1.2627549784809261e-01 1.0622205347635486e-01
      -1.4596829341946110e-01 7.5483025553634009e-02
      -1.4783698294815872e-01 1.4122981340773616e-01
      6.9655539879057052e-02 4.1786663980375408e-02
      -1.0770510933831916e-01 1.0511578924321703e-02
      7.8221667814348833e-02 -9.0881416216768693e-02
      -2.3142407160748912e-01 3.3715849534766980e-02
      -1.6163033060994694e-01 3.1561307359870274e-03
      2.1257418393632924e-01 -8.7216973348958046e-02
      7.0800636366015496e-02 -1.4208511531989038e-01
      -7.9280200663752742e-02 -7.0861743839708904e-02
      5.4638862224709150e-02 3.8370540006672345e-02
      -9.8788680548809724e-02 -6.5182454879561896e-02
      9.8419816698801357e-02 1.4295772111042115e-01
      6.2949766942086330e-02 6.7746334178687348e-02
      -7.4471979416232417e-02 1.6061654056936967e-02
      -6.5425774679114340e-02 -4.9372409955820873e-02
      7.2164605120655177e-03 1.0217145522125196e-01
      -3.0876546848911154e-02 3.6882552181068125e-02
      1.5569145196138980e-02 2.6362320602814349e-02
      7.2188836158524325e-02 -6.1706825688665493e-02
      7.7752907051515541e-03 1.1299991289702520e-01
      6.0071526857889058e-02 1.0360185365521034e-01
      2.9183300798331941e-02 -1.0351058440587377e-01
      -5.0825809676460235e-02 1.6270105083308256e-02
      6.0433876813375441e-02 -1.2257078693212387e-01
      -9.3119769099037616e-02 2.4306604158680210e-02
      1.0810229508493747e-01 6.1994978305986097e-02
      -1.9566379165459290e-02 1.0909786780607179e-02
      -6.5912703872524236e-02 1.4832573173787667e-03
      1.1999859961309839e-01 1.3371595341967740e-01
      1.2296076880898772e-01 7.0069256032544713e-02
      6.1075135512594192e-02 1.3856007034601461e-01
      6.4458107482421034e-02 1.7674707784406458e-02
      -1.8859928883845323e-01 -1.2623678856174295e-01
      -1.0739497948589094e-01 8.0037652804671580e-02
      4.0947183932519962e-02 6.5922801911481605e-03
      1.9764595352001665e-01 1.7180110719066045e-02
      8.5497691169590662e-02 -3.2115058532179497e-02
      -4.0563930732662151e-02 -1.2186758179584323e-01
      2.2054350585932553e-02 -5.1229175837282385e-04
      3.4530146600261755e-02 1.9160735744807252e-02
      5.6578874268947638e-03 6.7159422977694366e-02
      -1.0986404067733622e-01 -1.4607667959227079e-02
      -2.0960365195303664e-02 -7.0041703018257837e-02
      -6.9106835288848395e-02 -1.2197201159419511e-01
      -1.1901217162916107e-01 -3.6396782377915611e-03
      8.7867642924624054e-02 6.3648115929592231e-04
      2.3281397860411279e-02 3.5151161018473202e-02
      -1.6752932536318954e-01 -7.0329682185955131e-02
      -3.1699519538559671e-02 -8.3930548313400615e-03
      -3.0973978169376547e-02 6.8447304267439002e-02
      -7.7801769123739359e-02 1.9674701430498737e-02
      8.3458834201130590e-03 7.2024777369812359e-02
      -1.6394801101690230e-02 -8.5535514628042389e-03
      1.8345234543243041e-03 3.0804003494050530e-02
      -1.3764420539475178e-01 9.5591756348876414e-02
      -1.1380637453174244e-01 7.8992553785892858e-03
      3.5625081493956996e-02 -3.0760818149859016e-02
      -5.1867311813836806e-03 -1.5494030081281057e-02
      -3.7774043994141568e-02 -7.0763964912397878e-02
      5.0856139964155105e-02 -5.2703753508847500e-03
      -5.6173915917060474e-02 7.2297633104552492e-02
      4.2947081829931982e-02 5.3361378396653614e-02
      -1.1013046574360736e-02 7.7766341367251107e-02
      -7.1672211871689262e-02 1.9043661270877289e-02
      -3.5540440591105039e-02 3.1259054944824907e-04
      6.5896922141107345e-02 1.5132381594436312e-01
      -4.2342186788255694e-02 1.2987003290298263e-01
      4.4744724820872765e-02 2.3190330727286212e-02
      -7.3988034738722104e-03 -4.7364251630565589e-02
      -4.8341657119890601e-02 4.0849320101659467e-02
      1.1389275642150888e-01 5.2610790042809198e-02
      3.6251558641525782e-03 -1.2275748069738152e-01
      3.6894299560927893e-02 1.2413485513824119e-02
      4.2424676451050122e-02 -4.2606848405172829e-02
      -3.0460665914285902e-02 -5.5404636686825527e-02
      6.9770456308734302e-03 2.4212321443543794e-02
      -6.1023837867262787e-02 1.8951368376987437e-02
      -1.1578375537643380e-01 6.8318739916880256e-02
      8.5197523669614861e-02 1.5168475629339315e-01
      1.0539033053766599e-01 3.1635318248691702e-02
      1.1420495545195836e-01 6.5077656672757930e-02
      2.1097107759884062e-02 -3.7912891750339517e-02
      -1.5080042955139297e-01 7.3717797058657306e-03
      -7.3962854741395967e-02 7.6399868691985964e-02
      4.1568724888938501e-02 1.4818933553669497e-02
      9.9738098385057969e-02 5.7760579207183490e-03
      -9.2844423939950987e-02 -2.1094762166770507e-02
      3.3533435358094041e-02 -8.7796364345407510e-02
      2.9835178499735840e-02 5.6814391522204070e-02
      5.3658056587492550e-02 -7.3344201326650954e-02
      6.1512518017448121e-02 1.5995484963123110e-02
      -6.9245068511138583e-02 -1.4162723036019186e-02
      -9.0361032301883564e-03 -3.3927756336749305e-02
      -1.2524674250821547e-02 -8.3517556065921469e-03
      4.3975017730810981e-03 -1.0860167377738279e-02
      4.1699463043054087e-02 -8.7102597612635814e-03
      -1.3727193428008313e-02 2.9939288374375143e-02
      -5.7987612277945161e-02 -3.2188812873390794e-02
      -1.5669325750529333e-03 -7.2588556364073631e-02
      -4.1343949290857177e-02 6.7552999163342856e-02
      2.4616670219541957e-03 2.9641922337170730e-02
      -7.2947532681576673e-03 4.6111749513620647e-02
      4.4786413865114463e-02 -5.3520975606194295e-02
      -2.7848156096633207e-02 -5.1093119104781599e-02
      -5.4103069572506421e-02 6.3119633787057136e-02
      1.7497245130166424e-02 -1.7384604383290515e-02
      3.6421253215861954e-02 -4.6729136477306303e-02
      1.3893481816254010e-02 -5.3036781678703605e-02
      9.6749999144029111e-03 -5.4406924809414899e-02
      2.5392570373680666e-02 -1.6017031503664486e-02
      -1.5667943798991942e-02 4.6606921229855762e-02
      1.6030571962626184e-02 5.9979309819409375e-02
      -4.7660236798240246e-02 6.7407837756883734e-02
      2.9316476148395831e-02 4.0739239424720415e-03
      -5.5216791285801738e-02 1.0608143194880322e-02
      1.0133746180045216e-02 4.1683326035213103e-02
      2.7005496356727277e-02 2.9676331953370490e-02
      5.8789167012885522e-02 4.7134978583685642e-02
      -6.9331444539300874e-02 -6.7287376216437853e-03
      -3.8371068589654153e-02 3.7810936983822541e-03
      4.4784994288826069e-03 -1.2246067681663166e-03
      -1.4541866755951354e-02 -4.9378523497411494e-02
      8.8187309590160384e-02 3.7657897528465170e-02
      -3.0784987744723158e-02 -4.5667756903165296e-02
      -3.7907152023759348e-02 -3.0436830673632950e-02
      4.9964640764944154e-02 -4.2112229790325376e-02
      -3.3436293390472209e-02 7.7592991276833117e-03
      -8.6122584661295340e-02 2.1346024015569991e-02
      -2.3818541607633834e-02 1.2625960271008306e-02
      4.3000277797060608e-02 2.8702393422964143e-02
      -5.7816068563386908e-03 2.1491686575114536e-03
      1.2039760107978177e-02 -2.2805357519994227e-02
      -1.5925645654213845e-02 -5.3277985916404251e-02
      -5.5093396334189991e-02 2.4475036396342020e-02
      1.7359066558740369e-02 -2.4416340096752542e-02
      6.6145769547079139e-02 -1.2763158468167094e-02
      -5.0943025812258680e-01 -4.6108234501986652e-02
      9.2087104238447910e-03 -4.4293466635375528e-03
      -6.2833218637648819e-02 5.4462214523175352e-03
      1.4191981657638771e-02 -2.6222415065302169e-02
      -4.2271630083868063e-02 1.2132460003630348e-01
      5.8699446500327872e-02 -3.3149349778367809e-02
      -8.9646268807462681e-02 2.4536243289806931e-02
      -1.0320442033020495e-01 -1.0098947247128033e-01
      1.0754645451993063e-01 1.6475641001663113e-02
      -4.9851391427839245e-02 4.4145771126000113e-02
      -1.0832032291940973e-01 1.3345943543120360e-02
      1.2172780854568699e-01 6.3758840997045192e-04
      -3.9507691781942848e-02 1.7878729280200623e-02
      -1.3385757324345005e-01 6.1612887271991545e-02
      2.4315123019062933e-02 -3.9860845467268056e-02
      -1.6745818825333672e-02 5.3032519854221971e-03
      7.2150077628336570e-02 1.5272169377739467e-02
      7.2250570723648821e-02 3.0586457262856099e-02
      3.5292343262427972e-02 -5.6521075189778659e-03
      7.2877595622431277e-02 2.2348691811726038e-03
      -1.7184556840580987e-02 -1.0884327288718203e-02
      -6.0870162155429862e-02 -1.2870526411007846e-01
      5.4643940710159225e-04 2.4765457745968660e-02
      -3.7251842075696422e-02 4.4557172501399400e-02
      -9.7889303066439573e-02 6.2741785122155752e-02
      1.0483043838394689e-01 -1.5047560267667518e-02
      -3.6268831489298901e-02 -4.7317320387653766e-02
      4.6000324097658571e-02 -5.8516250849804059e-02
      3.7786046286655654e-02 4.8365700729089099e-02
      -7.7453021244948045e-02 -1.9596265489108151e-02
      6.4946902696724623e-02 -8.7735714819029684e-02
      -2.8225723005363981e-02 -5.2473456580210229e-02
      2.9321595832632913e-02 1.2035896844714392e-01
      -5.0338231290416183e-03 3.2892540514919480e-02
      -1.0376391719190843e-01 -9.0564964401376000e-02
      -3.6555154903931034e-02 4.3471695551785969e-02
      -4.4553540958221845e-02 4.2145208443753891e-02
      -7.4159782687359413e-02 6.5447731968606246e-02
      4.1897374278030745e-02 7.0747648779911666e-03
      4.4920447951942333e-02 3.1914482939723203e-02
      1.4868831131854145e-02 -5.1170981141931353e-02
      9.3134975331884348e-03 -9.6373698858480794e-02
      -4.8870719374261962e-02 6.8514020896643449e-03
      9.4461061910478081e-02 4.1580474625690280e-03
      -6.4908937654720653e-02 4.6346173785205724e-02
      7.0626451683130365e-02 -1.5776324282748212e-02
      -3.1363854845230500e-02 -1.5157945925342950e-01
      5.8771565486719406e-02 -4.2274015685591353e-02
      -2.8163591279798832e-02 -6.1010514281053717e-02
      -3.9007736713681219e-02 -7.3581229228906697e-02
      -3.4973784022054827e-01 1.0287746986686065e-01
      3.7777144211679881e-02 6.4609896427252414e-02
      4.9978073790739777e-02 -4.9245293295393691e-02
      -3.3602408656437703e-02 -4.5086770566561227e-02
      3.1871834785407172e-02 -9.4857772764460099e-02
      6.4492608599225440e-02 1.6559816732235574e-03
      -6.5807875152860448e-02 -1.2161047819089089e-03
      1.6876759562609877e-03 1.1277763768530409e-01
      -2.5153433979133869e-03 -3.7753450156224895e-02
      3.6750759225707287e-02 1.2363845155156379e-02
      -1.2409207993269190e-01 -2.5235356582527020e-02
      9.1898541185507276e-02 9.9551884418116569e-03
      5.1480609778560546e-02 -1.1281626367037302e-01
      3.8753110790517478e-02 -1.6072217501848150e-02
      8.1087040459685525e-02 -6.7101155480874418e-03
      -1.0737800834117379e-01 -2.2476309122745026e-02
      1.4716240061486374e-01 3.1453559890593723e-02
      -1.0932714232203390e-01 1.6333851351237172e-01
      7.0373033483293893e-02 1.0285361096974439e-02
      1.6731387433663214e-01 -2.2770287988446120e-02
      -1.1138343797948358e-01 4.4500038187131441e-02
      -1.5583224651608534e-02 7.9879110900470521e-02
      5.7049346576112263e-02 2.1795473541717916e-04
      -1.8717273445128583e-02 1.0238898301691958e-02
      1.0046489066297017e-01 1.5526939327620856e-01
      -7.7711048812184075e-02 -6.5136471696618320e-02
      -7.4568158826747166e-02 -3.0443190995317611e-02
      1.7998197106203023e-02 -1.6664158667181909e-02
      5.1814034318023961e-03 7.5998839112810787e-02
      7.1934831016944676e-03 -4.0157439780729733e-04
      -6.2087217433969229e-02 -6.5092522814174991e-02
      -2.4090375972023036e-02 -2.8161718771890054e-02
      -3.8258140405913001e-02 9.0863553862735175e-02
      -1.9558562415494252e-02 -1.5829662193647495e-01
      -2.6737269280791828e-02 -8.2378434896919026e-02
      -5.8370939600949953e-02 8.9460900845098515e-02
      9.6285618340297960e-02 -2.4894859558060343e-02
      -1.3347622955327076e-02 1.1400685267352838e-01
      3.6293836768020261e-02 -3.8552231029382995e-02
      1.3427404973242489e-02 -7.7509298781709784e-02
      -6.9456515512728551e-02 -2.1983999245631627e-02
      -3.7106916849379279e-03 -5.0274654650166062e-02
      -8.9790550317548873e-02 -1.4212345842788854e-01
      -7.6391204435567836e-02 -6.8498363065978340e-02
      -6.1729181906859720e-02 -4.1697768052866180e-02
      -5.9438918699838660e-02 -3.0485385142901410e-02
      1.4174844554558200e-01 4.8221651564191524e-02
      7.2105882957733541e-02 -1.6608119820849147e-02
      -1.3534406790685842e-02 -2.4243583431888000e-03
      -6.9321334519234001e-02 -1.8506503814729940e-02
      -3.6492906148681103e-01 6.5742350244210435e-02
      4.5165519999888513e-02 -7.0370384798635985e-02
      1.9506163583773384e-02 -8.0059066703313756e-03
      -2.1183860364028830e-02 -6.6581544292887970e-02
      8.8010858735014477e-02 -4.0379219068379303e-02
      -6.2851961488313846e-02 -6.7051878847070007e-02
      5.9507541064269059e-02 6.0630562323173695e-02
      -1.2690219082052758e-02 1.4460834174061232e-01
      -1.9519266222190121e-01 -4.7679657050811591e-02
      6.1642531348055703e-02 -2.7216633666651495e-02
      1.6618305481700447e-02 5.8858534703595249e-02
      -1.5916624853756778e-01 2.2227598450442212e-02
      8.4618113353992636e-02 -1.3600062135081964e-01
      4.2908541838241394e-02 7.0714134699210202e-02
      -6.1165391995648064e-02 2.0893611082632140e-02
      1.1439233060247023e-01 -4.6075054452008483e-02
      -1.1560334886204440e-01 7.4934780410255072e-02
      -7.7053780687959761e-02 -4.0612227343983787e-02
      2.0575410853425711e-02 -1.4122566538568979e-01
      -1.9611141357126174e-01 5.7064253062361923e-02
      8.9626916785605429e-03 -5.0173546921487212e-02
      1.0485780458755305e-01 7.1227487962851457e-02
      3.6616416835610940e-02 8.3158550468912698e-02
      -5.6757858900100079e-02 -4.7663698234540378e-02
      1.0102594516239202e-01 -7.8151327763779393e-02
      -6.9695428284690816e-02 -7.3790596939502531e-02
      -2.8732857150980024e-02 6.5804906358830850e-02
      -8.9851267807084675e-02 5.4580608988489265e-02
      -5.8530456916853484e-02 1.0070946663992607e-01
      8.8737560535435647e-02 -1.6835844412352197e-01
      -5.5962494670723770e-02 1.8450092544930152e-01
      -1.4128389118673575e-03 4.0611258143556858e-02
      -7.3614815878079401e-02 -2.2253307711440407e-01
      -1.1214044215096459e-01 -9.9137687809679270e-02
      1.4337105517341139e-01 -1.0116439409419940e-02
      6.8702535087592317e-02 -1.1198358976780670e-01
      1.0708358543831495e-01 5.1737236945779211e-02
      -9.5322443447416999e-02 2.1307548526521759e-02
      -4.1128115769880583e-02 8.9592587986269137e-02
      -1.5247508490539252e-01 -1.0187639520017411e-01
      1.0284418744423893e-01 9.7425721051876829e-02
      1.0048926956505916e-01 -9.0298110780987317e-02
      1.4470543686856052e-01 7.1887561051806159e-02
      -1.4049812580871501e-01 1.1237452262303327e-01
      6.6379770428372675e-02 -9.8768005944291276e-02
      -1.3779371323177839e-01 3.0424902429251922e-02
      -1.2047991313591890e-01 7.1431592946324896e-02
      -1.1740679739852580e-01 -6.0668494167649543e-02
      -2.9893361463957893e-02 3.6942741524142002e-02
      3.1968908036914413e-02 4.6791758779270422e-02
      -3.1400345448744366e-01 4.3088686486951730e-02
      7.9925258197502999e-02 -3.1626297446491508e-02
      6.5886129018535439e-02 -8.7928313206832906e-02
      -1.7563386826257524e-02 -2.5376234735657578e-02
      1.4117632080978512e-01 -8.1284806651828606e-02
      -4.9691749345303904e-02 -1.6757361895286163e-02
      3.3091222376359142e-02 1.3585009150443986e-01
      -9.5266971089058322e-02 1.1801091272311988e-01
      -3.6978889739961079e-02 -2.6678431712979046e-02
      4.2033949886643239e-02 4.0151985108981054e-02
      3.2278465318205933e-02 -1.0212806590542420e-01
      -1.0227147018344424e-01 9.6338991307324900e-02
      4.7968845649310927e-02 -2.7239098173510487e-02
      8.4905561594482051e-02 -3.0946628243225804e-02
      6.0718881252955902e-02 6.6393945073937546e-02
      1.1436595632786271e-01 -9.9723198235280891e-02
      -8.1558054195412261e-02 -3.7480454345001996e-02
      -1.1297885254135469e-01 -7.0516332270908269e-02
      5.2739726034378182e-02 -1.5272482238091575e-01
      -5.9683192286135930e-02 2.4264772599828014e-02
      1.8487337999747347e-02 6.0063766053685588e-02
      7.4526645181433718e-02 2.2221458950099662e-02
      9.3621770451403727e-02 1.4743310414432056e-01
      -8.7804361682951068e-02 -1.3431578436918035e-01
      7.9030977612677772e-02 7.7908250301030541e-03
      -7.0565810930958386e-02 -1.0114338207421823e-01
      -3.3894152767156037e-02 3.6053252077109070e-02
      2.4271011040574761e-02 6.1178991626464209e-02
      -2.2167714253251071e-02 1.0544927341542024e-01
      8.3531475588096746e-02 -1.2343119049169690e-01
      -1.2423109163804997e-02 3.6189743181985812e-02
      -9.3578489668002224e-02 4.3643117620269088e-02
      -7.4254452895340786e-02 -1.3841562189337112e-01
      -1.1145620218240650e-01 -3.1653555738761711e-02
      2.2639343663659606e-02 3.4797298592927489e-02
      8.1931298809141587e-02 -6.0751238535845853e-02
      7.9851233531545204e-02 -5.4314718548978534e-02
      -1.2971084013260711e-01 2.3591498667045741e-02
      3.2781689366502074e-02 1.2685355617104263e-01
      -1.3238847289621802e-01 -7.6035961648122111e-02
      1.0760274572084742e-01 6.8238007145214760e-02
      1.3482319578297064e-01 -1.2412233987156421e-01
      4.3149461162491623e-03 7.3173878848481505e-02
      -1.4845127851376111e-01 3.8020647929737465e-02
      8.1198190132994355e-02 -6.1367074208868652e-02
      -7.3969833246977701e-02 2.4394033600173753e-02
      -3.2966514221120187e-02 5.9170291854200641e-02
      -2.1421456092064223e-02 -1.1510537889971237e-01
      -1.0091935949305147e-01 4.4032141760273279e-02
      -6.8308322375688392e-04 5.8084207661170791e-02
      -3.5480422200797856e-01 5.6884843287023097e-02
      3.1119384323013716e-02 -1.5448569080182616e-02
      4.0363587276486958e-02 -4.1981307339253884e-02
      5.6472639419133462e-02 5.1061263769513900e-02
      8.0153273655335186e-02 -6.3527577595985457e-02
      -9.4736351002667293e-02 -2.5055500734643001e-02
      3.4787309043951949e-02 5.1262273681107917e-02
      -8.3343770066143963e-02 3.5561163697793532e-03
      -7.5130664797002825e-02 5.9388938717446884e-03
      1.3788415985058877e-01 -3.0021244512622444e-02
      7.5711254386971252e-02 -9.4075162316490726e-02
      -9.2067836378182499e-02 4.0065537257492789e-02
      -1.7418409937809024e-02 2.3449958441052823e-02
      2.0442163666324550e-02 1.4690304101737078e-02
      -2.6197678331206849e-02 7.1096910518557380e-03
      6.5889421511637888e-02 -1.3892829862918885e-02
      -2.0829813664776407e-02 -1.0412579913696235e-02
      -1.0437295514483275e-01 -2.1842043877785801e-02
      -1.1571609393500615e-01 5.3374016590017025e-03
      -7.7477227958950507e-03 -3.8571370349844293e-02
      1.1541180314133201e-01 9.0831414518249068e-02
      7.0913456907494607e-02 -9.5144024253776313e-02
      2.1110626745517634e-02 8.3852544942640245e-02
      -2.4703704694169350e-02 -2.2523422890170626e-02
      1.6931508834607419e-02 5.8147884680957119e-03
      -3.9438197711833961e-02 9.1808567759705223e-02
      3.1491510099644127e-02 5.8689756413635309e-02
      -7.6079698319222483e-02 1.5492468751130750e-02
      3.4453325969251943e-02 5.6231345356532354e-02
      1.2594856329679185e-02 4.6360349272952912e-02
      -6.1248742561285513e-03 4.5518012579999233e-02
      6.2465615567529019e-02 -5.5465029606140130e-02
      -5.6049785845496601e-02 -3.6722737635341125e-02
      -1.4336434741538670e-01 -4.0301009764532027e-02
      5.3771438756808697e-02 8.5586714609035983e-02
      9.6738431870225568e-03 1.4080877785201319e-02
      1.1243501317607955e-01 -5.4863621254149189e-02
      -3.0304677909865209e-03 -7.6001542481306653e-02
      3.8812622601433748e-02 -5.2192989894701496e-02
      -9.8606968857234342e-02 3.5223512465443599e-02
      -5.6319563797511893e-02 2.7875778401115194e-02
      1.8777432967830566e-02 4.2929217471302438e-03
      -2.6067289978668619e-02 1.3754154944774411e-02
      2.5752330336670785e-02 3.6142642981685590e-02
      5.2108329416729514e-02 6.4994440593262467e-02
      2.3360789589193824e-03 2.5705909297521770e-02
      -6.2209075772294890e-02 2.3482814704033555e-02
      -1.6800307452464726e-02 -4.7693211828277599e-02
      -1.4424086211913531e-02 5.3061441420233302e-03
      8.0222486872572510e-02 1.2780263917753357e-01
      -1.2698878089868346e-01 3.5898971883913597e-02
      -1.0345344434547706e-01 -3.4613768000095191e-02
      6.6739897291501482e-02 -7.5946048479249425e-03
      3.7632041370062046e-03 9.8277531272312979e-02
      2.1997088929383807e-02 -8.2177496862711526e-03
      -9.4349932343924428e-02 6.1233340795834375e-02
      9.4656856647903617e-02 -1.3634334655109943e-02
      -3.6164215587300236e-02 -1.6555949550508368e-02
      1.9757576515910043e-02 -4.3749387285977692e-04
      1.5855574996264865e-01 -5.0393258631783087e-02
      -5.7184012119963636e-02 -1.0149353175138025e-01
      -1.0290866880097228e-01 9.2472805903920409e-03
      -2.3563005915979509e-02 -2.4723033135976326e-02
      1.7908347407616397e-02 -9.6486538859291617e-04
      -9.2925460174554213e-03 2.9874428386587038e-02
      -7.9894872863807379e-02 1.8720233575887223e-02
      1.2807293657381258e-01 8.9019948851386907e-02
      -6.9775605836492685e-02 9.7980139758197526e-02
      1.0912953135608396e-02 7.6629561396234600e-02
      2.2469477702599716e-02 -7.9071516744421699e-03
      -2.3892853428183647e-02 8.7967253550776947e-02
      -1.3082058834282879e-02 -7.6617507187323172e-02
      2.9317465190485253e-02 -2.6422610767843632e-02
      4.3333022341251866e-02 -1.1579376572015677e-02
      -4.2114390027681102e-02 1.1471017412565560e-01
      3.1124758499576584e-02 6.0823611134332517e-02
      1.9963762386136844e-02 5.6139763056952813e-02
      -1.1849504113852978e-02 1.4193228833233238e-02
      5.0081498821684091e-02 -5.0036562453619322e-02
      3.7202809937513959e-02 8.0044908768036660e-02
      -5.4435891766487374e-02 2.4809872817637295e-02
      -1.8396700268702028e-02 -6.0074578903514642e-02
      -1.9187113891094242e-02 5.9705352244686635e-02
      -2.1062025018753330e-02 -1.7659914609367472e-02
      1.2272896903610005e-02 2.2857646718721602e-02
      -4.1960130227603656e-02 6.2094666298719431e-02
      1.7728712102680333e-01 2.3518422979394251e-03
      5.4837246630314515e-02 6.3254962175847931e-02
      6.8449959635095023e-02 -8.3260360477692863e-02
      2.6578886049330494e-02 -2.5341356539204937e-02
      -8.7230087200093509e-02 -1.7323926503046674e-02
      -6.6567251419751991e-02 3.5547621803700968e-02
      -2.5686912129178230e-02 -4.2809465526475250e-02
      2.3349531196603185e-02 -6.8223619372267078e-02
      3.2038739482458771e-02 8.0890991879255497e-02
      -2.4992127480944967e-02 -2.5789142085500729e-02
      2.1102089123305561e-02 -5.0964780467229687e-02
      8.0309106122098101e-02 3.0834085224344953e-02
      3.4535770127705430e-02 3.9977218350921238e-02
      -2.7748773935102045e-02 1.4930277008931844e-01
      -2.1144535262634278e-02 -1.2424018425495970e-02
      -9.3556707209408688e-02 1.2485939438212258e-02
      -3.5021974070974980e-02 2.4339428591465168e-02
      4.3932964507208939e-02 3.0417062518394145e-02
      -5.5248996950028204e-02 1.0834550041532200e-01
      -3.0307344463613765e-02 -5.8476470804367884e-03
      -6.6353272431713605e-03 -1.3633483374682020e-02
      -2.6402047701906545e-02 -1.1699471702443728e-01
      2.8399135621787485e-02 2.2220118759585263e-02
      5.5088481936960663e-02 -1.2689764362483172e-03
      4.8414461778439534e-02 -3.0068886906975532e-02
      -1.1409239304053739e-03 1.8317082533277854e-02
      -5.3933394142006243e-02 7.2925587520753954e-02
      -1.0793977042592351e-01 4.1082866124432368e-03
      -3.4727711643738557e-02 8.1359623894305122e-02
      1.1727296909474733e-02 -2.2156414200419909e-02
      9.8150773225483823e-03 -4.7524115044269927e-02
      3.1691845704054297e-02 1.4736155559949230e-02
      -7.0174948371341805e-02 -1.7778246972302875e-02
      -3.1338451484334555e-02 -6.7410031922656738e-02
      1.2171353878058964e-01 1.8933073695813415e-02
      3.1844899562872585e-02 -1.1491313777630735e-01
      -4.0684369798200434e-02 -5.7862748439384500e-02
      4.1242220457724861e-02 5.9050898539839886e-02
      -1.1709467057001877e-01 -1.9740370377163474e-02
      1.2509703710900250e-01 1.2085704350960885e-01
      9.7409784363543792e-02 5.6316447901802222e-02
      -1.4898664552841244e-02 -2.2448684119647524e-03
      -4.8640319815948505e-02 -1.1438747126038313e-02
      2.5201434069151022e-03 -2.8886472686716493e-02
      -3.9608397457166905e-02 -6.3564921142695199e-02
      -5.0660831881695338e-02 -1.7416612298529484e-02
      1.5332939729301973e-02 -1.9159214882699690e-04
      -7.7604573895835131e-03 9.3564011289216834e-02
      3.5235443750240701e-02 5.8583978128720564e-02
      1.4031622121348855e-02 -4.2722839319792759e-03
      7.9363782443199430e-05 1.8250005084400413e-02
      3.6404752971010115e-03 -7.2472218814437495e-02
      -5.2628779234817839e-02 -9.0513904990747792e-03
      4.8551841034295454e-02 7.4515946953503526e-02
      3.1690522486030027e-02 -1.3188242539322746e-02
      9.6388086567935731e-03 1.7250110455703051e-02
      2.2908148088217187e-02 3.6234161031727212e-02
      1.3861385308226962e-01 4.1360221546547851e-02
      4.9712498309059709e-02 1.2953247468848575e-01
      6.5226111978568507e-02 4.6980686077819488e-02
      -4.8131610720235883e-02 -1.2673325008725206e-01
      -3.3038550928649393e-02 4.2207260697887515e-02
      6.7266798650254065e-03 9.2725385717716147e-03
      5.3791860028353511e-02 3.7229462546496186e-02
      1.1096380985712267e-01 -8.3222321470140768e-03
      -7.7007464988920665e-02 -3.9937238816861185e-03
      2.7686689142567420e-02 -2.5489806179906861e-02
      1.5355761449652554e-03 2.0110998037174484e-02
      9.6036079396170405e-03 5.6535676975990636e-02
      -9.5358153974427359e-02 -1.9282696184392274e-02
      -4.5195831800757577e-02 -5.6805512204968572e-02
      -1.0653142416817047e-02 -8.5391714963491835e-02
      -3.0083004932437523e-02 -9.2971401042636556e-03
      5.5140780134030329e-02 3.9802698796436567e-02
      -2.4033883552895725e-02 -3.0603335058666085e-02
      -4.4342819876398779e-02 -4.3630288773825916e-02
      -7.8682210394494349e-03 -1.0886938929512480e-02
      -1.4332247963740436e-02 -3.5171406436720759e-02
      -4.7517275792109985e-03 5.5077901073434556e-02
      -5.1285337115971073e-02 6.1783726832832037e-02
      5.4321279159303675e-02 -2.2330355875893042e-02
      -1.4672263718008578e-02 8.2373435074560269e-02
      -6.0019278782442211e-02 5.9635935651413903e-02
      -4.4843735065948437e-02 -4.8951691696425742e-02
      -4.8265122229253611e-03 5.2520140093607857e-02
      -3.9163997634288281e-02 -2.1686386013873103e-02
      -4.2009860761982210e-02 -9.3103614832814804e-02
      5.6784514335699726e-02 1.7789413911358205e-02
      -4.6053895741139224e-02 8.1733603810109606e-02
      7.3901389832440365e-02 -9.2080927836257992e-04
      1.5065848327942846e-02 5.6269172763296758e-02
      -6.6583901187729805e-02 -1.0638679989655266e-02
      -3.5367847867490039e-02 -2.5941871425874685e-02
      1.0447375137865209e-02 1.5182357388797255e-01
      -3.6986999517758239e-02 8.4696344008226843e-03
      2.0561947589894571e-02 -2.9897925972085248e-02
      -3.0121589426206470e-02 -3.6744207400117357e-02
      -2.9424176580427504e-02 2.1056592653353707e-02
      2.9875613896242974e-02 -1.7408306675760057e-02
      -1.7806276980064362e-02 7.5538784194259705e-03
      -1.7406386108697922e-02 1.3013891333501823e-02
      5.8582921660693184e-02 8.8434078334208889e-03
      3.3778877581265902e-02 -2.9306630426394371e-02
      3.4306855939182659e-02 1.5681071600095478e-02
      -8.5214736510130909e-02 -7.8674247004290390e-03
      -8.7150011683005776e-02 5.8566388070212722e-02
      5.7934503308609220e-02 4.9964999787904141e-02
      1.0643280500925638e-01 8.5728140943022897e-03
      1.0069266451456411e-01 1.0046686011283641e-01
      7.7258942957898258e-02 -1.3101011738424576e-02
      -4.1582674854075817e-02 -4.8355599355900357e-02
      2.8514628509240768e-02 6.0896682717809431e-02
      5.5799865826409618e-02 1.2612957258759638e-02
      1.0299610123625394e-02 -7.0918312023515763e-03
      -1.3049290108905251e-01 -5.1321151484728213e-03
      -3.0553455896605488e-02 -4.5170615526984946e-02
      4.6104284261720439e-02 -1.9070480313980544e-02
      3.1994289128501378e-02 -1.7274974063523567e-02
      7.6914925308604679e-02 5.9588893820095461e-02
      -5.8851852516850142e-02 5.0317668558188906e-03
      1.3068793100211105e-02 -5.5420635506291289e-02
      4.5179108977031403e-02 -5.9807126654265283e-02
      9.1062352782808151e-02 4.9675438959822467e-02
      3.2353371492002687e-02 1.0572053324067477e-02
      -3.0397751431601120e-03 -4.8752232986057402e-02
      1.5046827394267062e-02 -4.1742897700618592e-02
      -5.5598160581862059e-02 3.4486939259741806e-02
      -1.0024091940631540e-01 -1.2672901579029219e-02
      5.0861108103420989e-02 7.8378412867797717e-02
      -4.6580532842178134e-02 3.1283658383483029e-02
      1.4691360590451232e-02 -3.7229283998894448e-03
      -3.8757670252838057e-02 4.5480047775911820e-03
      1.1780359198240557e-02 5.2099267665684082e-02
      4.7524738791856952e-02 -4.6739948030623750e-02
      -7.6440934886431583e-03 3.5677624419986530e-02
      -4.9142806361987042e-02 -1.7248368821858370e-02
      -6.0538651771623563e-02 -4.4985770766492870e-02
      2.8911437521690574e-02 3.1620236023757679e-02
      -6.5288214833214023e-02 6.0159403932534043e-02
      6.6161770792664901e-02 2.2687152944406669e-03
      5.7958431299126650e-03 -2.1315440895847096e-02
      7.2406618381492760e-02 7.7795424292505331e-03
      3.1070488341503016e-03 -1.5874341709312491e-02
      -1.1394256959016422e-02 5.6794632055327664e-02
      4.3199040900305602e-02 -2.9083709861841358e-02
      -1.2329662469759544e-02 -2.0882994238889310e-02
      -1.8144070710526979e-02 4.8657135654779820e-03
      8.2441636681296032e-02 5.2674227141341207e-02
      -1.7318597312005298e-02 -5.4345731241803696e-02
      -1.6441478374199431e-02 -1.1712455619558356e-03
      9.3383590315856635e-02 -8.3092821355881634e-03
      1.1972179760416986e-02 -3.8835364659981698e-02
      2.6842492562629102e-02 1.9304688386147625e-02
      1.3099359331742289e-01 1.5959029954662810e-03
      -3.5748030103581227e-02 -1.7644329862000221e-02
      -7.6517020303397479e-02 5.9127878700786618e-02
      -7.5251207728128267e-02 -9.9900654291584807e-03
      6.5025337529869442e-02 -1.2182864357396564e-02
      -3.2997862380039364e-02 4.2542671958870737e-02
      2.5830016839164256e-02 -6.2719447617414853e-02
      3.5359399772424124e-02 -1.0834628711183091e-01
      4.5653160848366327e-02 4.2064182156042691e-02
      4.0122385442059531e-02 -5.8302228937722744e-02
      -3.5725746055417840e-02 6.9977799263922728e-03
      -5.1765938189138616e-01 9.0493457989688247e-02
      -8.1018911958367926e-02 2.4714930575636750e-02
      -7.2001439325953653e-02 -3.7507899402974249e-02
      -1.0196205840166802e-02 -4.8534928300147219e-03
      -4.0020992973479184e-02 1.5331270583068352e-02
      2.0129290868256666e-02 1.4111394781694509e-02
      -6.0396975319703852e-02 -6.8033305146099843e-02
      -2.3953347164480134e-02 -1.0170810338154798e-02
      1.8340292796814336e-01 3.1533923280409722e-02
      -1.1278399735220076e-02 1.9860305179031086e-03
      -1.2466126170069337e-01 -5.4844605621748553e-02
      9.8691170746016646e-02 -2.4482743265268475e-02
      -1.2022652524215475e-02 3.5115024698762737e-02
      -1.0847970601583119e-01 -9.3607079118363211e-03
      6.0303941101223828e-02 2.3638988434656814e-02
      -1.0814718333528343e-01 -2.8371366125268159e-02
      1.2355865874799514e-01 3.7759234214734726e-02
      6.9244216355125690e-02 1.2902026308249623e-01
      8.8718236979150253e-02 3.3101050094227022e-02
      1.4079415052251334e-01 -5.7218205754869668e-02
      -1.0799818424287151e-01 7.1780707922561651e-02
      -4.0786937345110619e-04 -5.6515164947751391e-02
      -2.6141384769887439e-02 -5.8917520262522220e-02
      2.2988334990263277e-02 5.8918989772876046e-02
      -8.9457964714403870e-02 1.6883186240720124e-01
      9.2004867190008707e-02 -2.0337530172809808e-02
      -4.9152482377213175e-02 -2.1131189777733431e-02
      4.5066060910146220e-02 -3.4563670340732565e-02
      8.2936685281717742e-02 -1.9038477214868489e-02
      -4.5894453540499307e-02 3.0969639064385976e-02
      -2.4181551300087829e-02 -7.9908133817037402e-02
      -5.6683557236183089e-02 5.9628287314825341e-04
      2.5880707033033058e-02 7.7926311113976895e-02
      9.4148791532625828e-02 3.4200326412089730e-03
      -5.1625103396596705e-02 -2.2544538609428792e-02
      -5.8100962434113841e-02 6.2755005116002252e-02
      -5.3633742224546309e-03 -6.0425814956988682e-03
      7.8216706027373463e-04 6.4313192018116652e-02
      7.6352462019531220e-02 -1.6037255301702458e-02
      1.7002225861495265e-01 2.6754932743422440e-02
      -7.8297372728782372e-02 -4.2639417668167964e-02
      -6.2258300983534368e-02 5.1235666919194400e-02
      -1.1318486809234762e-01 -6.6934475044025873e-02
      2.9427665340325770e-02 -9.2185681444811804e-02
      -8.0019235255134741e-02 1.3779422111981590e-02
      -5.8797223420007537e-03 -4.3302550073626163e-02
      1.0590196826837148e-01 -6.5300303371484278e-02
      1.2860341048256879e-01 3.3211504911078653e-02
      1.0828784831128285e-02 -4.4810471457849325e-02
      -1.1957103238287980e-01 -5.4546597491530742e-02
      2.8560085717489327e-02 -6.6337772738966887e-03
      4.7634526044094412e-02 9.3225929527397403e-02
      1.4910439847896756e-01 9.0518201796035161e-02
      -2.7281733627182742e-02 2.8389640664836388e-02
      9.0569017727589268e-02 -8.7136226178002665e-02
      -2.2729129804524334e-03 -5.4762228413793447e-02
      1.4759074568299763e-01 -4.2259159087637659e-02
      3.1462036190692981e-02 6.8854588733498256e-02
      -6.5677569498121799e-02 -2.3949581363646940e-02
      7.8836445288281556e-02 -2.4729986074000981e-02
      -1.5057360386108906e-02 9.2039972554682742e-02
      -1.0068295709804248e-01 9.8167649452195905e-03
      1.5237316218706784e-03 -7.8555187523315154e-02
      -3.3965125535218611e-02 7.9085548012023318e-02
      -1.3406030631353474e-01 -1.1967746281320514e-01
      -4.1554817123664349e-03 5.9815961321162715e-02
      1.0063119457129774e-01 4.3788544222173147e-02
      -9.4916731694232717e-02 3.8967589124271798e-02
      -9.7676657605675718e-02 1.7170087547053028e-02
      -2.5842858683720084e-02 9.9602037638924043e-02
      3.3659774786018067e-02 -2.2400365497128722e-02
      2.8612450941503720e-02 -6.7231008715732876e-03
      -2.5400532927222497e-02 -4.9968631017279601e-03
      2.0748405508187722e-02 4.6325920433359195e-02
      5.2063572252831501e-02 -2.7459838829436804e-02
      -5.6553548068177029e-02 -3.7961059871511722e-02
      4.8903646349899979e-02 -2.3431058130959304e-02
      -1.9670099590294920e-02 -1.0987458882805770e-02
      -8.7737378852592880e-03 3.3288452083637711e-02
      -3.2270622175771459e-02 2.4761894024937461e-02
      -4.8394871968662503e-02 1.2082805232014457e-01
      9.5039630046172788e-02 -4.9090082939363552e-02
      -1.7611092455189954e-02 9.1599516745932127e-02
      -5.4375800936590023e-02 -8.2482043375249628e-02
      -3.8519253892016325e-02 1.3619706173319143e-01
      -4.5997779987388777e-02 3.5445521874241624e-02
      1.6077438169669581e-01 6.2793001542921362e-02
      5.8624347654950518e-02 -4.2470479713280503e-02
      -1.7708432434330058e-02 -9.6370793709973507e-02
      4.3416613368039789e-03 -8.6844788645251872e-02
      -6.4745268341695084e-02 -2.2709663062841459e-02
      -2.8374047392129027e-02 1.3787362263568841e-02
      3.1798091507611696e-02 -4.2918190003347297e-02
      -8.5223275356944399e-03 -6.2596738226380372e-02
      -3.6767679716024834e-02 -8.9846876155308536e-02
      -1.4857855578228166e-01 -7.3890549689204455e-03
      -4.3003499606673254e-02 -3.6049483955869067e-03
      1.0259836583980721e-02 2.6752331553675297e-02
      2.8541931373383161e-02 7.1620319944330116e-02
      8.7894253031015918e-02 1.0709797644460911e-01
      -5.9638319728464873e-01 -4.5318482974488816e-02
      -3.1640566195466818e-02 6.1855827232254558e-02
      -8.9721344270466560e-02 6.1710791304078749e-02
      4.4048616215429791e-02 9.1588439224349574e-02
      -3.0303095907505358e-02 -8.5197661684793726e-03
      -1.7732630019445063e-02 -7.6253296429171211e-02
      -9.9733058224683022e-04 1.4308872409899814e-02
      4.9734160917744630e-02 -4.0927160558310291e-02
      -1.1650034470370041e-01 7.9868380393385268e-03
      7.8987409759104163e-02 -1.2024644124202302e-01
      7.0543761144921113e-02 5.5395672797741581e-02
      -1.5318166552672069e-02 1.6569928148991598e-02
      8.8868906585155658e-02 -5.7615853621524590e-02
      5.6267043890601810e-02 2.3955710922017814e-02
      -5.9617627236679349e-02 -1.2617374306442896e-02
      1.1908249327118106e-01 -1.7130161927549029e-02
      -1.4052108042964742e-01 7.8345328103404475e-03
      1.2340610256351752e-02 -1.0873335244152768e-01
      -1.9284467563855141e-04 -4.6664111733295502e-02
      -9.1373287161199079e-02 1.2927702755093393e-01
      -9.9652682717556590e-03 -3.4135852450542313e-02
      8.4054410109060632e-02 -4.7050890122953418e-03
      1.3132323622974333e-02 1.4039037543062483e-02
      4.9352738392285118e-03 1.4270725004030187e-02
      3.0945174835140612e-02 -6.7295783997123104e-02
      2.5951510947045759e-04 7.0866250153951343e-02
      -4.6661123915392913e-02 1.0111132887234632e-01
      -7.2174841835457679e-02 2.1127164497445179e-02
      -5.0208848591270165e-02 7.3588611258067427e-02
      -6.8817837607376385e-03 -6.1277963062619503e-03
      4.6969265494857172e-02 1.4319651934467270e-01
      1.6807395466981335e-02 -8.3407149754537280e-02
      -4.7867610935970348e-02 -1.7257272897395437e-01
      -8.6772227506124421e-03 -1.0380922157328136e-01
      1.5748132571956711e-01 1.8061808032205248e-02
      1.1159359898625031e-01 -8.6603856483616917e-02
      -3.3219846466255136e-02 3.6587383394331078e-03
      -2.6794447298605601e-02 -4.4379638093408724e-02
      -3.1129311934736541e-02 -2.1915505967323796e-02
      -1.0018744008021560e-01 4.9719189158885417e-03
      -1.3375605902012883e-02 3.5578379241632277e-02
      1.3623536315199684e-02 2.9854819266315800e-02
      5.9553666165790949e-02 -5.3259072607296433e-02
      -2.4088028031647956e-02 -4.2202120045158553e-02
      5.3941531348623367e-02 -1.3615581394403073e-02
